//<![CDATA[

// a few things don't have var in front of them - they update already existing variables the game needs
lanesSide = 3;
patchesAhead = 42;
patchesBehind = 8;
trainIterations = 100000;

var number_inputs = (lanesSide * 2 + 1) * (patchesAhead + patchesBehind);
var number_actions = 5;
var temporal_window = 0;
var network_size = number_inputs * temporal_window + number_actions * temporal_window + number_inputs;

var layer_defs = [];
layer_defs.push({
    type: 'input',
    out_sx: 1,
    out_sy: 1,
    out_depth: network_size
});
layer_defs.push({
    type: 'fc',
    num_neurons: 36,
    activation: 'relu'
});
layer_defs.push({
    type: 'fc',
    num_neurons: 24,
    activation: 'tanh'
});
layer_defs.push({
    type: 'fc',
    num_neurons: 12,
    activation: 'tanh'
});
layer_defs.push({
    type: 'fc',
    num_neurons: 12,
    activation: 'tanh'
});
layer_defs.push({
    type: 'regression',
    num_neurons: number_actions
});

var tdtrainer_options = {
    learning_rate: 0.005,
    momentum: 0.5,
    batch_size: 32,
    l2_decay: 0.05
};

var para = {};
para.temporal_window = temporal_window;
para.experience_size = 80000;
para.start_learn_threshold = 40000;
para.gamma = 0.90;
para.learning_steps_total = 200000;
para.learning_steps_burnin = 500;
para.epsilon_min = 0.0;
para.epsilon_test_time = 0.0;
para.layer_defs = layer_defs;
para.tdtrainer_options = tdtrainer_options;

brain = new deepqlearn.Brain(number_inputs, number_actions, para);

learn = function (state, lastReward) {
    brain.backward(lastReward);
    var action = brain.forward(state);

    draw_net();
    draw_stats();

    return action;
}

//]]>
    
/*###########*/
if (brain) {
brain.value_net.fromJSON({"layers":[{"out_depth":350,"out_sx":1,"out_sy":1,"layer_type":"input"},{"out_depth":36,"out_sx":1,"out_sy":1,"layer_type":"fc","num_inputs":350,"l1_decay_mul":0,"l2_decay_mul":1,"filters":[{"sx":1,"sy":1,"depth":350,"w":{"0":-0.07017814963944703,"1":0.05361702938626411,"2":0.021051194520708225,"3":-0.11531302796582371,"4":0.018642235866804066,"5":-0.05531030112294342,"6":0.0667559406684897,"7":-0.053611627659693864,"8":0.065620759620075,"9":-0.06599022441550363,"10":-0.023919637190217478,"11":-0.02015164663722464,"12":0.010212700926683785,"13":0.013406595363323125,"14":-0.10903154543867277,"15":-0.06590895598941743,"16":0.06164245659257393,"17":-0.03360415243712336,"18":-0.0961669934834538,"19":-0.0797783507345528,"20":0.030945177735777093,"21":-0.11903536871128508,"22":-0.030302118658018993,"23":0.09544733888876615,"24":-0.020498905826472933,"25":-0.15225642402934872,"26":0.003301950887119167,"27":0.013666331411661722,"28":-0.045641639052556214,"29":0.060820671158860105,"30":0.1028883447509259,"31":-0.0022879321805706477,"32":-0.19262550839111153,"33":-0.04345390239934569,"34":0.03619689884097282,"35":-0.044193281882465546,"36":-0.028043384773925664,"37":0.09892111472855776,"38":-0.03523183853057671,"39":-0.07156624198368887,"40":-0.05311022901116329,"41":0.07857966770700917,"42":-0.035277717305924224,"43":0.07698162901852244,"44":-0.011356858082428319,"45":-0.002687843960593505,"46":-0.1179163162905638,"47":-0.03620394136541649,"48":0.18112774059898443,"49":0.06773372138928839,"50":0.060395964114004844,"51":0.055330975059281286,"52":0.022885911016068117,"53":-0.06194360620863122,"54":-0.058598114621888533,"55":0.11428442559751459,"56":0.06712743270791316,"57":0.005894383391915822,"58":0.027546209262124692,"59":0.05875819629763084,"60":-0.12018775910398873,"61":-0.06863584471633627,"62":0.08265510843206968,"63":0.015011378198276703,"64":-0.003500583429544591,"65":0.015074919899142971,"66":-0.020077626668391937,"67":-0.1814638474863607,"68":0.006651556839361739,"69":0.06759072408379936,"70":0.027913711211534662,"71":0.0122966324559335,"72":-0.009305516912994631,"73":-0.044692028882055354,"74":-0.07015955598995975,"75":-0.0045499971808196284,"76":-0.04819024467656382,"77":-0.04322213642973624,"78":-0.02296087565356066,"79":-0.09869907512473931,"80":0.05427901745928569,"81":-0.09847749315595772,"82":-0.01143067590727353,"83":-0.03709073363344239,"84":-0.04975165448167605,"85":-0.13066226479746681,"86":-0.06681072565968689,"87":0.01888195418662334,"88":-0.044573898203276285,"89":-0.03031596050980085,"90":-0.014920888261007976,"91":-0.04170367974538147,"92":-0.04630247612882538,"93":-0.014793276260253979,"94":-0.010420249552185235,"95":0.007336308703199012,"96":-0.015644547363834426,"97":-0.0008596575989323721,"98":-0.007792541832001373,"99":-0.056185330886084996,"100":0.02107667518201879,"101":0.027581972557288233,"102":-0.04840140330512563,"103":-0.06820183441761533,"104":0.04270706160331139,"105":0.047722716094571446,"106":-0.040777339536662995,"107":-0.037535232389053014,"108":-0.1382564101308545,"109":-0.13042903120898106,"110":-0.06720659269964371,"111":0.027804220985304176,"112":0.025216496117298596,"113":0.03155713738826407,"114":-0.021004265304953928,"115":-0.19248660322510142,"116":-0.15122243940255578,"117":-0.03681351192345684,"118":-0.01003005792565597,"119":0.013360524783367963,"120":-0.04381619131296809,"121":0.04267766615828831,"122":-0.16979342988002785,"123":-0.13953662793523966,"124":-0.015699594769956682,"125":-0.019034069340297593,"126":-0.006854851508438252,"127":0.027934251503341768,"128":0.021011146284068274,"129":-0.11941902275551472,"130":0.012514391422188067,"131":0.03892754063074741,"132":-0.06655616807961182,"133":-0.02489247250963258,"134":-0.05787534886564797,"135":0.01955938070340504,"136":-0.10709804884320011,"137":-0.021612905541992387,"138":0.1351896332676367,"139":0.029273594322459715,"140":-0.03716582236807768,"141":-0.010247805059413967,"142":0.004305063480693384,"143":-0.06242824059427148,"144":-0.04042584538960646,"145":0.13250919529666302,"146":-0.025832211575036897,"147":-0.0029006028723287517,"148":-0.03356666724701797,"149":0.00365478301300885,"150":-0.019050246441673878,"151":0.019766505464810458,"152":0.1382474018796728,"153":-0.01425393834690796,"154":0.01189908127607843,"155":-0.09766781286113443,"156":-0.02845581678792047,"157":-0.10784997610744701,"158":0.035240044448130475,"159":0.17210918497581673,"160":0.013819573629108475,"161":-0.09137019416510575,"162":-0.06816049037001526,"163":-0.08673394475957419,"164":-0.06004350177659937,"165":0.01101826731250289,"166":0.21436499871878606,"167":-0.018201021008317417,"168":-0.0786463865381095,"169":-0.06868879736803007,"170":0.006961496204369384,"171":-0.01053693337093568,"172":0.05658056007695386,"173":0.16966062245528205,"174":0.06897695974884514,"175":-0.09254021869251106,"176":-0.01889153852127292,"177":0.029817759568547746,"178":-0.15489083807579104,"179":0.01071188868402419,"180":0.18961698303655566,"181":0.013515311373910807,"182":-0.08140238959498294,"183":0.007664247934725253,"184":0.04908903413330683,"185":-0.1237236110711755,"186":0.0023899266882552533,"187":0.1579952135151594,"188":0.009461537096802395,"189":-0.06016132740873281,"190":0.017613484753497166,"191":0.007230797990354218,"192":0.003567913512828716,"193":0.04887509337067964,"194":0.1512298603049571,"195":0.045249495080371696,"196":-0.07897225135151478,"197":-0.034456641466588715,"198":-0.031432217953543964,"199":-0.20558913146620103,"200":0.05588466608780657,"201":0.2349232335996923,"202":-0.011334854672512612,"203":-0.1293456246925643,"204":-0.04066410324537265,"205":0.04015897776651503,"206":-0.15879563633577332,"207":0.22963311215011473,"208":0.32198188831187896,"209":0.05006672924349021,"210":-0.10442999776103869,"211":-0.05012051792188101,"212":0.05411702134921139,"213":-0.23058979178513642,"214":0.2926234966021705,"215":0.37330337894174026,"216":0.093534714020468,"217":-0.03257343524795006,"218":-0.048081935579053325,"219":0.12308491798617119,"220":-0.16063721963746422,"221":0.19589355383095966,"222":0.29902551216715223,"223":0.07422791692062451,"224":0.027686122062471476,"225":-0.012104102038098865,"226":0.13123058200052948,"227":-0.2103783972336025,"228":0.2152460421019495,"229":0.27133018520703645,"230":0.11861025575089405,"231":0.08082391017954396,"232":-0.10527075999965585,"233":0.14022082331059824,"234":-0.07717383712090105,"235":0.27442150554566214,"236":0.2967278376236139,"237":0.08646075868534588,"238":0.07862642786799104,"239":-0.02523328398331281,"240":0.12604941978899695,"241":-0.18588779512248207,"242":0.2555049083839218,"243":0.402785767970499,"244":0.08666141418765254,"245":0.05931143268357448,"246":-0.00022397122983694283,"247":0.06382020156749538,"248":-0.3077827058161994,"249":0.29208550115796633,"250":0.43320451378928004,"251":0.0906829057103297,"252":0.02352735427949821,"253":-0.024550714253108417,"254":-0.0785299285579853,"255":-0.12856136690546924,"256":0.43962228509842705,"257":0.39552972373547207,"258":0.11442494825068815,"259":0.06722443784923943,"260":-0.009839927849494848,"261":-0.12626115657330003,"262":-0.2844706904000497,"263":0.29398744065700866,"264":0.322225428039909,"265":0.05244957173342413,"266":-0.005541501744614117,"267":-0.036451801928783695,"268":-0.04370549643042677,"269":-0.176759492724421,"270":0.14813285859718098,"271":0.29037625203240575,"272":0.043262290360161756,"273":-0.05059103520691602,"274":-0.10123846118733122,"275":-0.08879580973337818,"276":-0.2943826313333743,"277":0.12687373141402639,"278":0.3202836498712646,"279":0.018881952596654185,"280":0.03071197604643217,"281":-0.09672763680853158,"282":-0.1094083857434682,"283":-0.3190137696872408,"284":-0.058956746457454245,"285":0.2970241093899544,"286":-0.057454153987153284,"287":-0.0044126821968632195,"288":-0.08803285114367189,"289":-0.07121297874524594,"290":-0.28629038267769547,"291":-0.17304458516563778,"292":0.19048090450872576,"293":-0.055519524709428676,"294":0.011974358573938837,"295":-0.052230067269551185,"296":0.056427930319870694,"297":-0.00014289542746158485,"298":-0.19500737922406394,"299":0.2672239556661023,"300":-0.008943548054788295,"301":0.019054765419865595,"302":-0.030650473909894588,"303":0.05121034457728496,"304":-0.0014437588246412453,"305":-0.03855012332086609,"306":0.3050769972569324,"307":-0.06857907552862282,"308":-0.0336648966793356,"309":0.0005022353423656061,"310":0.1990812968210624,"311":-0.0017698672740604977,"312":-0.11179243927125837,"313":0.21100362469224068,"314":-0.05842746649322106,"315":-0.06585927102855713,"316":0.08971957657520072,"317":0.1217105191789039,"318":-0.0011910702518293799,"319":-0.03920401279353913,"320":0.20312404787380556,"321":-0.07118771135284167,"322":-0.03259820658159501,"323":0.14420614418591104,"324":-0.011055107614679776,"325":-0.25224198298804196,"326":0.052317828915179575,"327":0.14982137399469997,"328":-0.014700056770465762,"329":-0.019824743041441863,"330":0.07174380691251074,"331":0.11339748848847804,"332":-0.24919990059227035,"333":0.04842212088958894,"334":0.06455209446329556,"335":-0.020189963867150804,"336":-0.012448727517024808,"337":0.10541733947956464,"338":0.05445078313275637,"339":-0.23271817138025366,"340":0.0686534717715071,"341":0.08096849699790934,"342":-0.006926249442816564,"343":-0.016493979023814276,"344":0.11029792620060912,"345":0.03679402318177067,"346":-0.052731306063908315,"347":-0.05011411146411536,"348":-0.0013691087217077029,"349":0.0012626953991409686}},{"sx":1,"sy":1,"depth":350,"w":{"0":0.004500403407278331,"1":-0.0037425067099650868,"2":0.0049164369364225686,"3":-0.0027745731101448236,"4":-0.006938723610730435,"5":-0.004469090659256107,"6":0.004084633468538891,"7":-0.0028943020888117926,"8":-0.004833038157550397,"9":0.004206300478680283,"10":-0.0036142111130582086,"11":0.001644406185330118,"12":-0.00035825510585985574,"13":-0.00021347206040606224,"14":0.0034165750085737704,"15":-0.009358247894779499,"16":0.00770797645810168,"17":-0.003930287109029243,"18":-0.00307983367784837,"19":-0.005839116224735028,"20":-0.002373603557029914,"21":-0.002895242532386585,"22":-0.005765375309489029,"23":-0.0005262540870668851,"24":-0.001514824497309522,"25":-0.002840092757215771,"26":0.005946783132815524,"27":-0.010097048881055887,"28":-0.00010161946551148731,"29":-0.0013034609733036074,"30":-0.002802726273293758,"31":-0.0056057241500164605,"32":-0.0031447716607549154,"33":0.0015180842355368358,"34":-0.0013689835665113117,"35":-0.010132006137954695,"36":0.0012898287309633834,"37":0.002774156571282734,"38":0.0053409685067881685,"39":0.009909004971643584,"40":-0.0017966016976734282,"41":-0.00015571931367926422,"42":-0.0029217348774342364,"43":-0.0034142207606751487,"44":-0.0018946046052733766,"45":0.006489015957135967,"46":-0.00021038207857624296,"47":0.0013735882910802693,"48":-0.0058322142575253375,"49":0.0011873458248481876,"50":-0.0022244074932065414,"51":0.0019932592535698217,"52":0.0004472799875847751,"53":0.006194298045976296,"54":-0.0016212186763715432,"55":0.003525085729405493,"56":0.001343140601406239,"57":0.002779119497995837,"58":0.000516817092315797,"59":0.0050796054732862115,"60":-0.005154403538104828,"61":0.003577978115793485,"62":-0.005451467527317136,"63":0.002387752817263362,"64":-0.001711835186468399,"65":-0.004086854028623551,"66":-0.0016029055493391234,"67":-0.004219592001384015,"68":0.0029282069069205535,"69":0.0003282444399753409,"70":-0.0008786639346416983,"71":0.002832550354107204,"72":-0.012043470215139735,"73":-0.0005185015325617176,"74":-0.012962591673735984,"75":0.005425690818956631,"76":-0.00344985357517403,"77":-0.0016075292627896031,"78":-0.0033174182541647512,"79":-0.0015420589431590491,"80":0.00034712209235127236,"81":-0.003421561798092099,"82":-0.0018440888108578878,"83":0.006729272604173676,"84":-0.0006859749846279771,"85":-0.006223212122685696,"86":0.008987807655144241,"87":-0.0025312629674403824,"88":-0.010215258011811787,"89":0.0031846028745028364,"90":0.005661815712468623,"91":-0.0036758295816546583,"92":0.0028156620986352085,"93":0.001983790442002896,"94":-0.0017502623871006125,"95":-0.012641271466566859,"96":0.007960305823380706,"97":0.002563493643300731,"98":-0.00014267471494752617,"99":-0.005857951829582052,"100":0.001314593819163075,"101":-0.0065024034348372325,"102":-0.0026611618722521537,"103":0.0014458402230535545,"104":-0.001449131561429901,"105":-0.004175122995060832,"106":-0.006425079146985975,"107":0.0067499170364207816,"108":0.001355527427015566,"109":-0.0022053009208844432,"110":-0.005687256651078541,"111":-0.0013660117376277973,"112":-0.003082742988488224,"113":-0.0009694671992503066,"114":0.004814611896691286,"115":-0.0058732901604839705,"116":-0.002417167139770305,"117":0.0012543512376962463,"118":0.0002711608501567578,"119":0.0016619529628035803,"120":0.006545945029993001,"121":0.003967951148696263,"122":-0.003199927688185868,"123":-0.0031279261363106104,"124":0.003910863819548028,"125":-0.005539494324922806,"126":-0.005078218165755295,"127":-0.0015175918740376367,"128":-0.0025145798863801657,"129":-0.0047024126935902525,"130":-0.00016952895765942751,"131":-0.0022972533063372437,"132":-0.00027977305347710245,"133":-0.0036898828730575245,"134":-0.005462321803245402,"135":-0.005773351908787449,"136":0.0011214322263274905,"137":-0.0035880059629772344,"138":0.004064464587856783,"139":-0.008645247263204077,"140":0.00021589891856205748,"141":-0.005648860233792673,"142":0.0030661105625832685,"143":-0.005477334899831303,"144":0.0019320614848591475,"145":0.0005217293559988768,"146":0.0022976399138645246,"147":-0.004032419099837045,"148":-0.0025716911258978365,"149":-0.005759413548949526,"150":-0.0034642789593307406,"151":-0.0017150264756473237,"152":0.002805320700891413,"153":0.0005846567696507595,"154":-0.0028022804512972776,"155":-0.0011675825466329634,"156":-0.003493998207951288,"157":-0.0035005441703801253,"158":-0.007597547885767274,"159":0.0026887260390238425,"160":-0.0013450172246506538,"161":0.0015910568148596103,"162":0.0021442445158553203,"163":0.0031023957560225818,"164":0.004239759668888821,"165":-0.0006780407922305036,"166":0.00039051116215844283,"167":-0.005059067943552625,"168":-0.00413750951300066,"169":-0.0023134564987161857,"170":0.006265338493653644,"171":0.002872994923917583,"172":0.0005928741275815091,"173":-0.002095013405996035,"174":-0.004267925695035809,"175":0.0020575294567623265,"176":-0.0055054446283913094,"177":-0.004289193171431981,"178":-0.0006476480343988267,"179":0.0005799608783168837,"180":-0.008442727381468266,"181":-0.008154472121080945,"182":-0.0015353308615235481,"183":0.00018793316904125394,"184":-0.001006472989598851,"185":-0.0033223667049243296,"186":0.0005402388101107852,"187":0.0012834076029768912,"188":0.00001530018327818789,"189":0.0030002046086296634,"190":-0.006313078473308936,"191":0.004926738887563035,"192":-0.004815564115143937,"193":0.0005848623234602163,"194":-0.0028073145545957317,"195":-0.0051789572935139186,"196":0.002790512556578832,"197":-0.0033678656430000753,"198":-0.0028871424109766673,"199":-0.008301432615231407,"200":0.0031257902542058268,"201":0.001463831402684873,"202":-0.00634467437344874,"203":-0.0031542881556766724,"204":-0.0022526100024735647,"205":0.004082946809864652,"206":-0.0074264937387016495,"207":0.0012931513696022119,"208":-0.0025099243554670123,"209":-0.0014888803646987126,"210":0.004103190702823763,"211":-0.008549591411221245,"212":0.00963964250254102,"213":0.007820838849411298,"214":0.00524609743810517,"215":0.0030817144680801776,"216":0.004152053817384166,"217":0.005627435816993394,"218":0.006263932758782063,"219":0.0072319918619889265,"220":0.009011549864657334,"221":0.0015369049395451298,"222":-0.008025473516059093,"223":-0.003839017570661306,"224":-0.004145400157827781,"225":-0.0017664093163947895,"226":0.0026824613731925365,"227":-0.0031416992870783376,"228":-0.003849985621798247,"229":0.003946945916166746,"230":0.004442497111026543,"231":-0.00008738006013594994,"232":-0.0022130464283403747,"233":0.0021813618095750625,"234":-0.0036155008592702793,"235":0.006443007258355693,"236":0.008460808132713132,"237":0.0032700931199611863,"238":0.0001225593177792508,"239":0.001064223264710606,"240":0.008448872011162246,"241":0.005138683215184077,"242":0.0028298057594647054,"243":0.003453720393038987,"244":0.006045578649661376,"245":0.002804431743851371,"246":-0.0003343832381769641,"247":-0.005561882828037703,"248":-0.0016922769964145938,"249":-0.0042960281117599055,"250":-0.002049030365766816,"251":-0.0033851622674827596,"252":0.006147873942438396,"253":-0.002877893193329308,"254":-0.0008987345530013109,"255":-0.006505036667273274,"256":-0.0021627410496897048,"257":-0.0030523660449664255,"258":-0.0006823045098814106,"259":0.0034114217505112378,"260":-0.004902878485681749,"261":-0.000014144745008605899,"262":-0.005889844600246654,"263":-0.0042141871091480486,"264":-0.002048302574495594,"265":0.0061050664415826725,"266":-0.0035797958935800665,"267":-0.009067755373578644,"268":-0.0016784872879820785,"269":-0.005753104282360834,"270":0.007533916564396568,"271":-0.003767727498346247,"272":-0.000811702194381561,"273":0.0043282323304480175,"274":-0.00609607895835092,"275":0.0010963081693421718,"276":-0.0035003125402131336,"277":0.006831015501603891,"278":0.0027227230126510397,"279":-0.0018295215082886039,"280":-0.004529559711393209,"281":0.005985908180845271,"282":0.004096601387010928,"283":0.0016936313014661703,"284":-0.005007570714799887,"285":0.0006351527220368892,"286":-0.000024397126150618635,"287":-0.0034358671721131293,"288":-0.0037633056822349784,"289":0.0022725890366505994,"290":-0.003317857871096344,"291":0.0036864623947685904,"292":-0.010198657530577802,"293":-0.004374855025164016,"294":-0.00780423410683785,"295":-0.0006935397289567638,"296":-0.002471847862017512,"297":0.0013149746700181668,"298":0.003590732515299199,"299":-0.007282176505116179,"300":0.004923029140432325,"301":-0.009283352865675554,"302":-0.005635750165756115,"303":-0.0007242337689239937,"304":0.00007452779435099666,"305":-0.005034080160768443,"306":-0.008803993790072058,"307":-0.002352899160213658,"308":0.0015435204821150708,"309":0.008739116145228161,"310":0.0047092323690213315,"311":-0.004209543952860424,"312":-0.00563427454618505,"313":-0.013292948750247132,"314":-0.003956761913450164,"315":-0.002205821950703267,"316":0.00269944736151341,"317":0.0004291425673961521,"318":-0.0030072179361341827,"319":0.003147343862763164,"320":-0.0005278086232376868,"321":-0.0023980268901386014,"322":-0.00358351769721358,"323":-0.0011142080528583423,"324":-0.0045488383805543115,"325":0.0035393586656642254,"326":-0.0027209510312789084,"327":-0.00523647810954589,"328":-0.003924242357694715,"329":-0.0021548375160716023,"330":-0.0035187517640386493,"331":0.002206394096194107,"332":-0.005281126274448755,"333":-0.003907869336063988,"334":0.0003844310232202002,"335":-0.00920992504696051,"336":-0.0009526608556730923,"337":0.004473048733902229,"338":-0.004056572114695428,"339":-0.00928627507975628,"340":-0.00117167506637177,"341":-0.002532563272763237,"342":0.000034863095155361185,"343":-0.0036743644502904103,"344":0.004632619238287638,"345":-0.005161342651778713,"346":0.005799068791672799,"347":-0.008656990144625615,"348":-0.0005768072214022772,"349":0.011341657961890683}},{"sx":1,"sy":1,"depth":350,"w":{"0":-0.10714048339294055,"1":-0.21569113083135555,"2":-0.24210037899094938,"3":-0.1317954443806431,"4":0.0028127155032260723,"5":0.0008431661927278363,"6":-0.023747978120044855,"7":0.1367116755114919,"8":-0.09164690516450796,"9":-0.16628240889537427,"10":-0.03018302012501587,"11":-0.16959052496089727,"12":-0.020586940732462353,"13":0.028724406768548278,"14":0.1612703029747524,"15":-0.06312775223858524,"16":-0.07802886340622961,"17":0.09970589727217403,"18":0.08981430033249375,"19":0.014195654672711623,"20":0.022771213121790077,"21":0.005249475557716248,"22":0.004786239235092081,"23":-0.005303116845555655,"24":-0.12818625638223777,"25":-0.05929564633822181,"26":0.030985844959129347,"27":-0.028721528706353715,"28":0.03835929569366009,"29":-0.06607640684464727,"30":-0.17815167951228356,"31":-0.14321383464286724,"32":0.04408340941784673,"33":0.004871870475273665,"34":0.052475312465668895,"35":-0.0782394390220269,"36":-0.14507594447357383,"37":-0.03603937080225468,"38":-0.16803519963831892,"39":0.10174835738999856,"40":0.051493741595379894,"41":-0.02763919356254467,"42":-0.0462988953911304,"43":0.006220994050919833,"44":-0.13166161306114613,"45":-0.07780417542324801,"46":-0.007879612601486568,"47":0.03688640617628448,"48":-0.031389213293851415,"49":0.0036522854137190286,"50":0.0043899252828825015,"51":-0.15664386667249106,"52":-0.17305711798094314,"53":-0.06546674685029585,"54":-0.021124312303816794,"55":0.009670962311467402,"56":0.024765313033769328,"57":-0.11546114349045675,"58":-0.0575235192524204,"59":-0.25021426107410916,"60":-0.08145707623269302,"61":-0.02750095544361366,"62":-0.06939303036205906,"63":-0.08163973608934584,"64":-0.14952834454127867,"65":0.03232583460886085,"66":-0.13020308927941945,"67":-0.04528542126478998,"68":-0.07678662457521154,"69":-0.1383550696283735,"70":-0.08261284021525561,"71":-0.1550943017779877,"72":0.027715996873395758,"73":-0.07866029158524042,"74":-0.06772904132513853,"75":0.03721619371835058,"76":-0.09598453940524583,"77":-0.11041839089450119,"78":-0.0788782604199804,"79":-0.008565044413581996,"80":-0.03710945906048876,"81":-0.09964105316226246,"82":-0.07444913056277852,"83":-0.1581529494397557,"84":0.014695684002036637,"85":-0.10474540762166352,"86":-0.061244120190634264,"87":-0.005269407843375023,"88":-0.09615728338741487,"89":0.024101627436418416,"90":-0.09156703623744371,"91":-0.032782558650087126,"92":-0.05728932493653052,"93":-0.06171462766719644,"94":-0.08247377629550906,"95":0.008022946997839493,"96":-0.03205217050844146,"97":0.12387346773198514,"98":-0.13995492470830928,"99":-0.14410117908265482,"100":-0.08520836021723183,"101":-0.10713697165693219,"102":-0.04232141556601608,"103":-0.15629202590339195,"104":0.11269506138655681,"105":-0.023212290080561384,"106":-0.024980882906508683,"107":0.010633371677046253,"108":-0.051187967491799,"109":0.09777654735827582,"110":0.016675424959040137,"111":-0.03899885244726271,"112":-0.05817300890279611,"113":-0.13134082211526749,"114":0.00798586465268165,"115":-0.019106900654114304,"116":0.10975578235718414,"117":0.003583227480611773,"118":-0.002293610814943446,"119":0.06788129095154394,"120":0.03670565423630749,"121":-0.16014132204778114,"122":-0.06277473395492832,"123":0.10303215046119939,"124":-0.05603513378767688,"125":0.07276195050101177,"126":0.11560803186265602,"127":0.032164493434513754,"128":-0.22040412221628342,"129":-0.010580525168223272,"130":0.08102885735196638,"131":-0.05191789576774793,"132":0.06257297786899758,"133":-0.014206739715104165,"134":-0.20323059562420362,"135":-0.21023498681559175,"136":0.10612732070851555,"137":0.031122517239440095,"138":-0.047739872921619096,"139":0.15985756895823935,"140":0.14423556833077808,"141":-0.026142592053041095,"142":-0.18178721391411276,"143":-0.08107649035097493,"144":0.0055188314392928305,"145":-0.08690824286054047,"146":0.11222750506564555,"147":-0.05654713288846167,"148":0.016623372542917375,"149":-0.07240401238090854,"150":-0.02448603979467527,"151":0.046066076529818784,"152":0.044521547422737666,"153":-0.03450652938063129,"154":0.0035591557910756738,"155":0.04633481598229753,"156":0.0657244096231345,"157":-0.16807417925393303,"158":0.04091993884831966,"159":0.04010501926756381,"160":-0.012206363908520564,"161":-0.08084948719111344,"162":-0.11900398705264355,"163":-0.08985892825894452,"164":-0.10430307376923224,"165":-0.029226636283888954,"166":0.031609223986981044,"167":0.07741649703880475,"168":-0.07508229763937878,"169":-0.1356354150527656,"170":-0.0796975790450548,"171":-0.042928954380140334,"172":-0.0508233151149553,"173":0.007635621573323608,"174":0.049738019281847956,"175":0.006327007103342751,"176":-0.0821828246408654,"177":0.04153924915889633,"178":-0.0669364641710532,"179":-0.09484716255582161,"180":-0.01455305035643972,"181":0.09044220611099357,"182":0.0680520121740617,"183":-0.030961448362830747,"184":0.07566946884105241,"185":-0.10170583436325216,"186":-0.040053359244441644,"187":-0.026542823069103508,"188":0.06973603247744213,"189":0.07488892181788101,"190":0.056377821464925156,"191":0.07700107095840161,"192":-0.08236853103801436,"193":-0.06406303356593702,"194":-0.019631201726425924,"195":0.10158294014191518,"196":-0.08186875590555263,"197":-0.07204189856865793,"198":0.04176906094711072,"199":0.3748535955587177,"200":-0.05951085399478197,"201":-0.033731871148146055,"202":0.021453843165106186,"203":-0.02539904058474038,"204":0.053770964454152484,"205":0.3379544967532269,"206":0.24052162997125512,"207":-0.046113467832735074,"208":-0.06592006628252484,"209":-0.011082754203157302,"210":-0.0280931366678507,"211":0.02781524158313498,"212":0.33151709613896846,"213":0.20372094027111057,"214":0.20724339626930927,"215":0.09039461592906367,"216":0.04810015091518024,"217":-0.17532332249362867,"218":0.10513072524436753,"219":0.34020807560273797,"220":-0.07318907306096772,"221":0.03377119001370455,"222":0.049392148885748124,"223":0.07619419534221898,"224":-0.021041860857647064,"225":0.2510442596165995,"226":0.38580523843436615,"227":-0.5935339076343213,"228":0.15639050193052856,"229":-0.03137667478145569,"230":0.01196040790121206,"231":0.052419048782757154,"232":0.1024942446731901,"233":0.5649618956831154,"234":-0.504264254083478,"235":0.014683319108773695,"236":0.04974945164823083,"237":-0.018686674034192538,"238":0.055725887633338037,"239":0.29784190419903805,"240":0.7984109545809943,"241":-0.4833645003734358,"242":0.1744983991304724,"243":-0.10304196356437273,"244":0.04899670232814566,"245":-0.04882967379775387,"246":0.2576216243147751,"247":0.7122881909850651,"248":-0.12201781495796432,"249":-0.18086158100541483,"250":-0.11306582061577114,"251":-0.011890906904632015,"252":-0.1121414853741025,"253":0.2753938872217739,"254":1.0210100427476754,"255":-0.14949146888828227,"256":-0.20751737359347075,"257":-0.028841899873140456,"258":0.02753116043227942,"259":-0.07913454549020231,"260":0.3045140348404432,"261":1.228025485075253,"262":-0.34599396437733626,"263":-0.20366379577863988,"264":-0.045280138867338726,"265":0.004606159627321724,"266":-0.06304227320028359,"267":0.35538262774309265,"268":1.2186462647874972,"269":-0.35332872869096255,"270":-0.2608348933331599,"271":0.030027944272965797,"272":-0.08217338642316534,"273":0.06199140853009332,"274":0.2591104507071657,"275":1.4765298597048,"276":-0.7959027423005539,"277":-0.1017101339870099,"278":0.03870731248264764,"279":-0.13079814615746996,"280":0.060157842217311526,"281":0.3754752102773507,"282":1.6152248680897008,"283":-0.8577023240649926,"284":-0.1806246031876265,"285":0.06671904863423755,"286":-0.015616469772441549,"287":0.10203863052401682,"288":0.27702953099784483,"289":1.600566422133022,"290":-0.8318746913815201,"291":-0.4446984165887699,"292":-0.03400833356103613,"293":-0.0010517334546288996,"294":0.0014163639488544847,"295":0.18941297365191506,"296":1.4164678664137185,"297":0.038747204820934494,"298":-0.4473768133643631,"299":0.12258848075984548,"300":-0.0487741511281041,"301":0.13466520770571647,"302":0.1331439720518886,"303":1.2774805185402032,"304":0.04403549677822157,"305":-0.1595385719550108,"306":-0.002551631709377558,"307":0.11256620323988886,"308":-0.012048664592577783,"309":-0.0910866907950438,"310":1.2046965584493834,"311":0.03552479442439249,"312":-0.0864693326069311,"313":-0.003040500331162012,"314":0.10618209562525632,"315":-0.021729097525185714,"316":-0.01629743692947178,"317":1.2843012764965822,"318":0.03456035993448383,"319":-0.03371654675311065,"320":0.021123830775319794,"321":0.01302186036316539,"322":0.02003959942600596,"323":0.05326790070062997,"324":0.5541493325232427,"325":-0.8243626153933591,"326":-0.06232197438937447,"327":-0.09123225171332706,"328":0.037838398773644276,"329":0.0024874470721321044,"330":-0.04293242048449456,"331":0.46839696975180417,"332":-0.8264089648403234,"333":-0.09606551793167402,"334":0.0063465736016925555,"335":0.0393658145354741,"336":-0.006753589441400736,"337":-0.052527003863418575,"338":0.06719903491347186,"339":-0.788182607570148,"340":-0.1168087127217337,"341":0.06864608379424324,"342":-0.09930971999882914,"343":0.1288806311157172,"344":-0.25227333145262854,"345":-0.2697947582060403,"346":0.06525361982062486,"347":0.10484649904070811,"348":0.008337474193821753,"349":0.009724561101080073}},{"sx":1,"sy":1,"depth":350,"w":{"0":-0.0036230373222978724,"1":0.10700230991014467,"2":-0.1814951907158099,"3":-0.16744560440197756,"4":0.044753280551743636,"5":-0.0037845936211314364,"6":0.13343049968815282,"7":-0.04839796679641154,"8":0.1001059702172695,"9":-0.0899334195030588,"10":-0.08947332572678134,"11":0.10713531039946468,"12":0.02422876934161782,"13":0.0023314610065731183,"14":-0.05784973867155807,"15":0.048561645969203183,"16":-0.19883774178441227,"17":-0.07102142856236361,"18":0.06581441777550644,"19":-0.005889471728152656,"20":0.12176511711692704,"21":-0.15943512388055486,"22":0.02738758112422195,"23":-0.11095439656473036,"24":-0.05816672642901128,"25":0.13789453739058904,"26":0.04921561311620942,"27":0.11483901128623375,"28":-0.0578139776373353,"29":0.04762197231565007,"30":-0.0899214382204315,"31":-0.007292871185029822,"32":0.02106961125198068,"33":-0.04575677159940734,"34":0.057326574148124365,"35":0.00562302476536888,"36":0.07343214619398908,"37":0.08083596887258822,"38":-0.02489677005275111,"39":0.04216635224769911,"40":-0.09807832746920515,"41":0.15310353375601504,"42":-0.03472341907388287,"43":0.0504449025596317,"44":0.1275744161608604,"45":0.0446261096255604,"46":0.029471942521012883,"47":-0.09558590369925704,"48":0.08763998781281075,"49":0.08136699367739053,"50":-0.05468546536392053,"51":0.12031701486470026,"52":-0.0543453887358999,"53":-0.04351974596059052,"54":-0.057087781155303136,"55":-0.06313862607608334,"56":0.08152705268911296,"57":-0.11194153481405561,"58":0.08175112201822328,"59":-0.12942155755141796,"60":0.07039499850416114,"61":-0.18973512304607926,"62":-0.14800295483428788,"63":-0.015698122609341898,"64":-0.0942316291519183,"65":-0.02145715074101075,"66":-0.058100536427415014,"67":0.059089116385019846,"68":-0.14646713164663197,"69":-0.2004406493116902,"70":-0.034816096917502766,"71":-0.07073951007753644,"72":0.009760433008889577,"73":-0.13247541443130287,"74":0.012300287109920366,"75":-0.043609656005707396,"76":-0.1512352108407283,"77":-0.032166942042019066,"78":0.002520511748690853,"79":0.09443379225978456,"80":-0.13517620344937875,"81":-0.017710039082094793,"82":-0.029198705979506644,"83":-0.13205063173137196,"84":-0.15294144929410944,"85":0.024325577490258325,"86":0.02092275571484689,"87":-0.14042455531400252,"88":-0.07161939466975353,"89":-0.006646502309084908,"90":-0.07080088084385296,"91":-0.031981746657890116,"92":-0.04186600590050093,"93":0.013550677238334414,"94":-0.0725978426850561,"95":-0.14584903005235617,"96":0.08282595422718955,"97":-0.0725815487601697,"98":-0.06463519691455163,"99":-0.021110735696345403,"100":0.05421910069866973,"101":0.009839758924346124,"102":-0.019859989988201536,"103":-0.056591019880574835,"104":-0.02550113814578963,"105":-0.04112699101472497,"106":0.010197613923300443,"107":-0.05504499789048106,"108":0.01994840368865832,"109":0.0008978711547828073,"110":0.013691386945326539,"111":-0.09211712233486884,"112":-0.031294992867739416,"113":0.0578470560404258,"114":-0.015197271548008042,"115":-0.06851639209300597,"116":-0.03451258974533978,"117":-0.04306945235249805,"118":-0.03676955926662774,"119":0.009075701891785864,"120":0.12776044093610828,"121":-0.0170471137546447,"122":-0.025293544565505525,"123":0.05045783916950132,"124":-0.11082622917062566,"125":-0.05604806886081985,"126":0.15456762660182138,"127":0.01967193700338885,"128":-0.0007499283651354354,"129":0.05445850455728106,"130":-0.030343934086219,"131":0.016103661490109455,"132":-0.09501564926664534,"133":0.10097940772095675,"134":-0.011723050143524405,"135":0.040370035755986466,"136":0.18414566028296872,"137":-0.03028763886897883,"138":-0.24990794607131864,"139":-0.04692603005837505,"140":0.07294405720391749,"141":0.016295234806312998,"142":0.01578861843165861,"143":0.1707491187670824,"144":-0.030357243466408144,"145":-0.03774176788128546,"146":-0.08966050371946181,"147":-0.03193552768088721,"148":0.0054234426307443375,"149":0.07340305259532645,"150":0.09439916527189104,"151":0.059482352620166115,"152":0.054346793501177354,"153":-0.03152895928309845,"154":0.08192281593656896,"155":0.031078453051183723,"156":0.15723963960032855,"157":0.02432783512798763,"158":0.1001186886045213,"159":0.013958953957051226,"160":0.02379181054945509,"161":0.10404104751965401,"162":-0.04609678183187159,"163":0.03967942612132145,"164":0.021066414410332943,"165":0.03984414402433262,"166":0.07385913598835313,"167":0.08944169133592969,"168":0.14716138407009904,"169":0.035853863184096495,"170":0.1179860292051592,"171":0.1098329014445154,"172":-0.020256081545552605,"173":0.08915792713243181,"174":-0.010409051762657424,"175":0.17758124701197828,"176":-0.008319924970520112,"177":0.09535711260234409,"178":0.21658151874154316,"179":-0.08923116235675596,"180":-0.07281999366467964,"181":-0.02644579285336707,"182":-0.047223295317202735,"183":-0.02024853591527652,"184":-0.05905156858175265,"185":0.24180861910447604,"186":-0.11535048294664964,"187":-0.09426134067051165,"188":-0.07402624133045203,"189":-0.08381402883677562,"190":0.06169678887321149,"191":0.017555672816807692,"192":0.4573924721575174,"193":0.1323725430062435,"194":0.022474207561465943,"195":-0.03753520253576406,"196":0.011419715651078846,"197":-0.05867831048536414,"198":0.19818921790800562,"199":0.4190429531127311,"200":0.4643130017358503,"201":-0.0008756509875720703,"202":-0.10613446995636618,"203":-0.07064351019358774,"204":0.07751183899310592,"205":0.19037730861167002,"206":0.4735358145123501,"207":0.4209203670077342,"208":0.10102353317821398,"209":-0.024385547661764952,"210":0.004627611574732651,"211":0.06524478076948355,"212":0.24225750789829698,"213":0.5838151613468905,"214":0.5447917883016816,"215":0.2131842456296573,"216":-0.03644574993783609,"217":-0.05136476788326812,"218":0.05386054570125457,"219":0.09548310207907124,"220":0.39252738556032296,"221":0.20368192926250017,"222":0.17691103070386055,"223":0.07282971077011151,"224":-0.0034560554651501918,"225":0.022602443077756783,"226":0.05246269053777762,"227":0.4532350056786762,"228":0.09113083626568189,"229":0.07403525326560596,"230":0.06829664691017692,"231":0.01750863253311516,"232":-0.01860175892143347,"233":0.11536301929513218,"234":0.549556722984198,"235":0.27447145392684946,"236":0.023594031293800184,"237":0.07032050765707214,"238":-0.05355837979345687,"239":-0.01283507823488617,"240":0.12259226596727432,"241":0.4750616997553052,"242":0.5415187778469802,"243":-0.05715301675509779,"244":0.2205264003779213,"245":-0.029140706534121808,"246":-0.041330307717267804,"247":-0.26035232041409573,"248":0.9482841950774853,"249":-0.43876196104955134,"250":0.027728217504011537,"251":-0.014426774379790976,"252":-0.026848395196010042,"253":-0.05402129649683542,"254":-0.343223206969969,"255":0.7525192903851937,"256":-0.37246311510330693,"257":-0.0013076971653717933,"258":0.09839838672986323,"259":0.011506177038855304,"260":-0.03143830044304869,"261":-0.4166947663380486,"262":0.6649467371114517,"263":-0.46547692116442824,"264":0.08115244012114516,"265":-0.06408457491710673,"266":-0.01155490462857502,"267":-0.1075046576147514,"268":-0.3819598416683346,"269":0.5951525528356942,"270":-0.6135775344082883,"271":0.027215928179159937,"272":-0.14870341718298244,"273":0.07967907108815786,"274":-0.0860200642747073,"275":-0.07342087341728198,"276":-0.15153958051883856,"277":0.19509047538352398,"278":0.08765362355392023,"279":0.08009491649719758,"280":-0.057592347162379764,"281":-0.07480465341630571,"282":-0.13976731170022816,"283":-0.09590691598948589,"284":-0.23704769884955057,"285":0.07145753704442585,"286":-0.07222128196578717,"287":-0.044008370812981264,"288":-0.18048673720832414,"289":-0.1910887542555721,"290":-0.3096767657920894,"291":-0.5331377553616945,"292":-0.02811248833676827,"293":0.04102734848135039,"294":0.036915286414801206,"295":-0.036959755395026904,"296":-0.05064436977802674,"297":0.12002068161434067,"298":-0.5132384917129756,"299":0.1341736778945643,"300":0.01422182001342302,"301":-0.004962391904304465,"302":-0.02133985443746871,"303":0.23816227297348352,"304":0.11774751327842145,"305":-0.0440473406068196,"306":-0.051214769043954216,"307":-0.11051602808722888,"308":0.0016493673256056096,"309":-0.002306244159687546,"310":0.07314395986934283,"311":0.11122543120158632,"312":0.07907931688644583,"313":0.048634995912916514,"314":-0.05067874020721994,"315":-0.04888029407190158,"316":-0.1072683193529448,"317":0.175000044174015,"318":0.11039743474656319,"319":0.09974589206781741,"320":0.08766647689110808,"321":-0.10203055885763727,"322":-0.04149932985017863,"323":0.12618975436946633,"324":0.17883699686908974,"325":-0.4057591332995779,"326":0.038728877136381776,"327":0.04539330663036158,"328":-0.02455922976140024,"329":0.0042907254394545825,"330":0.03748191941337992,"331":0.033189789121629926,"332":-0.3973714819612988,"333":-0.10990860013249751,"334":0.0905110045853478,"335":0.05129271008858441,"336":-0.014352335446829068,"337":-0.11198385022324359,"338":0.07540200067831325,"339":-0.3054265485488814,"340":-0.30912894154572496,"341":0.001369702673544787,"342":0.05394021953895317,"343":0.02293480244840156,"344":-0.0442926873223958,"345":0.04746963100242955,"346":-0.10771586906545422,"347":-0.1552636596570168,"348":-0.11171571444286336,"349":0.16353778894811544}},{"sx":1,"sy":1,"depth":350,"w":{"0":-0.0027152780472442374,"1":-0.010947718617785632,"2":-0.0029402197365039936,"3":-0.0003220865689641838,"4":0.0010038947485976344,"5":0.007014096478522961,"6":0.00829771398096531,"7":-0.0005419843930043671,"8":-0.002941530709736134,"9":-0.007626244443333008,"10":0.0017055139904264,"11":0.006156622443097441,"12":0.0031677181389925028,"13":0.005657914249341884,"14":-0.002009060065269566,"15":-0.0007195014087249104,"16":0.0033455121361132003,"17":-0.00009610058429036879,"18":0.0012762266830153451,"19":0.004978498685844093,"20":0.005360554067701433,"21":-0.004609911471260735,"22":-0.00939397881497704,"23":-0.0024844101677072286,"24":-0.0045642540028809535,"25":-0.001250980811571779,"26":-0.0016250249599810266,"27":0.003409780757532197,"28":-0.003770441005662958,"29":-0.0017144609419468917,"30":-0.0012064865882875171,"31":0.002154813669647452,"32":0.00976558408890977,"33":0.007070067997837425,"34":0.006122891927553881,"35":0.0015684979758351812,"36":-0.0036966754133528055,"37":-0.0012140727027041172,"38":-0.0028704352044049077,"39":-0.0007451533862481093,"40":0.010517217067384288,"41":0.0037713889135029296,"42":-0.003812890063724072,"43":-0.00016753347355659212,"44":0.0024883983135993775,"45":-0.004795241041728983,"46":-0.001725698741032673,"47":-0.0026736486743595958,"48":0.006561628226756978,"49":0.001193284934534057,"50":-0.003161630769950254,"51":0.003746629772414742,"52":-0.00118001288636254,"53":-0.0015864879482708895,"54":0.0023745532792014473,"55":-0.0010501341153690779,"56":-0.005502869147810973,"57":-0.0022415254264805456,"58":-0.002772773692300897,"59":-0.006775841598091922,"60":-0.00035276916661088867,"61":-0.0009809898258557486,"62":0.00014302538572685548,"63":0.0021127456436543742,"64":-0.008506620754356849,"65":0.002190837956613776,"66":-0.004267272423512133,"67":0.0007426132363127427,"68":-0.0015821681451207079,"69":0.003792681115811141,"70":-0.005279340755105081,"71":-0.007330779973651549,"72":0.0009952985875985984,"73":-0.0006386616569486667,"74":0.00328914705848515,"75":-0.002528161059925862,"76":0.003076685275905375,"77":-0.006464412760998235,"78":0.0007297377074252353,"79":0.001850520851788812,"80":-0.008961416041691686,"81":0.002541155227931735,"82":-0.002781918989924423,"83":0.006303133135788687,"84":-0.004560943632261947,"85":-0.011076998403253638,"86":-0.005663489290557381,"87":-0.0015386281032307141,"88":-0.005716138892358957,"89":0.003959830448020172,"90":0.002502308165926612,"91":-0.005497742829091751,"92":-0.009234356279604006,"93":0.0043077019606055445,"94":-0.004476003510879543,"95":0.0007678855302713479,"96":-0.004811621215566508,"97":0.0005498531199346888,"98":-0.0029884876969074295,"99":-0.01047363352668654,"100":-0.00025856550488070695,"101":-0.004994832408850987,"102":0.00290902770057492,"103":0.0009077568389367425,"104":-0.00016683150397066364,"105":0.0033299895134739433,"106":0.000436127031139269,"107":-0.00606066608853353,"108":-0.006650631019445381,"109":-0.0012795574827358473,"110":0.0026055478641050407,"111":-0.0018416937262637388,"112":-0.0003057972442387699,"113":-0.004884559021069985,"114":-0.0027097859814593384,"115":-0.003189492236003441,"116":-0.012169528329211936,"117":-0.0054937752029395395,"118":-0.0028065486833312317,"119":-0.007050114951126056,"120":-0.004313110791017615,"121":-0.00007059958250296468,"122":-0.0070141089883830054,"123":-0.0066041192869301475,"124":0.004927870395120937,"125":0.0022031913340452335,"126":-0.0035805715615435914,"127":0.0004301432392562149,"128":-0.001904463167377751,"129":-0.006043019692465945,"130":-0.006369004453399934,"131":-0.0006625772882666868,"132":0.007881955504082166,"133":0.0004802745664293123,"134":0.005934827427172984,"135":0.001631258550185982,"136":-0.011132855482695183,"137":-0.005954375905088794,"138":0.000533268597018436,"139":0.00020986086665751935,"140":-0.009002074439699482,"141":0.0001543783357919881,"142":-0.0042500343331339984,"143":-0.007232329126509496,"144":-0.007108378591148178,"145":-0.0014357257011525424,"146":-0.0010303028150516395,"147":-0.00378146220399328,"148":-0.0014192612254818558,"149":-0.006784397964222219,"150":-0.00046779315852598757,"151":-0.0008289978998182563,"152":-0.0042948452509207645,"153":-0.002202105282965823,"154":-0.0010582382950270726,"155":-0.012364428396139535,"156":0.0030451136206118157,"157":-0.00746746835221049,"158":-0.005227001801481525,"159":-0.003739967015700651,"160":-0.0011094535711509458,"161":-0.0033493378794125315,"162":-0.0010508909974871132,"163":-0.0017211910318042534,"164":-0.004605958142627194,"165":0.0010489038991141003,"166":0.0005004597857104495,"167":0.0023153579348946067,"168":-0.004518630760073089,"169":-0.006511907382737856,"170":-0.005368260552713256,"171":-0.011093009000438952,"172":-0.007014462263081512,"173":-0.008289252303793281,"174":0.007214993990338855,"175":-0.003041828923982942,"176":-0.0021257857564429623,"177":-0.000284413738575879,"178":-0.004512441231513138,"179":-0.007538759418525201,"180":-0.005439393464501004,"181":-0.005669873586714624,"182":-0.007557614444016976,"183":-0.006401863219034288,"184":-0.0003344986246470744,"185":-0.00751848826739296,"186":-0.011916443109359694,"187":0.004602265114050834,"188":-0.002990216219080655,"189":-0.0015631186357419327,"190":-0.0027298870016423406,"191":0.0026247021907454737,"192":-0.002368543632705671,"193":-0.014926831310503416,"194":-0.0022919594181992505,"195":0.0009498478725246029,"196":0.007860596947172435,"197":-0.00041085741100668305,"198":0.010359806468942917,"199":-0.0021321776863802502,"200":-0.0016448102191736378,"201":-0.004000639784438764,"202":0.008177161370598802,"203":-0.004511964869448404,"204":-0.004776652611323108,"205":0.002060155139345123,"206":-0.0084396107015013,"207":0.004435362273736288,"208":0.0016473287433924782,"209":0.004691546137435413,"210":-0.01239566541803083,"211":-0.006151058139679598,"212":0.0023760983885421235,"213":0.005220620495052063,"214":0.0029650793922162237,"215":0.001780212253337965,"216":-0.0000643502852128146,"217":-0.0006823184149531985,"218":-0.00020939943530625136,"219":0.00565766560761351,"220":-0.0023342883069899204,"221":-0.010444356677122346,"222":0.0008351633971153264,"223":0.0004018592788930194,"224":-0.009254662604921077,"225":-0.0030752478753002565,"226":0.0065031073981619,"227":-0.0020298214554494904,"228":-0.009531896548072624,"229":0.002218396353639065,"230":0.00720309675722269,"231":-0.0074840124939011855,"232":-0.0023489736601134273,"233":0.004974938149977196,"234":0.004678421342258036,"235":-0.014388216557318397,"236":0.0006665373697214898,"237":0.0025359786629187424,"238":-0.006076295548792496,"239":0.004363391797111851,"240":0.002246169085879842,"241":-0.014446574105766843,"242":-0.012398747487086414,"243":-0.0008887412891684741,"244":0.002584351095969727,"245":-0.002932994871299549,"246":0.006058227463588686,"247":0.0010481262416160767,"248":-0.005704641057888881,"249":-0.019122382184436387,"250":-0.0009722012454860998,"251":0.0011043841391494716,"252":-0.0031053582335468406,"253":-0.001833268099096938,"254":-0.000949848739248533,"255":0.0007656043488078029,"256":-0.01632622125990179,"257":0.0015430452024811144,"258":0.0030112869180389966,"259":-0.004174158523964693,"260":-0.002287079351554888,"261":0.00011817145370894841,"262":-0.0029106764123212445,"263":-0.02368689885650456,"264":-0.0013301989123955119,"265":0.0038642152668487647,"266":-0.004532671707195765,"267":-0.006271520084498531,"268":-0.000764999803587485,"269":-0.0005031161004198509,"270":-0.01113738286617478,"271":-0.0048236974744306155,"272":0.005382115840075615,"273":-0.0011837381225474912,"274":-0.014091672637491783,"275":0.006929512370785435,"276":0.0009602919001409253,"277":-0.0035828374212996355,"278":-0.007233335483211523,"279":0.0028033753268366006,"280":-0.00009925330119029497,"281":-0.009823370036185435,"282":0.003224961950408164,"283":0.0004302148754417923,"284":-0.010487106387847802,"285":-0.000008538617519141411,"286":0.006761437717590157,"287":-0.005171842323609175,"288":-0.004109619577654514,"289":-0.005337116256946321,"290":0.004012569053137958,"291":-0.018669649531207932,"292":-0.00219723461797265,"293":0.008998308565381856,"294":-0.003885129647589551,"295":0.0032096062382330317,"296":-0.0019003932750224078,"297":-0.006008021701507056,"298":-0.01200797738586079,"299":-0.003181133815503956,"300":0.00034134072539462315,"301":0.0024676873932207508,"302":0.0032922145339209685,"303":0.0026350954134501214,"304":-0.0038929293677420177,"305":-0.009574678524492956,"306":-0.0022201845453216442,"307":-0.003806746389604035,"308":0.0007189389797652518,"309":0.005207647151308349,"310":0.004848957506063978,"311":-0.00869056144222991,"312":-0.0046960158150080485,"313":0.003947415262204773,"314":-0.0029993132823576307,"315":-0.004906147493578159,"316":-0.0032367786574694995,"317":0.0037287539276203855,"318":-0.002130723189820386,"319":-0.013616860927261446,"320":-0.008402295071103972,"321":0.004365483685252031,"322":0.003573526094826103,"323":-0.003614664270927819,"324":-0.0009666024040866053,"325":0.008334205524103624,"326":-0.009625311492928538,"327":-0.0038976578904808723,"328":-0.000012281753458541259,"329":-0.005257835876736781,"330":-0.002192873227190353,"331":-0.0003354929203491173,"332":-0.006663557672893935,"333":-0.0054694925643560995,"334":-0.0032314257444049483,"335":0.005016383174378214,"336":-0.008728815178223088,"337":0.004948799748421636,"338":-0.00413055352956812,"339":-0.001069438649058334,"340":-0.004191349871079881,"341":0.0004087426779398195,"342":-0.0013677034592567887,"343":-0.005018482908830227,"344":-0.006890400883930258,"345":-0.010877027793238986,"346":0.001003641348142457,"347":-0.004284719401230939,"348":-0.0028933039269000383,"349":-0.004725720258257246}},{"sx":1,"sy":1,"depth":350,"w":{"0":0.024669408894010373,"1":0.044928682691525,"2":-0.21882617077473573,"3":-0.0038748124332833953,"4":-0.20424893094966037,"5":-0.21165580064518874,"6":0.0008866190362892387,"7":-0.04330720007817915,"8":-0.17610816052691922,"9":-0.01953196803035532,"10":-0.04825814473419373,"11":-0.09268916231631309,"12":-0.03631849624023212,"13":0.08469593210785609,"14":0.03088011829976329,"15":0.0790011658310261,"16":0.020641905817984155,"17":0.010887244845467325,"18":-0.07063794704379948,"19":-0.053947909977681126,"20":-0.054596403144976324,"21":0.05850753213466294,"22":0.14823777593733373,"23":0.0019977597880355275,"24":-0.15914368653949565,"25":-0.1418143949085261,"26":-0.08993570557754062,"27":-0.03993833039263918,"28":0.04425509478126077,"29":0.016508273158371396,"30":-0.1638592414266789,"31":-0.10459788804068432,"32":-0.1384456367306952,"33":-0.04078918233058964,"34":-0.12905325175719923,"35":0.13405809570453758,"36":0.07407456046910815,"37":-0.11426561816051078,"38":0.02707015888196662,"39":-0.09868384247836144,"40":-0.016729262657632766,"41":-0.11081822946856414,"42":0.035451960947540814,"43":-0.08306972639422597,"44":-0.09028146950896869,"45":-0.026806586411629044,"46":-0.1300201259512057,"47":0.09943037912863696,"48":0.0027714751747816985,"49":0.01938511724438073,"50":-0.14254464482196166,"51":-0.048724186501784644,"52":-0.04828476604699591,"53":-0.1783107792941928,"54":0.02761239383095097,"55":0.045345990538093635,"56":-0.08175537967149542,"57":0.029247853300036472,"58":-0.10840243642886539,"59":-0.12010716348707921,"60":-0.12099734447877064,"61":0.0544621818035249,"62":0.0753451898120551,"63":-0.006238977792720712,"64":0.012630217058624141,"65":-0.12068574442429296,"66":0.029215566629451985,"67":-0.0750331330300397,"68":0.06866742345433963,"69":0.0751892287922135,"70":0.023266817821081892,"71":-0.02790656975256024,"72":-0.03939077204611661,"73":0.10235774055057652,"74":-0.00461232071992858,"75":-0.07043626643979724,"76":0.1680380874080349,"77":-0.003897084706545732,"78":-0.047579159727938934,"79":-0.002161265233121242,"80":0.11944210278970041,"81":0.0800220931462748,"82":0.06463261680012442,"83":0.09464368195035622,"84":0.04781967885636504,"85":-0.10288026517330874,"86":-0.015176354292344946,"87":0.07089407701957963,"88":-0.04743835901295696,"89":-0.0021944601414737273,"90":0.0714308179836738,"91":0.07883309322540685,"92":-0.0143755194755547,"93":-0.05991851172384092,"94":0.1823007550616006,"95":0.13876579897267996,"96":-0.013657009717118383,"97":0.1002209378815678,"98":0.08316765527947902,"99":-0.0023943127028454607,"100":-0.00012637047264047016,"101":0.059003681595920704,"102":-0.07514416137691883,"103":0.11219587688923352,"104":0.05320872728988486,"105":0.059937588916806124,"106":-0.02158816500495862,"107":-0.059238919800677636,"108":-0.06329682161147328,"109":-0.08036074602430716,"110":0.03111864124432936,"111":-0.045048908907292115,"112":0.04884381551607457,"113":-0.045693738576973876,"114":-0.06374010488137163,"115":0.040330002025587855,"116":-0.0559406540966405,"117":0.10537846137934145,"118":0.07495812707944749,"119":0.010045244380625071,"120":-0.06337250727834672,"121":-0.008831831894399863,"122":0.012897441317758196,"123":-0.09056243376243048,"124":0.12444762323861341,"125":0.06373109707701144,"126":0.07208113990714979,"127":-0.07215270311363049,"128":-0.01933288287196031,"129":-0.025765904972756534,"130":-0.04310656219367401,"131":0.012661694380463877,"132":0.14799093720960724,"133":0.11847214355984013,"134":0.044637314460260306,"135":0.01179833335875885,"136":0.07040004422926734,"137":-0.00751761145423195,"138":0.09868037762089059,"139":0.18633334219159398,"140":-0.00753399251732873,"141":0.046313007634061897,"142":0.047895825691689195,"143":0.05113926467102588,"144":-0.051828334850605735,"145":0.05806871523542046,"146":0.025223244311345913,"147":-0.07076212459202412,"148":-0.048215549414578625,"149":0.09167736817271317,"150":0.028987162405104936,"151":-0.08575262400873049,"152":0.03160242544704239,"153":0.005810820310068777,"154":0.05904859763952342,"155":0.015762447372217027,"156":0.05962601077196521,"157":0.052754081239302156,"158":0.01282936359174988,"159":-0.016421046377818018,"160":-0.03989082274174005,"161":-0.026158595570677973,"162":-0.018759096301790405,"163":0.007792372848038539,"164":0.21178041581171336,"165":-0.11832623121057961,"166":-0.002632936188625017,"167":-0.08290711509729182,"168":-0.052567513716408276,"169":-0.03387166709778168,"170":-0.015823716420029717,"171":0.307113373349475,"172":-0.03119657738212165,"173":-0.008674047343490343,"174":0.03615664642559357,"175":-0.030486676399700076,"176":0.09670205674596438,"177":0.10393248322527669,"178":0.2957582817409999,"179":0.09088217942842167,"180":-0.0007194219410150045,"181":-0.008757723934215584,"182":-0.05041238227798557,"183":-0.026812897047483027,"184":0.1699295118988887,"185":0.29002391482722717,"186":0.17512004489038008,"187":0.1145013451834033,"188":0.023497482042072262,"189":0.04525898907613474,"190":-0.007594234413937185,"191":0.003833516966144949,"192":0.2663108636223008,"193":-0.013772160794827706,"194":0.1050921634089687,"195":0.04392379736832216,"196":0.0995393331095704,"197":0.10380085004154908,"198":0.1176073379731247,"199":0.29513344244858275,"200":-0.020102543787986333,"201":0.07554647279243457,"202":-0.009204625819525393,"203":0.034509221460466914,"204":0.11431319607878106,"205":0.1542437379173029,"206":0.2740463092384493,"207":-0.10801328413742271,"208":-0.030802531121440834,"209":0.12183753195002957,"210":-0.07930839918668878,"211":0.1627528679008512,"212":0.07775228499688429,"213":0.4594222220273828,"214":-0.006131566496997873,"215":-0.09451111102951769,"216":-0.07141046172540104,"217":-0.13057673714242382,"218":0.028175760327506814,"219":0.09255037970648804,"220":0.6824798767649859,"221":0.01536143614810719,"222":-0.009704296472974154,"223":0.005956934739521813,"224":0.08505797565784486,"225":-0.05369105797132145,"226":0.08138281488787691,"227":0.6962048163670831,"228":0.14863071009471754,"229":-0.046504743443645136,"230":-0.12251170175454204,"231":0.09260815937789472,"232":-0.07821155941594427,"233":0.0732967540931801,"234":0.7987444347121236,"235":0.23832432292530223,"236":0.05401630054406619,"237":-0.15555362931632014,"238":-0.003676968805695645,"239":-0.034794027640117464,"240":0.11218304457665038,"241":0.7493483366387796,"242":0.26207080739588684,"243":0.07673969084794546,"244":-0.13217561789325577,"245":-0.02902793350311987,"246":-0.1559670700440239,"247":0.3388963936348086,"248":1.6456545860597342,"249":0.6155410690135068,"250":-0.018227085884281485,"251":-0.07100306512960598,"252":0.007383564858772827,"253":-0.0835401639907138,"254":0.31344251050050626,"255":1.274946385092823,"256":0.631159278473172,"257":0.027567632759608322,"258":-0.07461517217874593,"259":0.056345541229386516,"260":-0.011008842529310758,"261":0.3189110770161949,"262":1.3160671868716576,"263":0.718790243531079,"264":-0.0016307718390350166,"265":0.008181777832426943,"266":0.11621715148134612,"267":-0.045429157236578595,"268":0.29240124854693655,"269":1.209649938289565,"270":0.6047662485986474,"271":-0.02515991494889693,"272":0.16014820122346055,"273":0.01463808140600764,"274":0.05068926137737046,"275":0.1494819971253372,"276":-0.4107713583141679,"277":0.37658969075498827,"278":-0.03566588590518234,"279":0.02577617846976163,"280":-0.07170495864743238,"281":0.04302481745520572,"282":0.07949017763251762,"283":-0.45308517072446075,"284":0.33218171539359653,"285":-0.01436771995585839,"286":0.16224189687240517,"287":-0.013324390700009524,"288":0.03949996574202612,"289":0.17547366668466613,"290":-0.8514548466173766,"291":0.4527908820127283,"292":-0.216144489122667,"293":0.03054237526919958,"294":-0.07736533880053566,"295":0.07230351573347538,"296":0.1895795064577655,"297":0.16443111862557122,"298":0.40764393052229836,"299":-0.03962450734764437,"300":-0.004114679343581729,"301":0.0875488991641464,"302":0.059248185576109606,"303":0.05862713011504158,"304":0.17312145817073635,"305":0.09900257241881369,"306":-0.057092503389533124,"307":0.10641553949568795,"308":-0.023534941514358775,"309":-0.024870853801944877,"310":-0.05492125261644408,"311":0.17149755140963904,"312":-0.1635108368967882,"313":-0.13915438535402175,"314":-0.06303109882921691,"315":-0.12881778165689237,"316":-0.12997053541023568,"317":-0.1203583904203565,"318":0.17041322298090156,"319":-0.30097937950231063,"320":-0.2250829861199052,"321":-0.00922586398265699,"322":-0.0034402661526213244,"323":-0.004522378082862804,"324":-0.06055945951410322,"325":-1.0326555834620748,"326":-0.22327293725630548,"327":-0.08268824224231565,"328":0.02822747215709404,"329":0.007456568877527436,"330":-0.020735310602243765,"331":-0.0810998620000454,"332":-1.0045845746837,"333":-0.018193191467926084,"334":-0.013380113277032911,"335":-0.12273757875607415,"336":-0.020370008272450738,"337":-0.08588645978382156,"338":-0.055121689053910156,"339":-0.8495602708337007,"340":0.01121404335595782,"341":-0.08360371692288851,"342":-0.08594442419162068,"343":0.015505104783409187,"344":-0.04065050128731171,"345":-0.07997062079288024,"346":-0.1392770726515237,"347":0.02611885745481519,"348":-0.012209644566902546,"349":-0.04168478255887084}},{"sx":1,"sy":1,"depth":350,"w":{"0":-0.007717474353890756,"1":-0.015905628254009402,"2":-0.03269422868542667,"3":-0.07005977639761306,"4":-0.03763777728324432,"5":-0.1250185544698713,"6":-0.1493060754415715,"7":0.06334132701831335,"8":0.06545860802065785,"9":-0.04050006441619819,"10":-0.14895954751206625,"11":-0.011266142076259153,"12":-0.020310322195987617,"13":-0.001978881339822023,"14":0.07848872514820775,"15":0.018734536786058305,"16":-0.027360503928596625,"17":-0.11313883435935247,"18":-0.09140576691998273,"19":0.019837707841008842,"20":0.04268728275852051,"21":-0.032593649250839477,"22":0.06707331263507278,"23":-0.04538800466229642,"24":-0.045279603011039414,"25":-0.0649298487721606,"26":0.04014082111814241,"27":0.058012158842168086,"28":-0.00397473427296959,"29":0.04880951414422921,"30":-0.0336441191255866,"31":-0.06851103088041009,"32":-0.11300687175300754,"33":-0.021310592093072643,"34":0.10076185278868142,"35":0.03386394468004941,"36":0.058944640014091186,"37":0.02069027493513644,"38":-0.04891366776073809,"39":-0.05505197391117736,"40":-0.13065992380897412,"41":0.009403990171058777,"42":-0.021168525551491332,"43":0.0072333758995083266,"44":0.06898733246756088,"45":-0.019760142284253317,"46":0.05400116896905823,"47":-0.12405759411647121,"48":0.025610329772795367,"49":0.05251822151153305,"50":-0.008035215714747912,"51":0.10352867290633472,"52":0.03342435346082652,"53":-0.028377863552574628,"54":-0.0962345378747777,"55":0.024029747920321066,"56":0.03777973226547536,"57":0.07284584524314645,"58":0.13779468190871316,"59":-0.044527796683450575,"60":0.052142934173668005,"61":0.03160444608338442,"62":0.03613932064264585,"63":-0.01853957086954422,"64":-0.004982077536698106,"65":0.1117021571826863,"66":-0.09921417331619775,"67":-0.00230221530676926,"68":-0.1543417028355972,"69":-0.050508764294200426,"70":0.004455227956786129,"71":0.0000969279520978189,"72":0.0567082506775571,"73":-0.1687031485862936,"74":0.02536969651079379,"75":-0.15808992817503706,"76":0.008959165200598236,"77":0.038526408485188735,"78":0.030159105651876197,"79":0.051446627275942264,"80":-0.08523714252687363,"81":-0.026928387048158555,"82":-0.026387856257184268,"83":-0.00742845777820719,"84":0.02358395879198245,"85":-0.053891510238295255,"86":-0.001169403236644434,"87":-0.04663951397523726,"88":-0.005948731088819159,"89":-0.14575491227965942,"90":-0.06304454427907662,"91":0.013077142647866835,"92":-0.03138406515667857,"93":0.009459664519890299,"94":-0.043215583121793244,"95":-0.0025779019828897293,"96":0.031987070324467466,"97":0.08921196229982273,"98":-0.03861635547665047,"99":0.02909983327500849,"100":0.022407690198633454,"101":-0.06172029599926427,"102":0.04767313942633133,"103":0.09425887719400365,"104":-0.012815511533466387,"105":-0.05144494778215009,"106":0.009363399793118118,"107":-0.04688144603690346,"108":-0.030088053616011304,"109":-0.04332415236117033,"110":-0.05794238575491997,"111":0.03211589689565137,"112":0.01722571967940529,"113":0.05501100173084924,"114":-0.06701428141858595,"115":-0.06989984462788598,"116":-0.06904298154650343,"117":-0.0838312744768773,"118":0.07774400485632423,"119":-0.02565258651864657,"120":-0.00710429461023485,"121":-0.037662385911876574,"122":-0.0726710909914016,"123":-0.0825507266278094,"124":-0.05575142845707172,"125":0.08019735173623857,"126":0.04309798220998528,"127":0.05914191187322973,"128":-0.03889719045495063,"129":-0.07499327229528543,"130":-0.08169424759203786,"131":-0.005910567995839076,"132":0.04956839455165719,"133":0.02813444108076727,"134":0.03191911956049571,"135":-0.008151902196094019,"136":-0.03147463168128601,"137":-0.053168716433816245,"138":-0.0013129704783373932,"139":0.024638559655703635,"140":0.005065464828590684,"141":-0.05619848467861128,"142":0.016300770070129176,"143":0.05261863443295875,"144":-0.056967423351704786,"145":0.09919789660596684,"146":0.004994355821009274,"147":0.09765009598504316,"148":-0.05483793901562479,"149":0.009146321327817297,"150":0.07623965972553204,"151":-0.14188588599387583,"152":0.024030950716562638,"153":-0.0608292326518267,"154":0.06407635963197238,"155":-0.09050183650815077,"156":0.040770358964402065,"157":0.02701435231481609,"158":-0.10270140489219878,"159":-0.17173939451075088,"160":-0.02625879648738251,"161":0.04112729151113746,"162":-0.11427300048058757,"163":0.0069975852121655704,"164":-0.12624687192274925,"165":-0.21386045576842477,"166":-0.14416303259541563,"167":0.0413471023225871,"168":0.04558155607199472,"169":-0.030753468681736812,"170":-0.0741362313031679,"171":-0.11337711661346646,"172":-0.21181612541636502,"173":-0.1636582610778999,"174":-0.05704348769551528,"175":-0.033403871742491285,"176":0.0050188463798089954,"177":0.04274033842247733,"178":-0.18015526940359305,"179":-0.11066736040939998,"180":0.005429843376002299,"181":-0.005491112145605782,"182":-0.01807119801093265,"183":0.06297520048650312,"184":0.023024234011319436,"185":-0.1849294333967744,"186":-0.08445393645409097,"187":0.059573550527762975,"188":-0.05850000577170069,"189":0.007977699412711741,"190":0.11495561661461318,"191":-0.03497538664550801,"192":-0.14032356387205427,"193":-0.0913366016695458,"194":0.0956733479652809,"195":-0.060287777103655085,"196":-0.07681282233242683,"197":0.0795045426710351,"198":0.055843274877899717,"199":-0.08994524057183632,"200":-0.10098979307462524,"201":-0.045783880077058865,"202":-0.005632006164722372,"203":-0.13749071601608556,"204":0.018572949571242087,"205":-0.023156115687047993,"206":-0.12404758262274587,"207":-0.05213688760237221,"208":-0.0029026031866492617,"209":-0.011577308686080152,"210":-0.11282889685292075,"211":-0.0005723506102887172,"212":0.02690073990518619,"213":-0.10504397899315635,"214":-0.1106037773095325,"215":-0.027627549273385954,"216":0.05238752732085214,"217":-0.10475350002662022,"218":0.007172268216514501,"219":-0.010742736842107678,"220":-0.008439068036547625,"221":-0.06177710618100839,"222":0.00987937381110363,"223":0.01793428791128286,"224":-0.08891502354373233,"225":-0.10109551428637613,"226":0.032619427569836656,"227":-0.16624695114651472,"228":-0.14128293890311663,"229":-0.005098223379630556,"230":0.07325027703908284,"231":0.03568394977703387,"232":0.0013479509654787374,"233":0.08745010513159512,"234":-0.07217462149222167,"235":0.004754349010451036,"236":-0.04670924180175689,"237":-0.003942880557613498,"238":-0.0011504896563288617,"239":-0.07639751193005898,"240":0.055769840603229225,"241":-0.07383213587984465,"242":0.11045436417231105,"243":0.09931786031066399,"244":0.052432348687525145,"245":-0.04782298617927785,"246":-0.09572296633879263,"247":-0.06951737821524108,"248":-0.23437539332047794,"249":0.19237021030087006,"250":0.09829437369827974,"251":0.019141519552328123,"252":0.006515709329717262,"253":0.03621310667899488,"254":0.013730458535396433,"255":-0.41314021493731273,"256":0.40659777364742217,"257":-0.03223264935795537,"258":0.05386729177202848,"259":0.021453906608549518,"260":-0.06525662654119443,"261":-0.05772851931849695,"262":-0.5025065723069404,"263":0.5142901725911562,"264":-0.19447080203906983,"265":0.024544403902247137,"266":0.0298256650867744,"267":-0.08958917389424337,"268":-0.061445040694909116,"269":-0.5359119028216198,"270":0.46825823279900847,"271":-0.11756971062765678,"272":-0.014521391927080983,"273":0.10843509639098792,"274":-0.06229042238663043,"275":0.051093924658777386,"276":-0.42242100778175923,"277":0.6831022821699357,"278":-0.14770114067370235,"279":0.057127410033362275,"280":0.04613207027714377,"281":-0.11206802306402545,"282":-0.03824888488718205,"283":-0.2982790471819476,"284":0.9097770840627433,"285":0.06331345022926707,"286":-0.1184366812282374,"287":0.012733349593122932,"288":-0.03246239670447207,"289":-0.08857287694571003,"290":-0.2618972117662995,"291":1.0753568288403184,"292":0.12443172199331011,"293":-0.11337795121624715,"294":0.028116763090198758,"295":-0.04953111641705016,"296":-0.18395615956155836,"297":-0.025419483127371616,"298":1.1458341850220313,"299":0.08738313238135906,"300":-0.032827299501723875,"301":-0.028988571013558118,"302":-0.1009828358452671,"303":0.05141767196914709,"304":-0.025351950401694034,"305":1.1443400761115343,"306":0.15384299609482227,"307":-0.1639910506569535,"308":0.04546092538844852,"309":0.041375506740235365,"310":0.013560934147914622,"311":-0.03184212257716794,"312":1.2472278350136257,"313":0.06426835846400086,"314":-0.08027788518595093,"315":0.07623738210526922,"316":0.01831210564796686,"317":-0.06003022530145348,"318":-0.02692456316999289,"319":1.3515905831977235,"320":-0.002569415530470027,"321":-0.046383675770588974,"322":0.03608801246333584,"323":0.09794610652097167,"324":0.041719968845808246,"325":-0.2126189824232342,"326":0.8256944987877588,"327":0.01675646301453373,"328":-0.036886771739537604,"329":-0.042866620656733405,"330":0.039351910213198296,"331":-0.03881881972736361,"332":-0.22083856006955896,"333":0.5383256892382491,"334":0.08876583737343986,"335":0.007041034353408513,"336":-0.07664468821862433,"337":0.012518528042232085,"338":-0.03977180734817132,"339":-0.2563364013095689,"340":0.2241722684396249,"341":0.03248066643659055,"342":0.013902427513070196,"343":-0.08755243211056869,"344":-0.00009119705536157101,"345":0.007851298953681562,"346":0.09436654553646263,"347":-0.1689723994903086,"348":-0.0459121946404546,"349":-0.10019424897174542}},{"sx":1,"sy":1,"depth":350,"w":{"0":-0.0010244286944889637,"1":0.028213400350984203,"2":0.09731949513021779,"3":-0.07910568462301217,"4":-0.0174561235111911,"5":-0.035832178973370966,"6":0.049389151340791186,"7":-0.03688889703367914,"8":0.033948897772782975,"9":0.08308025239503947,"10":-0.1185305613281189,"11":-0.11050497063950708,"12":-0.042683960516461776,"13":-0.021156080474993136,"14":-0.020534697088434226,"15":0.06292718282060182,"16":0.053677727257688906,"17":-0.11990829822492555,"18":-0.04052074801896625,"19":0.014926896429694811,"20":0.014882573457977966,"21":-0.017739245854762754,"22":0.06148169342143568,"23":-0.045074138040527276,"24":-0.0715848542950112,"25":-0.1445916759362449,"26":0.02509134416805012,"27":0.0289406961231315,"28":0.01214563119109056,"29":0.07000653218442476,"30":0.0034436274606455186,"31":-0.07339580742022127,"32":0.00012291912147623432,"33":0.053908947459132224,"34":-0.022502507012552197,"35":0.027784990555102595,"36":0.06961922531494166,"37":-0.0054310490159039,"38":-0.08180636264758531,"39":-0.03406415000677869,"40":-0.010230623606654967,"41":0.04261204911668085,"42":-0.005706119724613414,"43":0.05979236869070918,"44":-0.043875050720250365,"45":-0.050798002905054776,"46":-0.07255453454572738,"47":0.008767021457267484,"48":0.001050323839065311,"49":-0.0036188814865826214,"50":0.04399110123676023,"51":-0.09195937509430051,"52":-0.1251820911249786,"53":-0.03636792913254891,"54":0.03719578048267838,"55":0.0832478637137069,"56":-0.010921041821519425,"57":0.06979285035109858,"58":-0.03684259048917359,"59":-0.17126942903435052,"60":-0.16293334760658856,"61":-0.00020048156949744906,"62":0.08554390258476352,"63":-0.05517126939020346,"64":-0.011830042137643892,"65":-0.06756181938524769,"66":-0.16421658873050213,"67":-0.1250820852501142,"68":-0.010093673949426939,"69":0.03692712902777286,"70":-0.0662773570864228,"71":-0.03976686431713879,"72":-0.07951133197725968,"73":-0.20144313328450356,"74":-0.0759590127254086,"75":-0.037078843500535884,"76":0.05782547461381272,"77":-0.06975014792432398,"78":-0.02977744425803272,"79":-0.14991963353727925,"80":-0.12086241693136726,"81":-0.029537910015921938,"82":-0.005907307191218096,"83":0.1063196899415009,"84":-0.040808220725112636,"85":-0.0529631543340553,"86":-0.1978555458621081,"87":-0.16387250596310968,"88":-0.02411159945716836,"89":-0.004297197066338433,"90":0.052651903158044244,"91":-0.0532035634518855,"92":-0.09784470119133705,"93":-0.2367055578442261,"94":-0.2796931636686499,"95":-0.13237177888339882,"96":-0.002003285674154712,"97":0.02607123673385707,"98":-0.05052027107332327,"99":-0.11264139891737822,"100":-0.26111235419404366,"101":-0.223332331122647,"102":-0.11066283530444913,"103":-0.008948835725530206,"104":0.03244657268056273,"105":-0.0963636785886378,"106":-0.10941984825257166,"107":-0.2238066024990272,"108":-0.33252274623932826,"109":-0.17288254761468935,"110":-0.036389965704112334,"111":0.007111831002994124,"112":-0.09756857206771993,"113":-0.055712932715574294,"114":-0.24021329382315051,"115":-0.2729538583172018,"116":-0.1123844149257753,"117":-0.05536125092413137,"118":-0.0051252455241204645,"119":-0.04101304620866117,"120":-0.07970634979724016,"121":-0.2847846078936196,"122":-0.25550400010968993,"123":-0.11806935741509207,"124":0.03311098253959706,"125":0.04459573380624338,"126":-0.06464245562314322,"127":-0.05399801968318517,"128":-0.266862066565751,"129":-0.298361621959839,"130":-0.0608437861246198,"131":-0.0031607013719176028,"132":0.013509222885739271,"133":-0.05245138025370501,"134":-0.14729510203275917,"135":-0.24828478813937216,"136":-0.23050214643575184,"137":-0.090184049438228,"138":0.03158512079089937,"139":0.016131953753334056,"140":-0.13066495340709336,"141":-0.10604342023096561,"142":-0.2781968995739843,"143":-0.29107695944036266,"144":-0.20889482298397494,"145":0.05590521008566854,"146":-0.03176518777996386,"147":-0.1487970919242457,"148":-0.09137790931951995,"149":-0.23484573446019477,"150":-0.2093654686747033,"151":-0.19699378238483864,"152":-0.04345743783008352,"153":-0.01834641075582452,"154":-0.11372777306708926,"155":-0.042262054845675856,"156":-0.2201633220910917,"157":-0.16772432932658218,"158":-0.20680801955767902,"159":-0.04468162672237543,"160":-0.040022055600585485,"161":-0.059022227079515106,"162":-0.06652373790493976,"163":-0.20042545098970618,"164":-0.2079372040346896,"165":-0.1529218566927225,"166":-0.1277051444325992,"167":-0.05721138870292553,"168":0.016530193613908433,"169":-0.13333695847336371,"170":-0.1670918013897537,"171":-0.17189296993931885,"172":-0.12266487187305192,"173":-0.005315771205424449,"174":0.01973822388929193,"175":-0.0015781270430925728,"176":-0.06860048568376302,"177":-0.11371978491248388,"178":-0.0547308815065852,"179":-0.048580309947680804,"180":-0.03519968801655142,"181":-0.015304967309636342,"182":0.013642576080271553,"183":-0.12342215600864703,"184":-0.07288690752423112,"185":-0.03621339800717533,"186":-0.16212514067941164,"187":0.03275790180190227,"188":0.041438503051378514,"189":-0.0037660435710091746,"190":-0.006665587354709406,"191":0.012111015395042434,"192":0.08659810289054862,"193":-0.014057775234295796,"194":0.06048499026249693,"195":-0.00460861976886053,"196":-0.01526897142360255,"197":-0.029056189672369472,"198":0.018437051816804512,"199":0.21831710522824727,"200":0.014740952036544568,"201":-0.02270256244765066,"202":-0.04573554021622551,"203":-0.004127106192633584,"204":-0.034212022317261316,"205":0.05668813640285955,"206":0.22140525419662535,"207":-0.01823080729147209,"208":0.07425181220920245,"209":-0.046642008468396466,"210":-0.003964004135259121,"211":0.0247788740441941,"212":0.09026553194806668,"213":0.15217588249115363,"214":0.01937385752007558,"215":-0.00815360522414212,"216":-0.05182753874709305,"217":0.010134296961568756,"218":-0.03660171561120289,"219":0.14386439257859354,"220":0.17686345970805725,"221":0.051468662502912696,"222":-0.010317898238724926,"223":0.0030080980842632473,"224":0.010733355682934756,"225":0.010253035053311627,"226":0.2429904203955083,"227":0.19159420977818695,"228":0.11050767027381751,"229":-0.03904207792500714,"230":0.06492166735096545,"231":0.025234190834519426,"232":-0.0028500490385381548,"233":0.2565948457413129,"234":0.18958357647158391,"235":0.13942034047245974,"236":0.0001897686245982169,"237":0.10813845806453737,"238":0.005914705753918284,"239":-0.08454558957279998,"240":0.2610616095585775,"241":0.13510051885273278,"242":0.04279036861161978,"243":0.008859859788902923,"244":-0.0006610852164042251,"245":0.026009705902719726,"246":-0.031711167821262216,"247":0.2310364187006577,"248":0.2696738336054288,"249":0.05770029675637799,"250":0.010033773768840215,"251":0.007353910420240231,"252":0.020188882212743495,"253":0.03999995427726653,"254":0.3102415553059674,"255":0.1837938749427462,"256":0.0943760661123609,"257":0.07783064470272029,"258":0.039006048334267,"259":0.0021841333062790334,"260":0.08215968940759447,"261":0.25391883720227143,"262":0.19620259035648435,"263":0.07345207432383306,"264":0.03847295384684589,"265":0.03226428112630697,"266":0.011210357387940888,"267":0.11033852622758193,"268":0.22988411297111158,"269":0.34609749948565294,"270":0.07934447225141246,"271":0.052694847351735415,"272":0.06765045847879364,"273":-0.019105406711777653,"274":0.16531759943582028,"275":0.19634333202614684,"276":0.3156662007356524,"277":-0.011434374208197415,"278":0.03419702747274799,"279":0.010089224103261876,"280":0.008492808772852706,"281":0.1137007942678971,"282":0.16399930444507027,"283":0.37928391961732744,"284":-0.05464427565692487,"285":0.03686478442936783,"286":0.02418076075571557,"287":-0.012165392457855478,"288":0.11252052959289154,"289":0.15064946551341765,"290":0.3924743841376628,"291":-0.07373721019995358,"292":0.022994276022506963,"293":0.042706681730635236,"294":-0.013372251660855945,"295":0.028605627488546146,"296":0.14478421795531798,"297":-0.04183899336559417,"298":-0.05806812777396784,"299":-0.021578164686999714,"300":0.03628120498803878,"301":0.023244650892371273,"302":0.04318271567558061,"303":0.22088817198804814,"304":-0.03493388733692017,"305":-0.027135192864038756,"306":0.0282397771463496,"307":0.04257913163879754,"308":-0.00967848541860587,"309":0.07873490836704641,"310":0.18623882733195088,"311":-0.04439777795937737,"312":0.07598376603631729,"313":0.03637857735627712,"314":0.044318477965791185,"315":-0.038450737748589606,"316":0.00801611755842559,"317":0.14818054891014265,"318":-0.03874675271406526,"319":0.027650935838988158,"320":0.051758976562475634,"321":0.032990473622308676,"322":0.022686799773497086,"323":0.03764969609523825,"324":0.04312007655556269,"325":0.4293692380813312,"326":0.06002673451580144,"327":0.049934013694786915,"328":0.033075361036445046,"329":-0.009688480517301938,"330":0.010332981583456566,"331":0.033099898035347436,"332":0.42836669165044244,"333":0.03956057462991806,"334":0.022900892307920563,"335":0.03116753015640504,"336":-0.04989698907008126,"337":-0.012165517200037682,"338":-0.015553324084712123,"339":0.4167625503097798,"340":-0.0647444625447863,"341":-0.021871600184458682,"342":-0.03186156834325432,"343":0.034116789037322015,"344":0.04617070080774769,"345":0.007613304425441298,"346":0.2644357288770863,"347":-0.009357652581643006,"348":-0.00901260883738213,"349":0.06962878514560683}},{"sx":1,"sy":1,"depth":350,"w":{"0":-0.16683997315374244,"1":0.13598923113865483,"2":0.06566445808119149,"3":-0.25789252035291427,"4":-0.23317378039977216,"5":-0.12873412888269475,"6":-0.1794205651287203,"7":-0.01856224492177339,"8":0.17555656288893637,"9":-0.0070754973290036785,"10":-0.19895923414157987,"11":-0.016056145846629226,"12":-0.12783338137836275,"13":-0.09966833319271638,"14":-0.02320294226405343,"15":0.008037098235878403,"16":-0.047595038465749445,"17":-0.04365132262270203,"18":-0.08883680814063298,"19":-0.16679826365832684,"20":-0.07195448216173633,"21":-0.027604392562005996,"22":0.06622472257791207,"23":-0.17325789871586603,"24":-0.035478399076810004,"25":0.022009324244166892,"26":-0.15865191226877415,"27":-0.00291414142077422,"28":-0.06873480679643132,"29":0.08094419784788273,"30":-0.10301522612218722,"31":-0.02932093689428722,"32":-0.10429258221340652,"33":-0.20862618531479557,"34":-0.007551830551441761,"35":-0.03466773890964139,"36":0.09531067102431802,"37":-0.158337870632379,"38":-0.09327954877522787,"39":-0.020289810124185258,"40":-0.07774087185330154,"41":-0.05360835803413531,"42":-0.008702359887828824,"43":0.07089109009234956,"44":0.014887616559708865,"45":-0.17916358594670295,"46":0.0042354970057530954,"47":-0.04119090591573325,"48":-0.11712740811692592,"49":-0.013635004445358605,"50":0.061795373180969206,"51":-0.02447226438537772,"52":-0.08958390750442914,"53":-0.0836367253766495,"54":-0.04038674934319428,"55":-0.09882730690891604,"56":-0.08634470841085336,"57":0.0736386840263604,"58":-0.10848825351270505,"59":-0.10940572770111376,"60":0.009897802612017855,"61":-0.02537103020114302,"62":-0.09585019403699443,"63":-0.04791343856228851,"64":-0.017008927015078338,"65":-0.049166338974541396,"66":-0.06720977002708732,"67":-0.060187758619966,"68":-0.024218434453927257,"69":-0.06275838844987433,"70":0.0038461861745403775,"71":-0.04768591068177685,"72":-0.049900749500404386,"73":-0.0378218204241119,"74":0.2009198691980094,"75":0.010420041299021934,"76":-0.040689961429984774,"77":0.03268996657258059,"78":0.024202545119810123,"79":-0.03351958103769152,"80":-0.033658390821754834,"81":0.07135635194895316,"82":-0.015315838436141798,"83":-0.06544963101110544,"84":0.057732129733096646,"85":-0.06346196673106475,"86":-0.07869215476159337,"87":-0.04189444359785197,"88":-0.07125688678467197,"89":-0.15316830874651174,"90":-0.0761229502098102,"91":0.01577182402355563,"92":-0.05320313057694051,"93":-0.006499876584257218,"94":-0.18450882783879716,"95":0.03389758552533904,"96":-0.06330112737582615,"97":0.001267285463220805,"98":-0.009527397028390042,"99":-0.021949966710472415,"100":0.0035405826347332603,"101":-0.13892036629672128,"102":0.00013631145451797617,"103":0.03175986913178255,"104":-0.02964643406809664,"105":-0.04055558741250314,"106":-0.04773300548806432,"107":-0.025722333016131735,"108":-0.043560155812178064,"109":0.020428315063713398,"110":-0.12521183033979258,"111":0.0007686122229757148,"112":0.06712726465232371,"113":-0.06114819559418188,"114":0.08456457506408721,"115":-0.09613790098187769,"116":0.07775569315642412,"117":-0.08940104857071167,"118":-0.07632616898812568,"119":-0.04039896987910223,"120":-0.08873974724753814,"121":0.024072105902100235,"122":0.018965586669323978,"123":-0.035367736897921505,"124":-0.00486962179181341,"125":-0.09940842934375353,"126":-0.021550211538529304,"127":0.05207289590115998,"128":0.09910924876717155,"129":-0.1777159109821044,"130":0.10443581380617774,"131":-0.058366692290788856,"132":-0.061375861486765604,"133":0.01015485704725698,"134":-0.0747176131189294,"135":0.06448011460584752,"136":-0.16146077754241775,"137":-0.0071794191433384325,"138":-0.004718469562344263,"139":-0.0931946041817707,"140":-0.040397373923047555,"141":-0.026876809479167763,"142":0.038286324649261065,"143":-0.04224717929639951,"144":-0.0008720585703559722,"145":0.06421917668940046,"146":0.008949321915112496,"147":0.0015189356601144181,"148":0.08506642477959693,"149":0.2323159149612908,"150":-0.1318269227692648,"151":0.10281106662009895,"152":0.01143142533492499,"153":0.01562944642071762,"154":-0.012567833844300472,"155":0.07169347989388193,"156":0.07679743193557242,"157":-0.0577706251668156,"158":0.14503316861429083,"159":-0.11920143457940138,"160":0.009618013759570086,"161":-0.08036789944215535,"162":0.052355965953996005,"163":0.06045853547457669,"164":-0.0643010732385518,"165":0.06839177822966089,"166":0.0577673788983948,"167":0.011950436577156269,"168":-0.05128050901967524,"169":0.025185504329590873,"170":-0.13335136207471307,"171":0.05221221829578475,"172":0.19457770988499262,"173":0.04938623873974021,"174":-0.002758598591170728,"175":-0.07324422621252911,"176":-0.05793001247737148,"177":-0.06344446205071456,"178":-0.030510383124790808,"179":0.20742852286702715,"180":0.14044178404409594,"181":-0.0070978935002268245,"182":0.05128627430135881,"183":-0.019477438124291566,"184":0.03251744338512011,"185":-0.0009996181834357727,"186":0.3172169636714788,"187":0.15665160579919846,"188":-0.03346804695057197,"189":0.08016674217750033,"190":-0.04096492894780978,"191":0.01934029062821133,"192":0.05106053533350342,"193":0.3645387164378219,"194":0.1961798602669551,"195":-0.0016042334114221742,"196":-0.007863344557612771,"197":0.04653518304919887,"198":0.06694010014020267,"199":0.2899763514613731,"200":0.3193568927190441,"201":0.16770658976912184,"202":0.12124763661550088,"203":0.03705489307884433,"204":-0.010395577065591377,"205":0.11887444564002796,"206":0.07808482060134334,"207":0.5391777555605346,"208":0.23211069611202123,"209":0.08625157941649642,"210":-0.06383644931939832,"211":0.09677470779196139,"212":0.03187404682737478,"213":-0.07527585794772328,"214":0.4508758039718285,"215":0.1960790577299095,"216":0.013718015444985474,"217":0.005055549380857642,"218":0.012625879329379511,"219":-0.1282017911328052,"220":0.0013396135019371148,"221":0.4631893044863125,"222":0.19655233669561836,"223":-0.006067747930256592,"224":-0.06822334460774168,"225":-0.07977130510004689,"226":0.10383762477329465,"227":-0.616351467511668,"228":0.5001488737211057,"229":0.1900202962792294,"230":0.021204023166723582,"231":0.02084430049766736,"232":-0.04210607565245616,"233":-0.11973519487983375,"234":-0.4755237080999466,"235":0.6481977874431698,"236":0.18903817934815498,"237":0.11471520281372287,"238":-0.004657300275008859,"239":-0.11929650177772848,"240":-0.09010548478809202,"241":-0.41639047323472816,"242":0.8168110161484036,"243":0.2857102326435853,"244":0.24214458541248202,"245":-0.06682313538959553,"246":0.08936302390705424,"247":-0.3192320974372938,"248":-0.3710969380155431,"249":0.7238030914553677,"250":0.37725505814341026,"251":0.11059225261173493,"252":-0.03305084455127025,"253":0.05246176069989624,"254":-0.17380350925993118,"255":-0.21225099717259607,"256":1.0199176703513748,"257":0.40280424022135225,"258":0.02126791906124859,"259":0.11485731648313326,"260":0.08047302894156667,"261":-0.2825068605140246,"262":-0.1781956449569388,"263":1.1042293993106098,"264":0.29055968657833675,"265":0.03771092355944059,"266":-0.014521965797964262,"267":-0.02020728651698346,"268":-0.21939152247253646,"269":-0.23601999576936133,"270":1.1563565873058939,"271":0.5131439883066471,"272":0.02928354702577019,"273":-0.06734507282577167,"274":-0.018924814371610074,"275":-0.03432704261012431,"276":-0.6056209402566141,"277":1.2651847294458307,"278":0.4831880238425791,"279":0.13577682106222277,"280":0.04067123324014128,"281":0.03632684798057932,"282":-0.27019799877261297,"283":-0.770089665686616,"284":1.2697057270372778,"285":0.46180579630224855,"286":-0.04246560567642102,"287":0.008342828531661597,"288":0.06133936261983138,"289":-0.15875032763012628,"290":-0.8637019277492655,"291":1.1963622995312415,"292":0.18828330407695443,"293":-0.1461925130288697,"294":0.16094854655357085,"295":0.054982983565749946,"296":-0.3089843764654255,"297":0.051169117760278056,"298":0.8818715343090768,"299":0.1601141456363484,"300":0.03422858470690746,"301":0.03340940467567372,"302":-0.051240207065956805,"303":-0.16756072711541628,"304":0.05236935438121293,"305":0.7904888165871731,"306":0.013516946384970384,"307":-0.033833481155241596,"308":0.05103638969572451,"309":0.04653012273442318,"310":-0.22854026816256795,"311":0.05654669943575616,"312":0.6517662993532687,"313":-0.14569317114677963,"314":0.04801172874822049,"315":-0.09351389756513621,"316":-0.03125011453584782,"317":-0.16392994662443564,"318":0.04870430893237734,"319":0.6072488492249616,"320":-0.17998340218783745,"321":-0.015750467752626746,"322":-0.17537982124504609,"323":-0.1308650454421247,"324":-0.0901905979488888,"325":-0.8958612367616571,"326":0.1400022538415725,"327":-0.05210072136562063,"328":-0.0417689614657963,"329":-0.04346916124847612,"330":-0.0538257104147965,"331":-0.012074572545858276,"332":-0.8810219787803217,"333":0.04309629881391723,"334":-0.05790408799678065,"335":-0.10683609943686768,"336":-0.006590319492651612,"337":-0.059601410004503995,"338":-0.01576691484840394,"339":-0.847241831299778,"340":-0.05368482619004271,"341":-0.18330346286235114,"342":-0.03327879055080266,"343":0.009254255634872583,"344":-0.03056114402651445,"345":0.0022157842895651862,"346":-0.03637669449094312,"347":-0.4045812804067861,"348":-0.22193164657967218,"349":-0.08156877519462019}},{"sx":1,"sy":1,"depth":350,"w":{"0":-0.00318915929335263,"1":0.0019682464587668933,"2":-0.0026751918496525657,"3":0.013016737480007002,"4":0.009435449012475504,"5":-0.012541994343160138,"6":-0.005973949892169053,"7":0.006541097352879551,"8":-0.002088537826575504,"9":0.0027818992696907927,"10":0.011514203545278195,"11":0.0015038891916532135,"12":-0.01982829952673445,"13":-0.0064413897388564375,"14":0.0027661150854913557,"15":-0.0037025474575378176,"16":-0.012858061333164856,"17":0.007688058695005687,"18":0.000574816468245908,"19":-0.016515962434764605,"20":-0.007540011891995174,"21":0.006099036173587983,"22":-0.007392191460467908,"23":-0.0018325725865260029,"24":0.012697451082436959,"25":0.004086229352906623,"26":-0.007818085507816076,"27":-0.007242914029525004,"28":0.009645741108025952,"29":-0.008817326371864323,"30":-0.0004932489877967975,"31":0.008666512935482507,"32":0.003303682012243425,"33":-0.004080892094280657,"34":-0.002600467659470499,"35":0.013326027675259295,"36":-0.008986922531073159,"37":-0.002875804564157446,"38":0.025073269446414772,"39":0.0028029654416736743,"40":0.005216865733387003,"41":0.0010503360439972334,"42":0.008385251181453484,"43":-0.015800202672793806,"44":-0.011961770076198181,"45":0.016563955086873118,"46":0.0032822030999744753,"47":0.008532534645154785,"48":-0.004047275520471804,"49":0.008390121846391539,"50":-0.003472108541673833,"51":-0.02288876751189342,"52":0.008221847245708224,"53":0.0055752266994056505,"54":-0.00319842182989325,"55":-0.004674030109922801,"56":0.008724679933220037,"57":-0.008352063226306298,"58":-0.02311703394831203,"59":0.008131502899681509,"60":0.018147503105005302,"61":-0.008915665647483207,"62":-0.008044918484166396,"63":0.003906525480670314,"64":-0.016959240312048436,"65":-0.03021904938365591,"66":0.008640623755742823,"67":0.014911079410653718,"68":-0.007138559058254468,"69":-0.0050814930083086605,"70":-0.010427818942466147,"71":-0.0073339602827196745,"72":-0.018819273322224276,"73":-0.0009137876519649696,"74":0.015141831601166889,"75":-0.00751757822680007,"76":-0.0010808263043729715,"77":-0.008027223104230197,"78":-0.015611447843327492,"79":-0.017252949276811206,"80":0.014151306549511274,"81":0.01956542122229226,"82":-0.006196037479052502,"83":0.009270267617880126,"84":-0.006600463073005197,"85":-0.017707391097613687,"86":-0.011967046193256309,"87":0.018521954033812366,"88":0.02150393099806611,"89":-0.003517158199720144,"90":0.009702043606468334,"91":0.006067832250171931,"92":-0.0020205145986423216,"93":-0.00072718518765608,"94":0.025501122924304977,"95":0.01753504337700554,"96":-0.0008005761790905015,"97":0.007957138523821952,"98":0.00752293783505866,"99":-0.006061166925646194,"100":0.0077082025368166536,"101":0.02724464819892133,"102":0.015372183330566069,"103":0.005594783834833964,"104":0.0045640533797364395,"105":0.005544253767098255,"106":0.0025802747707197333,"107":0.016691813538404935,"108":0.028120833781445823,"109":0.013027421979530766,"110":-0.0029100364627970654,"111":-0.0004168133906299001,"112":-0.012381572943185093,"113":0.0043046356948100335,"114":0.016122698591043857,"115":0.016462559130842054,"116":0.010550199992241981,"117":0.0034326202197418536,"118":0.006181488592842255,"119":-0.015915031238592846,"120":-0.0006535231555441841,"121":0.007946127719185457,"122":0.015374751454175432,"123":0.01643324287712973,"124":-0.012705891639805095,"125":0.01198840094974362,"126":-0.008300459213701587,"127":-0.012327585591066009,"128":0.004921794769241105,"129":0.012830421843983813,"130":0.016129528398829703,"131":-0.013466075256408201,"132":0.0006351482379256772,"133":-0.01769217462327103,"134":-0.0038149369050690615,"135":0.0005057187866587526,"136":0.007675734126350266,"137":0.015812000909806223,"138":0.0056699432206668045,"139":0.005114273679424775,"140":-0.0025151318692068964,"141":-0.013427775269308578,"142":-0.006758109971400874,"143":0.013940216843972295,"144":0.012614895311392985,"145":-0.0026596160763522636,"146":-0.004164751238175358,"147":0.003301847539813876,"148":-0.013032568145575605,"149":0.0016504151769283469,"150":0.015690148991946117,"151":0.003990493941773519,"152":0.008592069887759362,"153":-0.011818029132848342,"154":0.007106061716270883,"155":-0.0014610057047218178,"156":-0.009132359783236569,"157":0.027608266765247205,"158":-0.009479370197059502,"159":0.005530281976810593,"160":-0.009507281005093142,"161":-0.008721536150285569,"162":-0.004573946988144487,"163":-0.01507393736025578,"164":0.02378165885891085,"165":-0.0008254614635235765,"166":0.0016257726739484838,"167":-0.011028962798773518,"168":-0.01076544242802916,"169":-0.005773645482059372,"170":-0.00437333784843224,"171":-0.016471663273114112,"172":-0.0009217602439629771,"173":-0.003493487628214251,"174":-0.005721523706009866,"175":-0.015565740777779048,"176":-0.00636499917723133,"177":-0.018021907703642166,"178":-0.007310763875569369,"179":0.0027782578219982955,"180":-0.010180836031288503,"181":-0.008171837861891422,"182":0.0002861780845215608,"183":-0.004665515236313084,"184":-0.00789497381422624,"185":-0.006118218116625021,"186":0.00901439196809789,"187":-0.01906160367157627,"188":-0.003591222662130961,"189":0.001126884632112321,"190":0.011597635933217219,"191":-0.009477396079126293,"192":0.007752761311009667,"193":0.004611607709781153,"194":-0.0007667774009727765,"195":-0.0072131316580392,"196":0.001178049593637715,"197":0.0019008088113159304,"198":-0.020985636397048358,"199":0.014989230656461494,"200":0.0004824445158047874,"201":0.0006518846200391304,"202":0.0013773773556472542,"203":0.005365795821722829,"204":0.0013389821590628036,"205":-0.0295696056135153,"206":0.01308168486821913,"207":-0.02389802950903957,"208":-0.0010700353760212209,"209":0.005436800267581907,"210":-0.0008293598418008471,"211":-0.003436615437632843,"212":-0.040269579700001674,"213":0.013036608782924761,"214":-0.032151233097797174,"215":-0.0005915121857071668,"216":0.001271603709230997,"217":-0.0045343298519576235,"218":-0.004271069497981265,"219":-0.032524573314434466,"220":0.007020816568510956,"221":-0.039973895868661395,"222":0.0024931034678275102,"223":-0.005102181779530432,"224":0.0015572912639579691,"225":-0.011326635926082738,"226":-0.00964588366473938,"227":0.008936573137463615,"228":-0.03982210084786197,"229":-0.00464880581475075,"230":-0.013591175347927633,"231":0.0046952763614633115,"232":-0.006959400261893493,"233":0.0028035866352401568,"234":-0.005611965013149862,"235":-0.03282067768366441,"236":0.00020424039531348126,"237":-0.026176137280999528,"238":-0.0027430939110098585,"239":-0.0023673241850211456,"240":-0.0039497007524949106,"241":-0.018282916229830512,"242":-0.03125303795177817,"243":-0.016991608371205346,"244":-0.023682459096051767,"245":0.013358375642614644,"246":-0.010060588647219884,"247":0.010172343458047933,"248":-0.025001421701641584,"249":-0.01290368112139664,"250":-0.02800596546058726,"251":-0.014154913736667872,"252":0.004025488926233467,"253":-0.007202164170554603,"254":-0.01725556668927453,"255":-0.0217880562065476,"256":-0.015011344470346423,"257":-0.046524294807266685,"258":0.0007186338977498331,"259":0.010708868602076205,"260":0.0017578479312183324,"261":-0.020773259242342714,"262":-0.0043775420501241565,"263":-0.028895216801049915,"264":-0.03534639872995066,"265":0.01377977647694243,"266":0.011142140537654225,"267":0.009735773267022182,"268":-0.030783667864025015,"269":0.00006177301428780909,"270":-0.03275052074588227,"271":-0.0347699298569986,"272":0.01157944763101861,"273":-0.0001457679464744112,"274":0.007901098812301763,"275":-0.05101139017162861,"276":0.015939696314896726,"277":-0.04704922600059763,"278":-0.025054502282178558,"279":0.0003386683060433689,"280":-0.0007135144583104477,"281":0.008104586377011362,"282":-0.04802836566039466,"283":0.016243651937520004,"284":-0.023065240009459857,"285":-0.007715940522091646,"286":0.008903924136794932,"287":-0.01394055277363831,"288":0.015347667974229656,"289":-0.034683218483451975,"290":0.013068051022056309,"291":-0.013748760600521883,"292":-0.000129822733851225,"293":0.0049438443572452735,"294":-0.008255162615720707,"295":-0.004792367938418664,"296":-0.02420914823669089,"297":0.0008611991207477601,"298":0.00028999427995680537,"299":-0.002910949642181654,"300":-0.006788097636163214,"301":0.0035439415292707332,"302":-0.007646651368445884,"303":-0.027968612154457288,"304":-0.000685015634082486,"305":-0.014466983483494846,"306":0.0012046632601163674,"307":0.0038442079807513847,"308":0.0102574748368124,"309":-0.0014024359672254298,"310":-0.0175966774814145,"311":-0.0077936097078306985,"312":-0.011620580125036679,"313":-0.0031785737946571353,"314":0.008641522982586811,"315":0.014837345972902146,"316":-0.004623524395442452,"317":-0.0013910983427776217,"318":0.00009195230763995731,"319":-0.011807621244972536,"320":-0.015818363154178148,"321":0.007080902723369305,"322":0.009853809968104844,"323":-0.011894203183335892,"324":-0.010754156652638557,"325":0.019432771414777922,"326":-0.009676493808301392,"327":-0.012209751649412912,"328":0.005482902424649507,"329":0.00870882792328743,"330":-0.006427271531284657,"331":-0.0004318973794676876,"332":0.020048768579189042,"333":-0.009286918871980151,"334":0.0064822296226866435,"335":-0.003257215269465768,"336":0.013177287982543803,"337":-0.0007983132495313013,"338":-0.005231513822768645,"339":0.014737420208189723,"340":0.004265439365747001,"341":0.006858749371049725,"342":-0.01563771678482719,"343":0.003865310691860829,"344":-0.00324963369096669,"345":-0.010989500333300485,"346":-0.013471177950252924,"347":0.007683230417399042,"348":0.02082356227555318,"349":-0.015156716718210556}},{"sx":1,"sy":1,"depth":350,"w":{"0":0.02922856590758,"1":-0.012632585148390055,"2":-0.050173793797139654,"3":-0.07162707416165862,"4":-0.06004336349077798,"5":-0.055200350580252265,"6":-0.015767070018374404,"7":0.029116696288044495,"8":0.06643644361482916,"9":-0.054021810770587216,"10":-0.1301343746749541,"11":0.017676896667935794,"12":0.07452357801609161,"13":0.011460184546338518,"14":-0.05419042993893604,"15":-0.0803365030664791,"16":0.05312724180247493,"17":-0.017549161527077584,"18":-0.02777529001157232,"19":0.014058102553802606,"20":-0.051396282668072515,"21":-0.03872903085377287,"22":-0.0078831583862929,"23":-0.07587018824588483,"24":-0.10247638955044495,"25":-0.004922340675725919,"26":0.07996976126158545,"27":0.012811474298697428,"28":-0.09276933137247699,"29":0.06874301442180195,"30":-0.0038628579960352264,"31":-0.1610222653164524,"32":-0.0672477533173702,"33":-0.03820920063005378,"34":-0.061543881502346465,"35":-0.09966097875936207,"36":0.05950862097443831,"37":-0.0636079528048392,"38":-0.08106621165122946,"39":-0.0326159508120399,"40":-0.006075571340975555,"41":0.013910783902846224,"42":-0.09335186013782412,"43":0.008115041555456457,"44":0.03962143796194988,"45":-0.04771502599334997,"46":0.0481588978857579,"47":-0.03228144908744652,"48":0.021533339628255026,"49":-0.06566641870070072,"50":-0.03539466059064814,"51":0.0976026463674004,"52":-0.008757947265726231,"53":-0.013212448884151717,"54":-0.052759613322386274,"55":-0.042398090427089904,"56":-0.11530455778574651,"57":0.01130653170337106,"58":-0.03755421870590176,"59":-0.09048909275976083,"60":-0.0060631482627597315,"61":-0.08068737013594102,"62":-0.017978951895211804,"63":-0.013724400613807057,"64":-0.017234702220969355,"65":0.06331392994465687,"66":-0.13612032389579187,"67":0.034221135693408025,"68":-0.00927183011344315,"69":0.016147374589862346,"70":0.0376737296389327,"71":0.020808441062135002,"72":0.053408987258727024,"73":-0.07391088984621647,"74":-0.001911903416937318,"75":-0.00393758448228483,"76":-0.03639238416735391,"77":0.008967771671671173,"78":0.032699549241821786,"79":0.025760248267040108,"80":-0.11256567459499803,"81":0.0696888637708283,"82":0.00501835907711192,"83":0.010687271429519151,"84":0.02334813067697399,"85":0.03855099601952896,"86":0.08989123300671127,"87":-0.08539472635109319,"88":0.014536075055396525,"89":0.011573501897879217,"90":0.03164282082254735,"91":-0.08679645742912515,"92":0.061151859793366105,"93":0.13766896669675327,"94":0.018673987600640013,"95":0.09807958059112507,"96":0.02581996552449306,"97":0.004313908513862415,"98":0.015802491936382782,"99":0.06351349714517655,"100":0.04385118728281343,"101":-0.0372749878137356,"102":0.12612338721529337,"103":0.1318524535628854,"104":0.048724662051410454,"105":-0.03981851711511443,"106":0.06947881494106006,"107":0.0031863338233052083,"108":-0.06430416739001013,"109":0.14753150281187785,"110":0.11507216267487685,"111":0.0008173875285191456,"112":0.002053930301937406,"113":0.1254857470229422,"114":-0.07077182706585791,"115":-0.07121467172493123,"116":0.1463922399305365,"117":0.005868235513824118,"118":-0.08199451594141098,"119":0.07499034191121583,"120":0.077333857487391,"121":-0.06697655062549629,"122":-0.020018015254330824,"123":0.11135886955148039,"124":0.07881809761197,"125":-0.04901226361364415,"126":0.013165802590233923,"127":0.047741586762778176,"128":-0.02122543384847388,"129":-0.00009691674028440805,"130":0.18063198128133662,"131":0.06862852951568803,"132":-0.009858318388892704,"133":0.025459249685830194,"134":-0.010795647090703535,"135":-0.01774687800794589,"136":-0.07811879403068338,"137":0.16696714916067043,"138":0.011331078279101158,"139":-0.02066526304313783,"140":0.018971461975425007,"141":-0.026874085069709182,"142":-0.08588001611489081,"143":-0.02210168494615544,"144":0.21097896090807808,"145":0.08017260529987587,"146":-0.013604570799203665,"147":-0.030166698371246792,"148":-0.08505131368752626,"149":-0.10029035205306608,"150":-0.022301254412689868,"151":0.2359595208964535,"152":0.0723879182302064,"153":-0.019690328576306416,"154":-0.03064428441664802,"155":-0.04463798637280656,"156":-0.010426943865152747,"157":-0.14211322455763165,