//<![CDATA[

// a few things don't have var in front of them - they update already existing variables the game needs
lanesSide = 3;
patchesAhead = 50;
patchesBehind = 5;
trainIterations = 100000;

otherAgents = 0; // max of 10


var number_inputs = (lanesSide * 2 + 1) * (patchesAhead + patchesBehind);
var number_actions = 5;
var temporal_window = 0;
var network_size = number_inputs * temporal_window + number_actions * temporal_window + number_inputs;

var layer_defs = [];
layer_defs.push({
    type: 'input',
    out_sx: 1,
    out_sy: 1,
    out_depth: network_size
});
layer_defs.push({
    type: 'fc',
    num_neurons: 36,
    activation: 'relu'
});
layer_defs.push({
    type: 'fc',
    num_neurons: 24,
    activation: 'tanh'
});
layer_defs.push({
    type: 'fc',
    num_neurons: 12,
    activation: 'tanh'
});
layer_defs.push({
    type: 'fc',
    num_neurons: 12,
    activation: 'tanh'
});
layer_defs.push({
    type: 'regression',
    num_neurons: number_actions
});

var tdtrainer_options = {
    learning_rate: 0.005,
    momentum: 0.5,
    batch_size: 32,
    l2_decay: 0.05
};

var para = {};
para.temporal_window = temporal_window;
para.experience_size = 80000;
para.start_learn_threshold = 40000;
para.gamma = 0.95;
para.learning_steps_total = 200000;
para.learning_steps_burnin = 500;
para.epsilon_min = 0.05;
para.epsilon_test_time = .010;
para.layer_defs = layer_defs;
para.tdtrainer_options = tdtrainer_options;

brain = new deepqlearn.Brain(number_inputs, number_actions, para);

learn = function (state, lastReward) {
    brain.backward(lastReward);
    var action = brain.forward(state);

    draw_net();
    draw_stats();

    return action;
}

//]]>
/*###########*/
if (brain) {
brain.value_net.fromJSON({"layers":[{"out_depth":385,"out_sx":1,"out_sy":1,"layer_type":"input"},{"out_depth":36,"out_sx":1,"out_sy":1,"layer_type":"fc","num_inputs":385,"l1_decay_mul":0,"l2_decay_mul":1,"filters":[{"sx":1,"sy":1,"depth":385,"w":{"0":-0.014067527892309124,"1":-0.0371111426955496,"2":-0.12888211559777413,"3":-0.26209586675790986,"4":-0.05612223724965056,"5":0.03066822492355405,"6":-0.09758855304712424,"7":-0.07660401634326716,"8":0.07276266828700373,"9":-0.04102154903485677,"10":-0.125555387137783,"11":-0.04986700350100231,"12":0.06045813393593421,"13":-0.040969272065454136,"14":0.014479287256221924,"15":0.03211557140594082,"16":-0.016716652928280458,"17":-0.12607653963473964,"18":-0.08458650325207824,"19":0.05919396286570048,"20":0.04136137325085375,"21":-0.01263681092859603,"22":-0.04455116298949919,"23":-0.0905632905290656,"24":0.029117729638446888,"25":-0.06304577741381816,"26":0.01100801933962178,"27":-0.023995441569278242,"28":-0.06033342878380114,"29":-0.04144675034830142,"30":-0.09183471381009883,"31":-0.11395535181248408,"32":-0.03862150909196273,"33":-0.022127863173208275,"34":-0.04390602706725838,"35":0.025820727929769395,"36":-0.012545160111158488,"37":-0.10513810751208498,"38":-0.13204165209147997,"39":-0.0763903518275047,"40":-0.013104534479641237,"41":-0.029611996057160837,"42":-0.03842742756902191,"43":-0.03286841044214079,"44":-0.09779033970449882,"45":-0.12325882991927406,"46":-0.09335270000480822,"47":0.031313164247173834,"48":-0.040734185930353974,"49":-0.04386540542763687,"50":0.00474430916248695,"51":-0.01990302552700668,"52":-0.1420854615584686,"53":-0.059902936091863285,"54":-0.0022962975449811063,"55":-0.03780229704975387,"56":-0.025851559935027153,"57":-0.04160817059161139,"58":-0.11975036300637598,"59":-0.1607032999006048,"60":-0.07993891813306456,"61":-0.06593232344491487,"62":0.03729202687642333,"63":0.01844272500805546,"64":0.017061439410514107,"65":-0.12414119596632736,"66":-0.14483201453098649,"67":-0.044653210233602525,"68":-0.06452630366465377,"69":-0.04062460523256306,"70":0.06691711459460133,"71":0.011210284339071223,"72":-0.09538509911922456,"73":-0.11040934118110705,"74":-0.07175664529859456,"75":-0.0013901599496463403,"76":-0.039648632847909294,"77":-0.06440912565590731,"78":-0.049162896260193,"79":-0.09274857211148137,"80":-0.17004915574004484,"81":-0.1361014947808703,"82":-0.05548155681489636,"83":-0.001271600827178816,"84":0.05032825384285497,"85":-0.06434345296462768,"86":-0.07401712648449357,"87":-0.22640928216664352,"88":-0.062151726442248735,"89":-0.021709540676486193,"90":-0.08303187241498165,"91":-0.011740620765653811,"92":-0.14551538003255296,"93":-0.08866427312159292,"94":-0.15343658654471737,"95":-0.08738299367569902,"96":-0.11859594572259691,"97":-0.010120650439320695,"98":-0.09871360853460125,"99":-0.01366490080934255,"100":-0.09169481845202183,"101":-0.18804279915441044,"102":-0.10081119150098292,"103":-0.16686273550364183,"104":0.01445741987351946,"105":0.018432166833956452,"106":-0.043983891213624796,"107":-0.07775119694747668,"108":-0.1079684336542996,"109":-0.1362166116854671,"110":-0.1304614749173276,"111":-0.03268022726157149,"112":-0.03511260519397797,"113":-0.058188037337855505,"114":-0.10293621759330983,"115":-0.2105672905018466,"116":-0.17931830225069756,"117":-0.03805368760242659,"118":-0.053268209122490674,"119":-0.018632627827209904,"120":-0.11886647748871948,"121":-0.13462313724978733,"122":-0.24408324451297164,"123":-0.1238231539633691,"124":-0.05687118754850382,"125":0.024325328563187604,"126":0.0143122605492727,"127":-0.03251290546597289,"128":-0.05486019598022215,"129":-0.16663785733945272,"130":-0.11637604462556363,"131":-0.033178451367209,"132":0.08145861190552323,"133":0.004984859141523423,"134":-0.047037501943360906,"135":-0.09515399046223441,"136":-0.11287906833340387,"137":-0.1405928547036265,"138":-0.07561532959488033,"139":0.023756533172860982,"140":-0.05839146405055112,"141":-0.12830116842814962,"142":-0.12781879774388624,"143":-0.11288073847005846,"144":-0.16505950823598453,"145":-0.04251709264539667,"146":0.03349722660166179,"147":-0.07987348078885027,"148":-0.11027975979024565,"149":-0.09324937643480723,"150":-0.12828386549194162,"151":-0.10409788212969806,"152":-0.0020978528274763846,"153":0.007476840529749481,"154":0.02578894998411988,"155":-0.08994528185345738,"156":-0.14459312525726795,"157":-0.10063035244475174,"158":-0.14718521452357317,"159":-0.0622306293783509,"160":-0.011190467118002879,"161":-0.023647250936601638,"162":-0.0962965588967664,"163":-0.05445415190345961,"164":-0.19553789969187974,"165":-0.0557159458010198,"166":-0.0612985615528022,"167":0.05626871325904611,"168":-0.02218126006760371,"169":-0.07685342859117753,"170":-0.0754198119076136,"171":-0.13888000650362947,"172":-0.09114201794098675,"173":-0.005749277047228344,"174":0.06257485274484063,"175":0.06236060556978848,"176":-0.1478313050158215,"177":-0.1121290446331885,"178":-0.08420447863494585,"179":-0.11079079206699913,"180":0.0027113283817195993,"181":0.029881449347138746,"182":-0.010703886390878764,"183":-0.03596605274175891,"184":-0.07032103069387673,"185":-0.1525808278396638,"186":-0.03382288525012174,"187":0.036626172617171646,"188":0.054822497333883245,"189":-0.02542675604988027,"190":-0.08485355602401774,"191":-0.009157889514177347,"192":0.0036905823722329064,"193":-0.0926355757631479,"194":0.05723515200242347,"195":-0.03571088176773876,"196":-0.09386787298611264,"197":-0.02631918074295203,"198":-0.011636778616407457,"199":-0.021246980385287516,"200":-0.043181375818287855,"201":0.06166796264086374,"202":-0.0043557231762058075,"203":-0.015094972695539432,"204":-0.0765315046543284,"205":-0.018940982393774574,"206":-0.08975985922651773,"207":-0.004419892417382903,"208":0.03421581033836487,"209":-0.04004693493510515,"210":0.011103120085567185,"211":-0.08997505460230251,"212":-0.03793196709972893,"213":-0.0508693977379249,"214":-0.02989766768685012,"215":0.03812877789486412,"216":0.020331045925182162,"217":0.05780140296674024,"218":-0.08168267089003596,"219":-0.04549284683925751,"220":-0.08251241576691272,"221":-0.11166208296509644,"222":0.030424801539053723,"223":0.003134873740999272,"224":0.019588068038995116,"225":-0.07606809542093025,"226":-0.009357316161861936,"227":-0.017868273093346453,"228":-0.07307586192344132,"229":0.043805191500551136,"230":0.0027581708916015416,"231":-0.02574601637875829,"232":-0.05973724590340924,"233":0.0347177092576805,"234":0.06251046487795328,"235":-0.03135291677363596,"236":0.00037896420337162783,"237":-0.00022076664349349545,"238":-0.00830399297499896,"239":-0.06644027492936094,"240":-0.00969257390035077,"241":0.08386066854923285,"242":0.012430816536764743,"243":0.04650360949955686,"244":-0.03951928594867776,"245":-0.027003881348007318,"246":0.04763471056280333,"247":-0.024375470684130412,"248":0.11584095865065712,"249":0.00475924033752833,"250":0.03477937016090664,"251":-0.0387278228276893,"252":0.07184734494865856,"253":-0.010064308456171667,"254":0.045655199228275295,"255":0.2304287255598393,"256":-0.024405464879558008,"257":-0.012971718922174576,"258":0.06521860427283696,"259":-0.013097227226407169,"260":0.0036510597758756744,"261":0.03027310003085487,"262":0.21861703754697384,"263":0.07349697514426379,"264":0.04484067712556864,"265":0.035595467743986094,"266":0.0026072250204243427,"267":0.017332191043519272,"268":0.09521824056404747,"269":0.24934465236076345,"270":-0.031654269182734104,"271":0.07205432140305205,"272":0.03847844216750087,"273":0.009097737073549432,"274":0.08131382102257796,"275":0.15880268407882067,"276":0.2786461213751381,"277":0.06022615863666376,"278":0.010117704751917637,"279":0.025654569172850642,"280":0.05106355439471515,"281":0.08363025926636183,"282":0.14494721211698466,"283":0.43244430078264545,"284":0.15382338436987242,"285":0.09239422760880991,"286":-0.11318594095422226,"287":0.08015943971225535,"288":0.16119011733259417,"289":0.15728727020495728,"290":0.37160761426807437,"291":0.04911089392831516,"292":-0.003942178687725648,"293":-0.00011064588291761278,"294":0.01721436645742794,"295":0.11541125617821024,"296":0.22179050620594987,"297":0.3286276585856309,"298":0.12802147968973596,"299":0.015952077080038325,"300":-0.021754209778004713,"301":0.07829838404167819,"302":0.09026652368659117,"303":0.1468959486870492,"304":0.32957627156207403,"305":0.042130059429593435,"306":0.09627535319016399,"307":0.05427886009593037,"308":0.0663691241017449,"309":0.1189595506777526,"310":0.19144605169658035,"311":0.2563843727436576,"312":0.07361717637325758,"313":0.06528197504656326,"314":0.028855970452385336,"315":0.05771788051530877,"316":0.12280444609607169,"317":0.2170079488810892,"318":0.19842183443952602,"319":0.19465574448956985,"320":0.03848968715728938,"321":0.037838049319493056,"322":-0.004972117672157213,"323":0.08723122515154479,"324":0.15338916508823502,"325":0.1671794465843174,"326":0.14625653124810412,"327":0.00731406364333268,"328":0.0037784693654586577,"329":0.08493637534660309,"330":0.05465957835947206,"331":0.2083849492441133,"332":0.1754851951504034,"333":0.2323564518465354,"334":0.025351654499052603,"335":0.015521919598614141,"336":-0.009184911117996276,"337":0.12711412366889724,"338":0.2135684148449565,"339":0.17703121260712298,"340":0.2043246696276717,"341":0.006872026297960834,"342":0.0029838151834449536,"343":0.05638796029845611,"344":0.10130641704422447,"345":0.21492470959764404,"346":0.2694969334257907,"347":0.18030451918259988,"348":0.08675099844753797,"349":-0.0007834732928980043,"350":0.05434451324016403,"351":0.04571849605259586,"352":0.19665325019589397,"353":1.7794600043428779,"354":0.22765086259668077,"355":-0.0008117961513899983,"356":0.0319640235361236,"357":0.09206330691287506,"358":0.003570198285660623,"359":0.18325717943951234,"360":1.7596436375725604,"361":0.15131225744112714,"362":0.03112789557163554,"363":-0.04989895583579135,"364":0.08678629905740547,"365":0.03779445145406671,"366":0.040594511049129645,"367":1.755404204603049,"368":0.09772965276591823,"369":-0.010016165972699909,"370":0.05398336857882116,"371":0.046417904535499134,"372":0.03669848405454047,"373":0.14147780218471043,"374":1.74145047370028,"375":0.16443504625647448,"376":-0.009624827147927452,"377":-0.005565516955212021,"378":0.05070881336965939,"379":0.04923703462706836,"380":0.10442236374524624,"381":0.7504040757893856,"382":0.11015182529358505,"383":0.057295004098978045,"384":0.022449885781883953}},{"sx":1,"sy":1,"depth":385,"w":{"0":-0.008200382727615311,"1":-0.06897299560889296,"2":0.05748773263829968,"3":0.10808277843239748,"4":0.015953983155611584,"5":0.06478280454549058,"6":-0.034625210768076974,"7":-0.12572354288814758,"8":-0.009780241291283506,"9":0.027521288835014143,"10":0.11054508806424815,"11":0.07765131950205913,"12":0.042340403830976384,"13":-0.06439721412847475,"14":0.003080084106720081,"15":-0.0027405072478110604,"16":-0.027742530508603928,"17":0.021867077711805655,"18":-0.026495486531982256,"19":-0.023243253346860532,"20":-0.07972519496965957,"21":-0.06319926692506396,"22":-0.06114497395259317,"23":-0.07263224179297631,"24":-0.01669290705600189,"25":-0.04460727377920619,"26":0.06033161723471348,"27":0.04374042224618616,"28":-0.09097320771803932,"29":-0.06917402758077831,"30":-0.02386399695023771,"31":0.041368338560914215,"32":0.013177444755713738,"33":0.0838926762822093,"34":0.00689740468597356,"35":-0.027236456732210455,"36":0.052546719398919466,"37":-0.02267293282436815,"38":-0.006670039671795276,"39":0.01677255852044133,"40":0.030692044766402853,"41":0.0896894408836011,"42":-0.05440074741917052,"43":-0.037555006882284234,"44":-0.002305035087755987,"45":0.012323494010597895,"46":0.03101727271721298,"47":0.06331540030059514,"48":0.0758066896015578,"49":0.030284059159216527,"50":-0.031002041123021004,"51":-0.004161593443272217,"52":0.0745467071073807,"53":0.05690500996197612,"54":0.07433529670783312,"55":0.0537775892059473,"56":-0.05278948679262003,"57":-0.03140735422625774,"58":0.004212520723418999,"59":-0.01621952531941357,"60":-0.01149192866627831,"61":0.12635772742973153,"62":0.04866343067732225,"63":-0.010250993188672642,"64":-0.10393082317700364,"65":-0.006501180443779706,"66":0.009534409536535506,"67":0.045245041222297985,"68":0.08692248486336578,"69":0.02898179069859552,"70":-0.025708605550667923,"71":0.04355748388677332,"72":-0.01812568857992775,"73":0.03638174164335382,"74":-0.0029010225429668287,"75":-0.08345885354884637,"76":0.04619757776654269,"77":-0.01129111584989357,"78":-0.016041446863835924,"79":-0.0046544753923173626,"80":0.0533746880464498,"81":0.11413038339344507,"82":0.049734379357171093,"83":0.0205805980994154,"84":-0.025397572331288552,"85":-0.03506238951082968,"86":-0.0009733613661732464,"87":0.0717012417863758,"88":0.1751189305040663,"89":0.06406756940792975,"90":0.09464619200248087,"91":-0.01158908062570484,"92":0.00209142277716273,"93":0.040844433510373215,"94":0.07079395904557478,"95":0.11286873347499216,"96":0.09221459479068407,"97":0.09996163757640868,"98":-0.022803595881462118,"99":-0.07272812975272845,"100":0.061502429417723714,"101":0.07459093134479801,"102":0.12472493465623556,"103":0.1042062052081298,"104":0.11123847263467945,"105":-0.026155160394111986,"106":-0.09599615741212619,"107":0.06687059642085691,"108":-0.06699183912760973,"109":0.020513574297966016,"110":0.010307668416485569,"111":0.015027004019200449,"112":-0.05104345438825615,"113":0.0009768898315402146,"114":0.07348907901777843,"115":0.07854893830930273,"116":0.0116806164750396,"117":0.02404625477942936,"118":0.04505645047937115,"119":-0.10577586028873079,"120":-0.07768508712795094,"121":0.08684628474989935,"122":0.030878730787208136,"123":-0.0672523240338812,"124":-0.04744971805453241,"125":0.050362046753982766,"126":-0.09399529756005029,"127":-0.0066206435438516545,"128":0.09850826766550154,"129":0.07348084962336218,"130":0.04635055214090415,"131":0.04601562999797287,"132":0.020783748507851325,"133":-0.05382632818891812,"134":-0.02268536403535213,"135":0.10564328137109642,"136":0.17202915637304572,"137":0.014407099382020725,"138":0.04714386356644802,"139":0.11476806750232682,"140":-0.07624770605987519,"141":-0.07729227638116648,"142":0.12114330256970068,"143":0.06639403880404023,"144":0.013267983883328746,"145":0.05385476352131913,"146":0.05883438669092719,"147":-0.09244322512973475,"148":-0.05741535771726201,"149":0.13353657567098207,"150":0.03344663288380092,"151":0.00005711115223459894,"152":0.030505928706785604,"153":-0.022764936649665172,"154":-0.11602325333991012,"155":-0.14000987151462815,"156":0.1284846345501921,"157":-0.09508952350117134,"158":-0.05102393397267578,"159":0.0192383950260084,"160":-0.008049905142411683,"161":-0.11458252235814069,"162":-0.10726190358767021,"163":0.06585014681430144,"164":0.007682804275823527,"165":-0.009652602455530082,"166":0.052338760110632196,"167":-0.06088621909904369,"168":-0.08370183083693487,"169":-0.013427504191685577,"170":0.14821417603420248,"171":-0.019120720461074183,"172":-0.034649082901155134,"173":-0.012861451478126519,"174":0.01920024499914101,"175":-0.15855471662049972,"176":-0.04763409713955213,"177":0.09750491822695369,"178":-0.0465005794023175,"179":-0.02296536280952677,"180":0.006594852494548569,"181":0.07772707242263527,"182":-0.04120274308667265,"183":-0.010640398937766221,"184":0.08625731773672726,"185":0.007578883327253227,"186":0.033488646735512856,"187":-0.0446896144717754,"188":0.016155385834242676,"189":-0.044657219558278484,"190":-0.08206072347283999,"191":0.0806452692678972,"192":-0.006880239854185796,"193":-0.005721338572036496,"194":-0.06889845829595093,"195":0.033656100671540685,"196":-0.03597236986149596,"197":-0.02781348828792567,"198":0.020046778611277037,"199":-0.12243403730610412,"200":-0.07769036524587807,"201":-0.19033174855834062,"202":0.022609732948526605,"203":-0.11816416554026708,"204":-0.014031727518120894,"205":0.15128683698927134,"206":-0.08535003313869796,"207":-0.09697574723998525,"208":-0.09955012203212134,"209":0.003080263726899151,"210":-0.14957198666325697,"211":-0.09529892891402922,"212":0.15150124981240756,"213":-0.10733932133531036,"214":-0.03489143740703895,"215":-0.013486493632475498,"216":0.06598153550929442,"217":-0.15486052591799043,"218":-0.07625260149381338,"219":0.21746648898374904,"220":-0.13514335333872166,"221":-0.035290449279860935,"222":-0.08722691128159518,"223":0.021813570700956717,"224":-0.10347893979579448,"225":-0.02025470517093072,"226":0.19291109278797242,"227":-0.10103407778618477,"228":0.021189030076817068,"229":-0.05717385741482697,"230":0.15594841134833043,"231":-0.06335395756219582,"232":-0.06797018836004327,"233":0.1740808340819142,"234":-0.03544025887046058,"235":-0.038406435818215554,"236":-0.08787940109102502,"237":0.0231963481726851,"238":-0.14634873042064164,"239":-0.0876883342622432,"240":0.14425209932623853,"241":-0.08272536917855908,"242":-0.06375979817072781,"243":-0.08594471140626865,"244":0.038616539903902354,"245":-0.1990587447789514,"246":-0.0771442536209023,"247":0.1488885451946819,"248":0.00034623416398082095,"249":-0.061234727255370845,"250":0.08178066612489039,"251":0.13087037431906146,"252":-0.10295358350111289,"253":-0.1770621091224915,"254":0.20908903588531638,"255":-0.01301977003057902,"256":-0.04385950923072625,"257":-0.0919588472474944,"258":-0.036916545353837545,"259":-0.12617900758071188,"260":-0.14066478470600358,"261":0.243552640637216,"262":-0.02872808069505454,"263":-0.015113502600826504,"264":0.029662775042130652,"265":-0.012275308182547667,"266":-0.11842366986566476,"267":-0.015119549050936886,"268":0.18509245300894217,"269":-0.03498136308176982,"270":0.05935546288268749,"271":-0.06034595040459834,"272":0.04918693972487278,"273":-0.10604002161331223,"274":-0.10350159549191741,"275":0.1369076302964589,"276":-0.1182843741613419,"277":-0.0575561858687156,"278":-0.08469486743659375,"279":-0.11574157241778042,"280":-0.17098250118777097,"281":-0.14665944662368752,"282":0.07666409664243046,"283":-0.03188396991447272,"284":0.03441859529015396,"285":-0.04633177232013111,"286":-0.04240235143018642,"287":-0.08906210287826845,"288":-0.062610800499159,"289":0.09868499700564136,"290":-0.007376666895095419,"291":0.07527193031283472,"292":-0.024528388280395705,"293":0.02612472215674305,"294":-0.2038950307890288,"295":-0.12127880062992995,"296":0.18654142640488897,"297":0.0027793719624082665,"298":0.033941815141662716,"299":-0.08292843776612004,"300":0.07390530364895992,"301":-0.17933056231210018,"302":-0.06518703996953619,"303":0.1639283765630335,"304":0.12077766634380487,"305":-0.056048933415050566,"306":-0.08430182800838225,"307":0.04482891728883771,"308":-0.22830527729786276,"309":-0.07796423057141195,"310":0.15891178169806422,"311":0.0914647286771288,"312":0.08986083922736224,"313":-0.0377402991964873,"314":0.08977891178482429,"315":-0.15755397051424644,"316":-0.07131679378349769,"317":0.2516719772194265,"318":0.07537377952219108,"319":0.06583477064969409,"320":-0.10344063427519455,"321":-0.0216595158373049,"322":-0.12735870396088958,"323":-0.20091594698735557,"324":0.1874862296701952,"325":0.07176812898244839,"326":0.012432204113858002,"327":0.021237559636055635,"328":0.02438608168728883,"329":-0.14967315916541019,"330":-0.04308201009885581,"331":0.27793637355060913,"332":-0.11753929881350436,"333":0.1048659268546845,"334":-0.11047075925488078,"335":0.00931047256450117,"336":-0.10269696327994104,"337":-0.0491134961246746,"338":0.21700700347077223,"339":-0.18012644788360646,"340":0.0957734191856332,"341":-0.05545942129301864,"342":0.05121053633555511,"343":-0.10390486663276603,"344":-0.10331487471446874,"345":0.12780498621609993,"346":-0.16525163524426545,"347":0.05731378574970608,"348":0.03684427950896726,"349":0.036182142850129544,"350":-0.029767762384011163,"351":-0.048902083295822796,"352":0.0804817978263895,"353":-0.7769881260380839,"354":0.13851145664070963,"355":-0.02700046644396536,"356":-0.05440017541477677,"357":-0.15379869766147025,"358":-0.1265179099484367,"359":0.04378168306731101,"360":-0.7743316100538484,"361":0.14859177465475296,"362":-0.041648778383759605,"363":0.014003115978398277,"364":-0.10437437724373103,"365":-0.21982313205337226,"366":0.14205191795925573,"367":-0.7982392161707556,"368":0.04355060170581504,"369":-0.09115949980850588,"370":-0.026028120093394724,"371":-0.14628574697585534,"372":-0.09727344443776174,"373":0.24834721576592156,"374":-0.7560973854109534,"375":0.07213094409338754,"376":-0.12657752535593975,"377":-0.017802486081748968,"378":-0.13582970853732398,"379":-0.042488189450658305,"380":0.2144746293209808,"381":-0.455922926746969,"382":0.23408529410751816,"383":-0.026573923278007623,"384":-0.0051142719588575065}},{"sx":1,"sy":1,"depth":385,"w":{"0":-0.019151376388958384,"1":-0.11262915457556402,"2":-0.08605128454229688,"3":-0.0773467160607005,"4":-0.05842595232831046,"5":0.04903544727967154,"6":0.05536971642012193,"7":-0.01719444336418103,"8":-0.019580301152783787,"9":-0.02476893456225074,"10":-0.07888061411221532,"11":0.009037189786962508,"12":0.07264992683091757,"13":0.012824538984465412,"14":0.0042540800544128695,"15":-0.005268192729719833,"16":-0.071716386237618,"17":-0.13514734079191326,"18":0.009782164084753417,"19":-0.033155465662274265,"20":-0.01823513675140085,"21":-0.00028669586505736244,"22":-0.014856628986178429,"23":-0.003510690177765805,"24":-0.10462125536355953,"25":0.03891548967928899,"26":-0.001371609204361455,"27":-0.07682833080656555,"28":0.04691774353377653,"29":0.0008640721718509294,"30":0.01860909667861178,"31":-0.10605622869075737,"32":-0.0173288916084075,"33":-0.006761146328354995,"34":-0.06933111323104066,"35":0.010163479923100734,"36":-0.031271201897112466,"37":-0.02551105166512148,"38":-0.13104716153416246,"39":-0.027746905973039047,"40":-0.04675232473502323,"41":0.0008314307830590672,"42":0.0216554326573322,"43":-0.04508641720371316,"44":-0.021545355403153138,"45":-0.04869666133279236,"46":-0.05171192558473605,"47":0.026014333011766082,"48":0.02226893977954451,"49":0.02097236154779174,"50":-0.0857535353146659,"51":-0.007631393065131951,"52":-0.12437981959857486,"53":0.011776642263554677,"54":-0.02303150472483039,"55":-0.021764944009953137,"56":-0.015460294894701786,"57":0.000027155179567411728,"58":0.01888040899961961,"59":-0.09821131091058592,"60":0.009803623977368591,"61":-0.03610362429421447,"62":0.002938205974878141,"63":0.020037505008203737,"64":-0.028024365032366143,"65":-0.01473254743883284,"66":-0.08632797023479492,"67":0.0400736938907603,"68":-0.006395722893640813,"69":-0.025297914400131693,"70":-0.025361355215549428,"71":-0.002197421680943636,"72":0.02700344657155304,"73":-0.041730205304135445,"74":0.006338041299841126,"75":-0.02470524694756323,"76":0.011410487800065814,"77":-0.028136595580243947,"78":-0.004682517340717198,"79":0.0916839456571289,"80":-0.10510433674982034,"81":-0.01851434837891136,"82":-0.0204672673898255,"83":0.019823283806142348,"84":-0.010735696792808168,"85":0.018185513177027452,"86":0.012331350538417581,"87":-0.08233076228121852,"88":-0.007477094715299654,"89":0.016301506606928737,"90":0.02715350179616755,"91":0.009159218743406458,"92":-0.04016407356173856,"93":0.02960514708152041,"94":-0.03428402776829353,"95":0.000583560252472564,"96":-0.035161050200634196,"97":0.04416503718543881,"98":-0.018645151384239916,"99":0.005013185048523194,"100":0.03397494759795276,"101":-0.08310044189640045,"102":-0.048805572015278076,"103":-0.041445757428180977,"104":0.07715967690566557,"105":-0.017976090966000162,"106":0.016833385850563036,"107":-0.015696547631862255,"108":-0.09691415313400915,"109":-0.06904962531221562,"110":-0.04008289446521805,"111":0.04598535406336263,"112":-0.0026782052355483754,"113":0.06609311832317542,"114":-0.01509189293340434,"115":-0.08344235022835207,"116":-0.06672605397966351,"117":0.02622193639683885,"118":-0.027921744376437282,"119":-0.05011970292921495,"120":0.026606187401487336,"121":0.04032018009090849,"122":-0.14931229831487405,"123":-0.07228806183207291,"124":0.04663342188135909,"125":0.02544121035877455,"126":0.03433127007115756,"127":-0.017442411816408394,"128":0.01416983872299224,"129":-0.014769440143557475,"130":-0.029760953594168433,"131":-0.03561699817837662,"132":-0.027141213263031497,"133":0.0059674533659440495,"134":0.06380115362141933,"135":0.02874236640792175,"136":-0.03529250345871537,"137":-0.026315837236323626,"138":0.022267933534532575,"139":-0.011134987201868141,"140":0.04496836895925192,"141":0.0025416810598922254,"142":-0.014957154952661552,"143":-0.11986029586978908,"144":0.006225349494843176,"145":0.044592164534161434,"146":0.0005039996215092026,"147":0.01665263516385849,"148":0.0007488167579026399,"149":0.057885497787465844,"150":-0.034630328401868374,"151":-0.00713585250293298,"152":-0.0007396334385674111,"153":-0.005327244563671711,"154":-0.08166893286707838,"155":0.04005521084565784,"156":-0.018723533779724105,"157":-0.0759433477555054,"158":-0.0072342556820098325,"159":0.04150080881449487,"160":0.04154668484074355,"161":-0.0571784576551537,"162":0.004424559210645542,"163":0.06401772458295647,"164":-0.04766473633714136,"165":-0.015146212727876475,"166":-0.05430452789898114,"167":0.030086147993970098,"168":0.0032024454301393546,"169":0.041637744980330425,"170":0.06883560822207574,"171":-0.0388394055507627,"172":-0.07754006102116476,"173":-0.05712141960958906,"174":0.00017745741093928204,"175":-0.042377799557130405,"176":-0.011279001741320351,"177":0.024343421438247012,"178":-0.06149243607462866,"179":-0.06490777703408407,"180":-0.0073128721820357526,"181":-0.015262354308377909,"182":-0.030842397730723878,"183":0.0376241906904292,"184":0.023700097203238794,"185":-0.06270167491425434,"186":-0.101148799479387,"187":-0.05273471418594185,"188":-0.008212881309931783,"189":-0.022385345016400812,"190":-0.029314741287471097,"191":0.04755752000436587,"192":-0.06556550448357665,"193":-0.06917717519822457,"194":-0.043804635662500244,"195":-0.04181587621183499,"196":-0.008220366789265118,"197":-0.02968074021710614,"198":0.0038662454691950027,"199":-0.028515649399901723,"200":-0.05272400407174839,"201":-0.004054661116855979,"202":0.0174244914335905,"203":-0.038210017253290776,"204":-0.03146653098725997,"205":0.0276626936066027,"206":-0.027764719716207434,"207":-0.09961918708276146,"208":-0.021024312925892522,"209":-0.039166379351396344,"210":-0.0379905369553243,"211":0.0036164540295005694,"212":0.04646066985645987,"213":-0.06291816885109842,"214":0.011769753422165796,"215":-0.004293891202120313,"216":-0.004610358273225514,"217":-0.012451125495853801,"218":-0.01586286438650337,"219":0.03109249912877989,"220":-0.020266822094217738,"221":-0.05466989943736932,"222":-0.06019083861147321,"223":-0.016964630004635637,"224":-0.012221195961461222,"225":0.029442338280450876,"226":0.004052378256520567,"227":-0.06415019477313978,"228":-0.024564645253961032,"229":-0.04332683889554057,"230":0.044241636097722345,"231":-0.05642435648407753,"232":0.05896325945120613,"233":0.045363710719736335,"234":-0.0307348462282033,"235":0.02618410016392854,"236":-0.05893063525186367,"237":0.00324205648459494,"238":-0.0015261622240310328,"239":-0.04423895535796838,"240":0.026608456600452357,"241":-0.07066695792618297,"242":-0.031796015319244135,"243":-0.044766374644519435,"244":-0.03758992154494641,"245":-0.013944483616482385,"246":-0.06386032697836047,"247":-0.03756491021010118,"248":0.029938209948538505,"249":-0.028855039428912835,"250":-0.0015208488795528138,"251":0.040094906520072394,"252":0.04260350710570696,"253":-0.10736226886535112,"254":0.049519489261505324,"255":-0.04710156161162532,"256":-0.06623454782727196,"257":0.02042251594993908,"258":0.013298293567154324,"259":-0.003657576950949876,"260":-0.07121852472546965,"261":0.11983393400947975,"262":-0.002793645739591838,"263":-0.05374791388391458,"264":0.017447310983175823,"265":0.038010980240368045,"266":-0.03174622943470209,"267":-0.013924162820124196,"268":0.09706473015095636,"269":0.10405422843619279,"270":-0.003685297019950205,"271":-0.014142370518601715,"272":0.07244730108300163,"273":-0.0176883355459572,"274":0.014066488454400094,"275":0.1374487295383731,"276":0.1084853761408034,"277":-0.02209917125700733,"278":-0.025250943351382334,"279":-0.03626031701662073,"280":-0.022645644404854517,"281":-0.002928087839636901,"282":0.14344716854565953,"283":0.23646584522920028,"284":0.08742273749616737,"285":-0.029443072376147468,"286":-0.027068047211336908,"287":-0.07126497586119074,"288":-0.03049449359111937,"289":0.11335109626819691,"290":0.28329342493255844,"291":0.05488204091110885,"292":0.027391720356533065,"293":0.05040719971747453,"294":-0.05672071408567654,"295":-0.06147076746111429,"296":0.24965049539294384,"297":0.15073997733007816,"298":0.0037200241879550918,"299":0.06804848744269719,"300":-0.0122032051100133,"301":-0.01793436037389856,"302":0.006109249083134384,"303":0.12696548666253,"304":0.4571421924686231,"305":-0.04667320876961288,"306":0.04237469354508874,"307":-0.03383143061379915,"308":-0.06632273761657868,"309":-0.018693604633938,"310":0.22899721125557265,"311":0.3996211728983488,"312":0.11224628586322913,"313":0.047654669952936886,"314":0.03230414019202018,"315":-0.006832887896800203,"316":0.006990808825073423,"317":0.3097996114229692,"318":0.304200517653984,"319":0.17166960926827846,"320":-0.01912097675328235,"321":0.00869250307298317,"322":-0.038940005008479356,"323":-0.04686787788869332,"324":0.3224551322554797,"325":0.2633317769488993,"326":0.10605443046463756,"327":0.0028927340229115803,"328":-0.010889192210922443,"329":-0.03083096386847296,"330":0.02456255049707393,"331":0.48487459270255884,"332":-0.2452223616846943,"333":0.22487809968591696,"334":-0.05004484513771472,"335":-0.006800438534181198,"336":-0.012097593755356389,"337":-0.018586366384066782,"338":0.35460710522957817,"339":-0.2620739073332422,"340":0.05101851183968247,"341":0.005367227148075537,"342":-0.04847426370779957,"343":-0.006008511040363149,"344":0.03410110819435136,"345":0.4067169231361602,"346":-0.29611935746412665,"347":0.11200956713690437,"348":-0.02103549160027373,"349":0.0002632438623023941,"350":-0.0003210029851163593,"351":0.02834561675412778,"352":0.3056950984632507,"353":-0.3278815684226995,"354":0.22743584403306016,"355":0.03980868609849611,"356":0.033571478547629395,"357":0.018012272716310836,"358":-0.0502412229868928,"359":0.27796248468562645,"360":-0.3052813358954984,"361":0.10087329992771234,"362":0.008693132313615867,"363":-0.008429554171409741,"364":0.013753387721232054,"365":-0.024944338093112924,"366":0.33148765413189674,"367":-0.33590095124003516,"368":0.09772180217558762,"369":0.013375853430217983,"370":0.04498155772462431,"371":-0.0018238008224132247,"372":-0.017039363768663482,"373":0.30845524599078755,"374":-0.3219767574649268,"375":0.13007742456834248,"376":0.011318987392825499,"377":-0.07447202111500863,"378":-0.024194644704158316,"379":0.004219729375920784,"380":0.1944837041622369,"381":-0.312838284410407,"382":0.07002414598372877,"383":0.011841682338864365,"384":-0.0353778527823694}},{"sx":1,"sy":1,"depth":385,"w":{"0":-0.021646985624722163,"1":-0.017968811569500902,"2":0.00819986124679448,"3":-0.023319152459896946,"4":0.03641595352707661,"5":0.04581714194893554,"6":0.04800380545993986,"7":0.008699393712884381,"8":0.002248187540162484,"9":0.0045841893076743025,"10":-0.012091485296321003,"11":0.020525975009529598,"12":0.0009367016656285805,"13":0.025002680637691958,"14":0.02918822577970197,"15":0.01258512274152855,"16":0.04160448218759416,"17":0.00944856373515063,"18":-0.0002734992280587816,"19":0.030161771766007307,"20":-0.03414607268687555,"21":0.0017321182711585671,"22":0.015084105425828127,"23":0.021700743749803523,"24":0.008481864202518669,"25":0.016597777333248163,"26":-0.03801329978389285,"27":0.055889892981594774,"28":0.012165720221084537,"29":-0.001968130558659189,"30":-0.013658723693743918,"31":0.0462234543119631,"32":0.01941638398082399,"33":0.028954830256753095,"34":0.006820194617824185,"35":-0.003372846327529997,"36":0.002459002413724626,"37":0.05445371207122093,"38":-0.002462937154366047,"39":-0.006498139823129977,"40":0.00978042674720847,"41":0.05447107752301557,"42":-0.012761539906684065,"43":-0.04079866311511588,"44":0.0184916291276534,"45":0.03600070693545937,"46":0.009208408858694672,"47":0.01049026803587648,"48":0.010095716816145944,"49":-0.023612025925213404,"50":0.015851427218439535,"51":0.04359146317984081,"52":0.058907795621895104,"53":-0.013496203244235417,"54":0.0033706888373358996,"55":-0.013175191070271874,"56":0.02127493891018028,"57":-0.01198914191395571,"58":0.0011809040969228827,"59":0.022829189810713,"60":-0.01161324792366831,"61":-0.007824509653490599,"62":0.0204134845708055,"63":0.041635839700723494,"64":-0.01874639997159504,"65":0.03200382363317672,"66":-0.004732807008294213,"67":-0.030435226873080208,"68":0.04181307611476161,"69":0.004387854639174254,"70":-0.027616980642024717,"71":0.03581256347652879,"72":0.038409566522980304,"73":0.009368931618326404,"74":-0.00385294833476291,"75":0.008213214144928968,"76":0.020512125553864554,"77":-0.007991925236730979,"78":-0.015334466245569393,"79":0.032332288060542336,"80":-0.0023106029720259633,"81":-0.002100515650305946,"82":-0.005781785110519443,"83":0.050509403980056294,"84":0.006047744136452397,"85":0.01484800803241167,"86":0.02614178190939227,"87":0.04077947867577926,"88":0.023566387002992958,"89":0.02757544661057805,"90":0.011771570851336623,"91":-0.0018995033468074676,"92":-0.0031199494968069826,"93":0.025216521933935195,"94":0.019223310018279465,"95":0.00429033498855181,"96":0.03057903344541203,"97":0.037473358893886415,"98":0.0003619411823701119,"99":-0.0007108867272928555,"100":0.01155892621768967,"101":-0.02330557781068525,"102":-0.002664415455234106,"103":0.011715522986897106,"104":-0.00387611138406193,"105":0.005419452080187535,"106":0.01372073619206048,"107":0.009837330256726855,"108":-0.026716833081941057,"109":-0.022255527436538053,"110":0.014875387702492263,"111":0.006153268595512338,"112":0.029867930371830023,"113":-0.006291649628108852,"114":-0.017626028223600595,"115":0.029601356639299164,"116":0.045101149247083375,"117":0.006257808238976021,"118":0.01750474908676383,"119":-0.011792675768264479,"120":0.0025039714074721435,"121":0.005589266110737223,"122":0.00026236319973656,"123":-0.01926268929163186,"124":0.0043311152089907405,"125":0.003602768293183676,"126":0.01496707610795009,"127":0.022074887879869005,"128":0.009552693456262402,"129":-0.011953277785917288,"130":-0.012319927955405274,"131":0.013915598067292072,"132":0.02403037340570374,"133":0.027580331239059157,"134":0.026627834147912876,"135":0.03765780035831317,"136":0.022308849073948527,"137":0.028220492670937163,"138":-0.005958129568414038,"139":-0.0005365641363976166,"140":0.031028196468181023,"141":0.02227626736199377,"142":0.05358542265814961,"143":0.001183795849488488,"144":-0.007951845119509124,"145":0.0064347390085611675,"146":-0.03389185334426643,"147":-0.010320613076003479,"148":0.04582477460593791,"149":0.043712895509712586,"150":-0.01578883269119022,"151":-0.008675602101666222,"152":0.011600870963609589,"153":-0.015475692906676206,"154":0.04194231847230372,"155":-0.046715495610806186,"156":0.021886525218006523,"157":-0.0000581075620911073,"158":0.00902305546912715,"159":-0.015896049340575466,"160":0.016315203159569937,"161":0.042426663700832555,"162":0.004860202581854781,"163":0.0190358004530517,"164":0.030007260090631815,"165":0.0021937903788768125,"166":-0.023738203716633047,"167":0.01817109562057336,"168":0.005922672204918229,"169":0.03134907589181266,"170":0.011256122826393062,"171":-0.05024959703099513,"172":0.012154679181786712,"173":0.011025050986109177,"174":0.017193640207012924,"175":0.019912937270662227,"176":0.0034979843665474005,"177":-0.01718640735174123,"178":0.0018792141469443943,"179":0.012344322470577023,"180":0.025794598942446435,"181":0.0071417134895187685,"182":0.02674661388472658,"183":0.017094472521269895,"184":0.020906440725813304,"185":0.019753240178925758,"186":-0.0014759393653894079,"187":-0.006262001049372722,"188":-0.006214195150280428,"189":-0.012463550979983237,"190":0.020187547113379428,"191":0.0025540244091913317,"192":-0.003805767325160869,"193":0.029963273729460435,"194":-0.035906336130033724,"195":-0.018480413421033907,"196":-0.00369033224560947,"197":-0.00815243764149948,"198":-0.006145438013323606,"199":0.02003146583742631,"200":-0.012728175238297374,"201":0.03921950658149787,"202":0.026710560562765925,"203":0.02633059074202178,"204":-0.010316243731469036,"205":-0.006547998938449151,"206":0.0012074873216421202,"207":0.0005061593974172112,"208":0.010553829584413855,"209":-0.00441265741099493,"210":0.05192097589691208,"211":0.012222683126142709,"212":0.0025242703868547183,"213":0.000057470674344931136,"214":-0.004497311951327068,"215":-0.0019213871716225578,"216":-0.004273236683604122,"217":0.03583393074496332,"218":0.010169573659539162,"219":0.036985410845936484,"220":-0.02064250526002651,"221":-0.054535793878693804,"222":0.005962372005634183,"223":0.062544823532299,"224":-0.014057440708605696,"225":-0.010228469489313378,"226":0.03782286294786465,"227":-0.00009900227863423272,"228":0.016485248915267994,"229":-0.027864671790876653,"230":0.02672446772269946,"231":-0.007188116355131072,"232":-0.01451413542352763,"233":0.013065409210082948,"234":0.031247868841225244,"235":0.002453648295381163,"236":-0.04585083526313985,"237":0.017506526563560516,"238":0.03260377753426765,"239":-0.030488521706774446,"240":-0.012365618394967654,"241":-0.010947870311125664,"242":-0.02114553966571416,"243":-0.0460991083070233,"244":-0.011495241399432895,"245":0.009957291675607126,"246":0.013935401020408331,"247":0.005914102651563947,"248":-0.057101560209366395,"249":-0.020067318901780203,"250":0.00017884658829122536,"251":0.010043375716596746,"252":-0.0043782622076475024,"253":0.012739907817959889,"254":0.03572749562728779,"255":-0.035001568797750224,"256":-0.013274421665292026,"257":-0.012045888247976377,"258":0.014955707766625668,"259":0.02063554055493625,"260":0.024080391764964237,"261":0.005885284386211881,"262":-0.02787112029953856,"263":-0.0037530913253520657,"264":0.021448048640466993,"265":0.0016685473027944723,"266":0.027272599064060356,"267":0.022345332502132016,"268":0.04299544920530717,"269":-0.026961985840167603,"270":-0.02144809187418753,"271":-0.007813367601527737,"272":0.04084107194630936,"273":-0.0031121453748953983,"274":0.027022678304647878,"275":-0.007331815049252211,"276":-0.016114365026036095,"277":0.006237067070461854,"278":0.025731880155135653,"279":0.04104741950940618,"280":-0.01007361964455959,"281":0.039496752351446375,"282":-0.019267819404824794,"283":0.028251926235905916,"284":-0.042217021250746625,"285":0.004859679360285668,"286":0.0077524302439104294,"287":0.013084617077298888,"288":-0.007295968280086918,"289":0.018971477147504703,"290":-0.011682340712506385,"291":-0.025701675559415608,"292":-0.021472211891242467,"293":-0.004721477991382302,"294":-0.022420748253606453,"295":0.016945452196180905,"296":-0.021002635010732046,"297":-0.003356006914947397,"298":0.004265898920578938,"299":0.01282059784554696,"300":0.04403699821210963,"301":-0.0009151170670041845,"302":0.011783039917641878,"303":-0.009334512175220248,"304":0.0004007783715750394,"305":-0.029821579678206287,"306":-0.004179673620239342,"307":-0.0005023721961891888,"308":-0.010559537020389727,"309":-0.0006374012342937291,"310":-0.016068764979343106,"311":-0.02448184120496257,"312":0.020056437262920467,"313":-0.004548403477944527,"314":0.00114077057972966,"315":0.009046243432170805,"316":0.014357186489849315,"317":-0.033595904403423124,"318":-0.0036100969068143312,"319":0.017864096639506305,"320":0.00334672682279933,"321":0.043082357131350155,"322":0.050392351245744524,"323":0.05882108703380594,"324":-0.028110379458655625,"325":-0.025827112769456095,"326":-0.0047676894955925855,"327":-0.001721050687187897,"328":0.04037474462229946,"329":0.002600631051705999,"330":0.037771506144497015,"331":0.007231132912344294,"332":0.007453271458811475,"333":-0.03257870233901837,"334":-0.0011024001170053983,"335":0.003029614567534186,"336":0.027697091696628363,"337":0.010640769510563433,"338":0.005731018955812887,"339":0.02803679038412489,"340":-0.0014436476798456292,"341":0.0035891507400890137,"342":0.036023487052376395,"343":-0.024400263460836506,"344":-0.004966109022064273,"345":-0.028209723038309435,"346":0.0038672242643932155,"347":0.013361876595329766,"348":0.019243372058129257,"349":-0.04150762116992914,"350":0.0723540859435375,"351":0.021428088160447924,"352":-0.041784608588594105,"353":0.0075393158561552,"354":0.010136580843195018,"355":0.015876749316254248,"356":0.016013120666537553,"357":0.015766492102128698,"358":-0.0015134951881586069,"359":0.025310938717057592,"360":-0.04493968375633391,"361":0.029547785057188476,"362":-0.01169616386598401,"363":-0.0027728521883581816,"364":0.03370187050160244,"365":-0.0026492840994900412,"366":-0.011392526284701063,"367":-0.021951566916871095,"368":0.02241963441199387,"369":-0.022351237274969703,"370":0.008591012505137557,"371":0.0076985056077872776,"372":-0.024034849380690528,"373":-0.018540515913673793,"374":-0.017576621727882772,"375":0.057431302472421265,"376":-0.0012327653042183517,"377":0.019738897278530065,"378":0.028772859414500654,"379":-0.019771792320183383,"380":0.026738192226885144,"381":-0.016218059497082153,"382":0.04194167892371908,"383":0.011132974148217463,"384":0.006728130416137471}},{"sx":1,"sy":1,"depth":385,"w":{"0":-0.10506360952960296,"1":-0.013054297801248407,"2":-0.009879799610089739,"3":-0.007390505936500051,"4":0.08266167981331579,"5":0.0035136777656869836,"6":0.03453934599436076,"7":-0.05753702662076598,"8":-0.019947233175300116,"9":-0.010531058242315606,"10":0.021797947979718013,"11":0.09302120992507901,"12":0.019531220988208958,"13":0.04808105117867469,"14":-0.04987927158930331,"15":-0.02888288358928205,"16":-0.0577183449377847,"17":0.04328320632632486,"18":0.023301808999167693,"19":0.013807448883216179,"20":0.023531887623980022,"21":-0.05725249195373982,"22":-0.034607566802735044,"23":-0.07662676583058727,"24":-0.006610677422669268,"25":0.04812435386273847,"26":0.003879378967933385,"27":0.006360082721217922,"28":-0.005292308430957233,"29":-0.046588426464788016,"30":-0.015568280668812681,"31":-0.05907561053451637,"32":0.08299380615761864,"33":0.046991199971074156,"34":0.020596087177931998,"35":-0.008568404030292569,"36":-0.05445612508280995,"37":-0.03631179928241828,"38":-0.04702268839021461,"39":0.06803131612529802,"40":0.04716619259953264,"41":0.010593352568937849,"42":-0.03578838986799709,"43":0.01242873897590758,"44":-0.042146355721888955,"45":-0.03481500766460431,"46":0.031775771069778885,"47":0.03657313674136565,"48":0.018837008560900783,"49":-0.017180047964454985,"50":0.02326701898430101,"51":-0.019110732734252407,"52":-0.030187427354736045,"53":0.08298520886182932,"54":0.014556478583767102,"55":0.04804280899409597,"56":-0.12131194861572907,"57":-0.01610164851165673,"58":0.0027300329391748276,"59":-0.04302045681785745,"60":0.0209054192019243,"61":0.02656158460688199,"62":0.0067084702583106665,"63":-0.07610007426836926,"64":0.031238818804460618,"65":-0.08045667395427898,"66":-0.0380950239485825,"67":0.08902343751845984,"68":0.04519985709353012,"69":0.004407286186878419,"70":-0.10105116126502127,"71":0.05002819997211535,"72":-0.0036192445663978424,"73":-0.04028250160505696,"74":0.1117563812716056,"75":0.012992087783749608,"76":0.022663635602294577,"77":-0.09707219209823977,"78":-0.008610901033178823,"79":-0.04866726648377885,"80":-0.04350339617938301,"81":0.06801309283169854,"82":0.05165687828292722,"83":0.022257580984804324,"84":-0.0404197382837613,"85":-0.014226830281401901,"86":-0.06056806390181306,"87":-0.05442569883725806,"88":0.0015056407990341617,"89":0.02558422040525668,"90":0.019902929958264936,"91":-0.03574619746467713,"92":-0.03552766452962371,"93":0.004325311504167956,"94":-0.021309160127153115,"95":0.03156303290604128,"96":0.010345955485732639,"97":0.00313461273068488,"98":-0.022596530698833137,"99":-0.0027549328720242665,"100":-0.028845074908550414,"101":-0.03426464533692899,"102":0.023422710995148397,"103":0.00004391713242622921,"104":0.04210558867394862,"105":-0.022111265630039293,"106":0.0010780177042396214,"107":-0.0676925447676182,"108":-0.03869626879904331,"109":0.08314172172823267,"110":0.04016324896301822,"111":0.0005644014914479352,"112":-0.02919902164515584,"113":0.0037467015112258874,"114":-0.055971860694639344,"115":-0.0798900104188296,"116":0.10326973662283002,"117":0.027627848292383395,"118":0.046713236976929425,"119":-0.05310532054847406,"120":0.00723744912633262,"121":-0.026370756416511376,"122":-0.14524981374565385,"123":0.07763010566082489,"124":0.03183484888048627,"125":-0.00001601654993718102,"126":-0.022072816961900832,"127":0.07316219671827792,"128":-0.026748068118694086,"129":-0.06840668150294918,"130":0.10240605941017619,"131":0.03323743534324335,"132":0.00220597485147999,"133":-0.002868955787330787,"134":-0.016947523594691986,"135":0.04904210482554854,"136":-0.05626324523518191,"137":0.0725859986291707,"138":0.02680323719111951,"139":-0.007145679924080668,"140":-0.057763327919872834,"141":-0.02643783142295963,"142":-0.0148797157658412,"143":-0.025880054563964902,"144":0.09905532157805513,"145":-0.0022468765642442434,"146":0.0010192448742790533,"147":-0.036277273826912024,"148":-0.06579326912559416,"149":-0.058256438595966825,"150":0.040469402098405244,"151":0.08079467825106983,"152":0.002106529883503718,"153":0.031155655563104415,"154":-0.08769489753685338,"155":-0.08594806239400567,"156":-0.013444046923332705,"157":-0.0007303336562739004,"158":0.062111039144919035,"159":0.053983910185072446,"160":0.022867443991112468,"161":-0.01390200117929112,"162":-0.052393045316409106,"163":0.014908806824024123,"164":-0.003556610064542145,"165":0.0837368749946583,"166":-0.002645593138858566,"167":0.03822055654027743,"168":-0.0005073425820640801,"169":-0.06341178217097329,"170":0.000774239343612037,"171":0.017010066414687938,"172":0.06300905421442357,"173":0.000244782355061948,"174":-0.01064662162680264,"175":-0.020006096643797457,"176":-0.0029105476248407246,"177":0.043730262288035865,"178":-0.041251812808672614,"179":0.05048524741945829,"180":0.04804839025214384,"181":0.017500290261671658,"182":0.010551018037039414,"183":0.03932587974640129,"184":0.0218192190176973,"185":-0.005277881245923264,"186":0.10908123442855137,"187":0.027905064452702855,"188":-0.021125500179717614,"189":-0.035244934192085235,"190":0.03892798331357399,"191":0.07001286901889257,"192":-0.014081204013027721,"193":0.05387075882368724,"194":0.05770052075997771,"195":0.03607040623979848,"196":-0.004006287336884054,"197":0.037804640154936515,"198":0.08491140033889508,"199":-0.007974994449322497,"200":0.0601480093320916,"201":0.005798456561810164,"202":0.0323542934331731,"203":0.009337793249556926,"204":0.011568125066518754,"205":0.06271409533690589,"206":0.008407706127861653,"207":0.10455499852988874,"208":0.052916177583035455,"209":0.011869222292910594,"210":-0.00003108268213445227,"211":-0.021131005151060565,"212":0.09743815762492078,"213":0.037546396635813474,"214":0.08811947134656888,"215":0.005274005892508615,"216":-0.006507682205177148,"217":-0.004166832418470046,"218":0.03100760626939241,"219":0.07297135363002467,"220":0.01385709828844826,"221":0.08631424795021396,"222":0.05932629808712297,"223":0.010516558168109187,"224":0.007888496054630385,"225":-0.0177838160050293,"226":0.1002354260705596,"227":-0.0275739077130954,"228":0.12205788628979672,"229":0.02134655551983008,"230":0.03887634866580684,"231":-0.002263241776078326,"232":0.029791635321691868,"233":0.04871376351003669,"234":-0.012971716802656791,"235":0.04645431401197318,"236":0.02050096553524703,"237":0.02656720717858381,"238":0.0018996246127277986,"239":-0.0028169284862237234,"240":0.0760315540179223,"241":-0.04132231536984222,"242":0.036724120269047575,"243":0.07111108666095702,"244":-0.009345621355095035,"245":-0.04588970694008102,"246":-0.00907993306430287,"247":0.046948993997632305,"248":0.0025644842343952477,"249":0.06316391605971626,"250":0.018656124836675416,"251":0.026430743901879654,"252":-0.011653006685616533,"253":-0.02626423378265228,"254":0.004741124813130398,"255":0.04887122816414329,"256":0.06907582172969111,"257":0.03548190479703614,"258":-0.02444680909159283,"259":-0.00795821678043948,"260":-0.050831001144482094,"261":0.09755190403453112,"262":0.0613809009663889,"263":0.14981957012485278,"264":0.013832193135097755,"265":0.025242140749282667,"266":-0.05485534521693713,"267":-0.015924306429923624,"268":0.015965331185220984,"269":0.07757722505692963,"270":0.11538421872965156,"271":0.035800258226190526,"272":-0.01779913579541376,"273":-0.01169971996334006,"274":-0.03044668067777551,"275":0.049374281588465636,"276":0.07091225661978827,"277":0.08804620878057585,"278":-0.005886991313367959,"279":-0.011992562109909007,"280":-0.0252071476433478,"281":-0.03835827529371316,"282":0.044041382248595336,"283":0.021767234116521064,"284":0.10757873789350964,"285":-0.0012173436495972417,"286":0.005499475837667655,"287":-0.10484962371403217,"288":-0.006265798757724404,"289":0.03511599420601294,"290":0.003023188343862805,"291":0.08835862429926035,"292":0.02774182012750221,"293":0.012503962559340944,"294":-0.10988667855654816,"295":-0.08425259072439117,"296":0.07981796108795615,"297":0.049576543510855386,"298":0.10719009298441366,"299":-0.00709272581703585,"300":0.025063391661403325,"301":-0.09309928731509308,"302":-0.008984832485224513,"303":0.0012338934446948274,"304":0.20798889594641745,"305":0.031550471261992855,"306":0.05825944368305398,"307":0.002019022037381588,"308":-0.1275067799877244,"309":-0.05489004989758593,"310":0.039727215206829224,"311":0.17021077644783716,"312":0.12083429282156449,"313":-0.00104138542894818,"314":0.01842596449902791,"315":-0.060001656196296285,"316":-0.04696214390454199,"317":0.062757518991087,"318":0.1521458542765904,"319":0.13941355195642102,"320":0.010334352311948562,"321":0.009374353441782984,"322":-0.07442364063184066,"323":-0.036288662941512534,"324":0.05180715358375847,"325":0.15225648738674857,"326":0.1665219439727539,"327":-0.0061408857836976,"328":0.0635766971864945,"329":-0.04013161365433266,"330":-0.048374057839977586,"331":0.06514234842884994,"332":-0.04460506651427517,"333":0.14751458432539427,"334":0.018896672642938726,"335":0.02248914402664716,"336":-0.07086181259242581,"337":-0.0037143111278824196,"338":0.0582058319495299,"339":-0.04404849425247042,"340":0.08702656003337207,"341":0.056160522976977705,"342":0.02117518027234126,"343":-0.00964625251674895,"344":-0.02512686526620964,"345":0.05064420405760526,"346":-0.014275192052976409,"347":0.11565389195664356,"348":0.03963253310721255,"349":0.03292196599569113,"350":0.01830129580299971,"351":-0.059633390463453194,"352":0.08564906837652146,"353":0.06292138708295668,"354":0.05925887593166994,"355":0.045748463737621224,"356":0.0075836663261349265,"357":0.023907094326242242,"358":-0.01874138047624369,"359":0.019591637900191437,"360":0.026073125481151718,"361":0.07897136535453651,"362":0.04024997595112686,"363":0.026401157417283695,"364":-0.0021419576672285384,"365":-0.03528344301257049,"366":0.052212611798192324,"367":0.05608403221545734,"368":0.051119268876621674,"369":0.06167902607803769,"370":0.05044714818952136,"371":-0.010766588539621152,"372":-0.007587396647258439,"373":0.047307309502425385,"374":0.0731053986031498,"375":0.042082223495919495,"376":0.06821505256129805,"377":-0.015950913828132615,"378":0.017964287346323615,"379":0.040638565467883796,"380":0.08181193964556037,"381":0.0061196002389721695,"382":0.09199873175699168,"383":0.01015578458513101,"384":0.002380172185100808}},{"sx":1,"sy":1,"depth":385,"w":{"0":0.024180678877171805,"1":-0.06135317898755407,"2":-0.024830017237972225,"3":0.00521174657730164,"4":-0.1554010751432136,"5":-0.06283603145948413,"6":-0.0267188924357842,"7":0.024899195681977716,"8":-0.052804894716057454,"9":-0.040771588402425764,"10":-0.04970579879126303,"11":-0.01585886403938986,"12":0.03426868291687193,"13":-0.031121178775283465,"14":-0.06362035777914907,"15":-0.03050007277370143,"16":0.03888477243340093,"17":0.05936163672706161,"18":0.04097313400787913,"19":0.07491512532250205,"20":0.025241667907900577,"21":-0.029581982015466208,"22":-0.030382496130149223,"23":-0.03659184242645523,"24":0.04447458866956376,"25":-0.0594723224272996,"26":0.07206173326821828,"27":0.010530379725259166,"28":-0.04471099031489639,"29":-0.07401479566941625,"30":-0.04318191309607221,"31":-0.041530013021911054,"32":-0.0634349816804931,"33":0.016480773316827794,"34":0.04985867782842234,"35":-0.0556203651776987,"36":-0.0697781786822307,"37":-0.07245942947044412,"38":-0.028700326307274666,"39":-0.10241603647907287,"40":0.011372447130184746,"41":0.0029286262110091526,"42":-0.05309147905792703,"43":-0.07642064589654744,"44":-0.06721867198459525,"45":-0.08259006208980232,"46":0.009359450645053394,"47":0.018352056251678794,"48":-0.017499157404289516,"49":0.027028128685060552,"50":0.04299012869790561,"51":0.02466376822290593,"52":-0.05329355953088654,"53":-0.10962465684146587,"54":0.020070677817242248,"55":-0.04318886596376783,"56":-0.03957378066106676,"57":-0.06650936981211036,"58":-0.05846362512831678,"59":-0.016172382888892334,"60":-0.03558572223663581,"61":-0.029028781408507384,"62":0.02930606895646579,"63":0.017437433426854245,"64":-0.015026195682009368,"65":-0.04572315280460322,"66":0.007319901365981279,"67":-0.05629771324718818,"68":0.019015946370456668,"69":0.029734324555271714,"70":-0.002854473761784186,"71":-0.028173467707025033,"72":0.046151243173271496,"73":0.045320218610321525,"74":-0.06416149230050318,"75":0.06698545032541056,"76":-0.04398817980714736,"77":-0.09552018886362923,"78":-0.025570004009459774,"79":0.0742407987777845,"80":0.02800207470796051,"81":-0.007332924489310011,"82":-0.024056626663368424,"83":0.02783094216399468,"84":-0.0908421103771394,"85":-0.0008162802215475908,"86":-0.05657861147073303,"87":-0.08586042176536954,"88":-0.07563831989759338,"89":0.07173291719004668,"90":-0.007813901548178516,"91":0.02436018127702666,"92":0.0071075216578792245,"93":-0.05515454569577969,"94":-0.0552275571946332,"95":-0.19392730865650717,"96":-0.03169878680366567,"97":-0.04897971751234097,"98":-0.008306841992068811,"99":0.054949470737073895,"100":-0.020550595246395277,"101":0.003046612317573399,"102":-0.11923664822716329,"103":0.07105491877524225,"104":-0.010124441322929247,"105":0.03204243339432924,"106":-0.014617484088268006,"107":-0.06644917280388192,"108":-0.059500724844630336,"109":-0.047851557032691804,"110":0.011580059755042999,"111":-0.0021028804602174975,"112":0.0014798836189547507,"113":-0.01735018699102312,"114":-0.043161253948779614,"115":-0.0748973505870037,"116":-0.08942868140032091,"117":0.03571843003328318,"118":-0.06942166924907954,"119":0.028931502231818156,"120":-0.05521489638138169,"121":-0.019122561050831408,"122":-0.06095179319041678,"123":-0.05863293365386403,"124":0.019367507346783476,"125":-0.00022968457179134012,"126":-0.017503644320380637,"127":-0.011537281373179114,"128":0.007113438920511189,"129":-0.07358834285469364,"130":-0.08737732599264687,"131":0.0355701633121549,"132":-0.017549893392514768,"133":-0.015213929244654359,"134":-0.0023683446091785866,"135":0.033434955762736654,"136":-0.05410148450066514,"137":-0.05865738779360785,"138":-0.000021807640247506057,"139":0.022123957143882187,"140":-0.03948308465474783,"141":-0.024383144393241563,"142":-0.015530688256947124,"143":-0.13842572389066707,"144":-0.1189135158855049,"145":0.019577454905188165,"146":-0.02455843802087437,"147":0.005635916318317203,"148":-0.007759373838674994,"149":0.03722831614820524,"150":-0.035012354441902385,"151":-0.08325263247198057,"152":0.06100331843011962,"153":-0.005410835947610069,"154":-0.05254346337123788,"155":-0.044795795788380985,"156":-0.010766146711577777,"157":-0.07705052488640145,"158":0.01365295577770629,"159":0.05191828316838285,"160":0.006521973705253825,"161":-0.00494626933640173,"162":-0.011169882824146873,"163":0.01273180471215106,"164":-0.013212546979488217,"165":-0.047479659074219104,"166":0.006078617100756273,"167":0.019294363468431577,"168":0.021814548375827126,"169":-0.09613274863655902,"170":-0.05615079176874433,"171":-0.1199585708486193,"172":-0.03973762094287695,"173":0.017181427436563347,"174":0.01422879140177155,"175":0.033751363135978533,"176":-0.06217859792210758,"177":-0.014929378412907689,"178":-0.06419709919123218,"179":-0.05935725469025875,"180":-0.009088498155049217,"181":0.012017408128959673,"182":0.03471931856668799,"183":-0.02498138976496765,"184":-0.06992049647768017,"185":-0.13845920017218044,"186":-0.06553061033530161,"187":0.01827179588742814,"188":0.017327172901701108,"189":0.025431156836978733,"190":-0.017815247959606734,"191":0.030647966234174203,"192":-0.08088197205653967,"193":-0.0981052811900713,"194":0.06840585020206717,"195":0.010705488452919161,"196":-0.0028938159705207,"197":-0.06723761856797161,"198":-0.030538154908041563,"199":-0.09841812819897813,"200":-0.07038811766862263,"201":0.058024697450266914,"202":-0.026524141030937753,"203":-0.013135199433162204,"204":-0.045916088193792656,"205":-0.04841911027570714,"206":0.012603271226701131,"207":-0.0056583616171324855,"208":0.016550749013624907,"209":0.026714736056436653,"210":0.026376486806720844,"211":-0.017780224409137874,"212":-0.05809241367720355,"213":0.029486550578860432,"214":0.005926965736046064,"215":0.06995648103213561,"216":0.059462703664854184,"217":0.013541583453746429,"218":0.012518681693738539,"219":-0.056433400596324006,"220":-0.07450359540868166,"221":-0.04513180804230104,"222":0.09016948637018123,"223":-0.006600950663987279,"224":0.028835294644650927,"225":0.009279442489315186,"226":-0.05441363540308045,"227":-0.027892309890809527,"228":0.01871100432209357,"229":0.08209757164657956,"230":-0.021401588560179704,"231":-0.022928192797913027,"232":-0.022187245011974818,"233":0.07724964685597602,"234":-0.07109803808078274,"235":-0.03753560190397349,"236":0.06075225737604255,"237":-0.05083840190124672,"238":-0.019962559984896322,"239":-0.04732998705015854,"240":0.06484991339527728,"241":-0.053805597520866826,"242":-0.03623411638767153,"243":0.09400885950010862,"244":0.06475326779378415,"245":-0.0204669002059212,"246":-0.014454063403060104,"247":0.005019846600107504,"248":0.005716101155541723,"249":0.014240923868788363,"250":0.056289365320810525,"251":0.03237040529168254,"252":-0.051053210814406835,"253":-0.022146948800175984,"254":0.03583276981989301,"255":0.09416898628062959,"256":-0.08060707884854461,"257":0.07235578920992645,"258":0.010841675438226225,"259":0.0002022911622551188,"260":0.03923467114269533,"261":-0.0605660329648863,"262":-0.011395971827139329,"263":-0.01797862229216254,"264":0.03224841764828304,"265":0.04088511016999342,"266":0.017678827199871124,"267":-0.08552328471043573,"268":-0.010854239756387156,"269":0.018680635486480367,"270":-0.02882051025430197,"271":0.0744998385769192,"272":-0.016427293149079137,"273":0.008876116737542161,"274":-0.001480706937178244,"275":0.03278265246513291,"276":-0.006770893348760673,"277":0.11411515680314908,"278":0.048658210411567884,"279":0.06015390684593632,"280":-0.030563445236737395,"281":0.026985290398472958,"282":0.05241131074019257,"283":-0.039257870666452956,"284":0.052091780472475986,"285":0.024581295468983296,"286":-0.001738715899265059,"287":-0.051400231944927204,"288":0.03169741064702985,"289":0.08035280865416894,"290":-0.012933424358938093,"291":0.013241312502966196,"292":0.0015082496946878705,"293":-0.022130029719027684,"294":-0.018642258390027016,"295":-0.004399805335717867,"296":0.0919863192381231,"297":0.10856534388356573,"298":0.0707344508173361,"299":0.036280161128209296,"300":-0.01694561039166313,"301":-0.02381938867699644,"302":-0.08634455722709658,"303":-0.011453383405867762,"304":0.1299616106853111,"305":0.20681710133625822,"306":0.09912397326893636,"307":0.08035410555459888,"308":0.0066257626105657485,"309":-0.010765304462000136,"310":0.08153236225142234,"311":0.08047633276629403,"312":0.08403331420710602,"313":0.046627130002309405,"314":-0.029676257722551808,"315":-0.013891854235895743,"316":-0.03589199743463616,"317":-0.008963096371118133,"318":0.17464747861203242,"319":0.13018693308930424,"320":0.05774762453691205,"321":0.06954947639812471,"322":-0.05304517557177135,"323":-0.04973693533572992,"324":0.09394554587083384,"325":0.06646759433476204,"326":0.09462928975195854,"327":0.09254906911749382,"328":-0.015011207121485279,"329":-0.03901721294429538,"330":-0.023724453506573047,"331":0.1428276721329838,"332":0.2399891020306063,"333":0.13655809305394814,"334":0.08220737828761633,"335":0.0005996516197750869,"336":-0.015334402817463417,"337":0.0015583981137470377,"338":0.1318222989196468,"339":0.30054710332572504,"340":0.1877608136250096,"341":0.03447212817801438,"342":0.018174394823026054,"343":0.016816993298669994,"344":-0.10738351410004372,"345":0.08974871840047854,"346":0.403337724585937,"347":0.2128541025142029,"348":0.0756873200705191,"349":0.0625803204506681,"350":-0.039599374865722674,"351":0.021260556355253743,"352":0.10847663715387731,"353":2.2681519005114965,"354":0.0829340256516852,"355":-0.0029611724822672146,"356":0.04703399306582619,"357":-0.03515900446040996,"358":-0.005923501281012928,"359":0.04622923660757806,"360":2.3034754580730867,"361":0.08969267545356706,"362":0.04334416412517967,"363":-0.00022524461245687876,"364":-0.06142024771439411,"365":-0.0006015129172574897,"366":0.021784759512263857,"367":2.308225018464112,"368":0.05810462569684073,"369":0.07011805171577101,"370":0.10010782469241354,"371":-0.09088110127499632,"372":-0.04957969988078884,"373":0.03846160067657007,"374":2.259900671868432,"375":0.09377794708582056,"376":0.05614849067856897,"377":0.03471210908922034,"378":-0.10611624541064937,"379":-0.06373442922463853,"380":0.08138019856656455,"381":1.0124515230172624,"382":0.09018299729354826,"383":0.09513152506636977,"384":0.007098044310291419}},{"sx":1,"sy":1,"depth":385,"w":{"0":-0.023703098981505136,"1":0.010182393134940938,"2":0.021374383397894443,"3":0.03712679989168762,"4":0.005708929552867363,"5":0.01951044071959686,"6":0.0012753610429796038,"7":0.002781187026983149,"8":-0.0075679335755709665,"9":0.02160817149265771,"10":0.013949847796023197,"11":0.01853652348397775,"12":0.04237738921421777,"13":0.00458983688636742,"14":0.011874088312671323,"15":0.0010910564325891249,"16":0.012672918337502573,"17":0.02644443945610488,"18":0.019830560838873384,"19":-0.021730354347200446,"20":-0.024898577286726918,"21":0.01641587807276478,"22":0.023626911155652183,"23":0.016169542947481533,"24":-0.02031165828801949,"25":-0.009994396331602796,"26":0.037116744948165546,"27":0.019699010123952688,"28":0.014131139238215257,"29":0.004714104974468762,"30":-0.014670156369751908,"31":-0.038729562565709114,"32":0.043668573373910904,"33":0.009421596899557357,"34":0.01534411746635032,"35":0.02766975961795058,"36":0.016910551536242945,"37":-0.014583978192701826,"38":0.005353951626673192,"39":-0.04058139045112632,"40":0.029799284641908116,"41":0.0035416330925057585,"42":-0.0010087057421249656,"43":-0.019797066797966376,"44":-0.00039231825953390707,"45":-0.01137365523310694,"46":0.0011724553825385555,"47":-0.006720509921965341,"48":-0.025011407274466137,"49":0.03559474100531268,"50":-0.03495714683658812,"51":-0.012907566922721887,"52":0.009633493368271984,"53":-0.02102355995634483,"54":0.015901614447949877,"55":-0.0011943386644569605,"56":0.019689436950723643,"57":-0.03792538448030868,"58":0.0008674309185110711,"59":0.0560062627989653,"60":0.01709883984740834,"61":-0.026787696224725144,"62":0.038606589735789336,"63":0.021388381151721186,"64":0.017847166297796025,"65":0.026600119134645304,"66":0.007018344221840924,"67":0.001824570118312988,"68":-0.022763444711092467,"69":-0.035373753941085405,"70":0.00495500922596866,"71":0.00120427728226285,"72":0.04211185402593547,"73":-0.013430293416125299,"74":-0.026541874366255172,"75":-0.0023451151061831647,"76":0.008328782974087798,"77":-0.026725442717747943,"78":0.03285232755270782,"79":-0.017664263299998054,"80":-0.01745552826115348,"81":-0.05105582293281689,"82":-0.0018449998974106744,"83":0.03101420729973071,"84":0.038481692798430944,"85":-0.027745889946006897,"86":0.012715027735165934,"87":0.060754778142413264,"88":0.02926888364716514,"89":-0.009984556655408495,"90":0.0036781578588657043,"91":0.04166070422845393,"92":0.0005246214627418619,"93":-0.007949386760889719,"94":0.02700774248727912,"95":0.0201929963148193,"96":0.023695386005363365,"97":-0.0031064982293883495,"98":0.01079904554880172,"99":0.0004621475344500887,"100":-0.01615684131292698,"101":0.006752121727813631,"102":-0.013077017596351973,"103":-0.009773467209851325,"104":0.051191146427904434,"105":0.02036705590890469,"106":-0.018368806470730647,"107":-0.00849013346150746,"108":0.004609401373965095,"109":-0.014955186999000421,"110":0.02319778297753811,"111":0.028706174414499318,"112":0.02256229228658285,"113":0.015841315238583228,"114":-0.015565607918945207,"115":0.011689094821480783,"116":-0.05018853112223983,"117":0.02610579327438301,"118":0.036450195115992484,"119":0.03127235137873308,"120":-0.003123091079160785,"121":0.035079132833834216,"122":0.027631784262989866,"123":-0.01496678402507225,"124":-0.011492681067235659,"125":0.010246505302777034,"126":-0.007316781806255417,"127":-0.0118334578780857,"128":0.011883190437089132,"129":0.023273550720134723,"130":-0.03664914414448051,"131":-0.012039544354274014,"132":-0.002840141957610765,"133":-0.001872530318730555,"134":-0.0040812957966803644,"135":0.0001995103133449246,"136":0.02637627429850873,"137":0.006127391218890362,"138":0.014226789160269872,"139":0.027157637306913115,"140":-0.008470802089581517,"141":0.010310032452942536,"142":0.018388013613963392,"143":0.012519129159149735,"144":0.023837605146935364,"145":0.010476548430772729,"146":0.008660293807663118,"147":-0.004473000670899962,"148":0.026552884069174616,"149":0.006076814346397512,"150":-0.025393090745317586,"151":0.0014978754230223876,"152":-0.030292665598094404,"153":0.028100477091036066,"154":0.03205419681144792,"155":-0.007763612075174217,"156":0.02022622154097182,"157":-0.01947417738296755,"158":-0.0008141160428656735,"159":0.010105873476630434,"160":0.021321710209552997,"161":0.008281997581059991,"162":0.014014652493548264,"163":0.01950735668119296,"164":0.00022486275561272678,"165":-0.0016932434782893668,"166":0.027161734683158092,"167":0.012774971630550271,"168":0.014915704614369809,"169":0.03615649527520584,"170":0.008062928535867504,"171":0.029684921634693762,"172":0.011100269627293262,"173":0.005752424768701682,"174":0.01345678539747963,"175":0.03214231015299418,"176":0.0012297311015644545,"177":0.02960501431572788,"178":-0.00032967288294610066,"179":0.01943530657505933,"180":0.011968398526063061,"181":0.005255735529595024,"182":0.01763986198186284,"183":0.006425222527308526,"184":0.015981622759533253,"185":-0.022894768587366988,"186":0.014057423420169714,"187":-0.0008827192685777564,"188":0.02572470115500465,"189":0.01422551265463327,"190":0.022786901480415067,"191":-0.013580566055608402,"192":0.025191204802481923,"193":0.029710846583579628,"194":-0.032595481647134876,"195":-0.004698446689912449,"196":0.025617256970355714,"197":-0.015541740274985139,"198":-0.010816807683101375,"199":-0.0023868727496625013,"200":-0.014980287267518651,"201":-0.019233753532678338,"202":0.015760650265297663,"203":-0.009332744976291796,"204":-0.010054402844731053,"205":-0.003978172901263331,"206":-0.0037626065857463728,"207":-0.053053321113472836,"208":0.02263535410748664,"209":0.005790044661469442,"210":0.011696133984793244,"211":0.008012472321999775,"212":0.008972592903304686,"213":0.013293303685678999,"214":-0.028195277844113926,"215":-0.04268926863341078,"216":0.0015077368654680297,"217":-0.006276531137195038,"218":-0.03579994051263343,"219":0.042495429298457996,"220":-0.035535955613482086,"221":-0.03523335185686711,"222":-0.007106588618982415,"223":-0.03710689011469973,"224":0.00009795728412767352,"225":0.010371052778201266,"226":-0.010922590653563638,"227":-0.009597322791148106,"228":-0.038205727665974555,"229":-0.03227927408149176,"230":0.010400753538675088,"231":-0.0007116278087256106,"232":-0.0027807075187796975,"233":0.01893817496369081,"234":0.01590743440566805,"235":-0.016225357211500473,"236":-0.01061193683811577,"237":0.04812308193562595,"238":-0.0018260613006903783,"239":-0.010425582467827404,"240":-0.022755089983949327,"241":-0.004134570065591482,"242":0.013425499405531805,"243":-0.022893272131514514,"244":0.012433057291641108,"245":0.03718095788044545,"246":0.029298553860647784,"247":-0.005199411277452057,"248":-0.03977958302856338,"249":-0.03749783150273255,"250":-0.0037666420271054773,"251":0.006613740842667392,"252":-0.020621555956884238,"253":-0.01781568429016064,"254":-0.007875254340454767,"255":0.013146107772156856,"256":-0.02587054525152012,"257":-0.022450367577554156,"258":-0.006611442330336562,"259":0.03234052327529582,"260":-0.011186604626164718,"261":-0.03986576885074601,"262":0.01359438668995295,"263":-0.006055616141957453,"264":-0.0041545124368317435,"265":-0.017743419396978873,"266":0.01993321036535337,"267":-0.02001649532245234,"268":-0.011000885928851612,"269":-0.025432025441782097,"270":-0.031123373537852796,"271":0.006430631460311897,"272":0.04172128428680744,"273":0.015381312316633467,"274":0.02314005078050279,"275":0.008999291024632854,"276":-0.000955583410133668,"277":-0.046563988349205006,"278":0.011070834976060392,"279":0.010969698920552672,"280":0.03555199310292316,"281":-0.014610949493963356,"282":-0.027872369555759082,"283":0.017218353368742056,"284":-0.012262961317042055,"285":0.018732552037118745,"286":-0.0027720535872803624,"287":-0.003910606102570238,"288":0.04075664230436528,"289":0.035654909429559845,"290":-0.0419170526218543,"291":-0.018616156445974773,"292":-0.0023100218880217644,"293":0.0057639714012494275,"294":0.025508244579959413,"295":0.01818503544011776,"296":-0.02989233604135856,"297":-0.0031489535108371403,"298":-0.013615146177917665,"299":0.00020817570078594105,"300":0.01912708278809176,"301":0.0013411696060522023,"302":-0.035787262993476,"303":-0.02848567924085779,"304":-0.03884815787024529,"305":-0.025712196337305857,"306":-0.01702322916443123,"307":0.01739974368385195,"308":0.015474105419487582,"309":-0.011476287580255802,"310":-0.008660439255776886,"311":-0.0318051090534364,"312":0.016716343299666835,"313":0.02510415937284836,"314":-0.019326884737110733,"315":0.006203399797929418,"316":0.004626278239647487,"317":-0.02768658930793168,"318":-0.023037940107115,"319":0.0007586696087056885,"320":-0.0006285614672710034,"321":-0.0004953275220559953,"322":-0.0009671366664868295,"323":0.01204732019158889,"324":-0.031371778724123216,"325":-0.01898000683619652,"326":0.009613167102981667,"327":0.028701165794882483,"328":0.012953425546421113,"329":-0.00045313465326792684,"330":0.013186245568450668,"331":-0.00935780514129424,"332":0.026780940588235873,"333":-0.02340237317463835,"334":-0.018604018265737928,"335":0.012019643784876811,"336":-0.007449884653277821,"337":0.02477051804552766,"338":-0.03198797391868026,"339":0.0052841037854632214,"340":0.006855205085571992,"341":-0.018917575689325734,"342":0.01857045961210999,"343":0.03239783149326316,"344":0.003703255998731758,"345":-0.01334718571528716,"346":-0.0010599107092587922,"347":-0.022849577217303067,"348":0.038509578552769,"349":0.0008781202604798141,"350":-0.0184353094133419,"351":0.002996176778498897,"352":-0.044629097814491335,"353":-0.022143539900117904,"354":0.008051227236546915,"355":-0.005919457922303488,"356":-0.004187233590786847,"357":-0.013909542551578552,"358":-0.02462445796684065,"359":-0.005775252955993056,"360":-0.06819558558177133,"361":0.005216577501040645,"362":-0.02971169204754424,"363":-0.016313539489715697,"364":0.004179996161322966,"365":-0.000050870327235177424,"366":0.00929646734297296,"367":-0.06221790614186411,"368":0.0068097269041758595,"369":0.0011567894739264732,"370":0.015946184995024943,"371":0.035976023968498534,"372":-0.05629085707597425,"373":-0.01750417046467257,"374":-0.02666377274499396,"375":0.02828878339307325,"376":-0.04193987986840759,"377":-0.005317492830384117,"378":-0.0023266416337081623,"379":-0.0018791239988209052,"380":-0.005342535060022622,"381":-0.02334484533222866,"382":0.028995710051395233,"383":0.004750275412309972,"384":0.007661364152255139}},{"sx":1,"sy":1,"depth":385,"w":{"0":-0.0766344504374984,"1":-0.1318606062580734,"2":-0.0443437951403941,"3":-0.018602432841703275,"4":0.0074713124851562935,"5":-0.05276636498891445,"6":0.04040286866852347,"7":-0.08579826462146828,"8":-0.11344771457608543,"9":-0.047256429238886774,"10":-0.03919159704175483,"11":0.03125979209842274,"12":0.01122560081987765,"13":-0.02583859161417594,"14":-0.08512830882185894,"15":-0.16874676872490701,"16":-0.032312700097286935,"17":-0.03798655529440923,"18":-0.06255344585750458,"19":0.017455112148496574,"20":0.06174077652647685,"21":-0.10148067060048889,"22":-0.08441648462382415,"23":-0.02833454340200294,"24":-0.01884527199531338,"25":-0.023306657968086078,"26":0.05103354136015921,"27":-0.0072664323682076525,"28":-0.1335609155009507,"29":-0.12466958439429517,"30":-0.010499378240096736,"31":0.17716701197575596,"32":0.04010968650155784,"33":0.06396364359235958,"34":0.003977033421288935,"35":-0.08548573365075661,"36":-0.15368693919866924,"37":-0.050862418689588636,"38":0.16683276361510904,"39":0.011753439016839715,"40":-0.011422799010158842,"41":-0.001357660793749952,"42":-0.029093763937462963,"43":-0.12524775697054552,"44":-0.05961295816607603,"45":0.06787261021410335,"46":0.004148696132700013,"47":0.027138017012098104,"48":-0.03362891130193911,"49":-0.11624233432552494,"50":-0.1678072793359531,"51":-0.08733076498777416,"52":0.09514971448768411,"53":-0.0013331232518013804,"54":0.03706763470455289,"55":-0.032768140090771614,"56":-0.03628806463639421,"57":-0.08044537720943547,"58":0.020954431750740164,"59":0.0034560087087165087,"60":0.03151953709873231,"61":0.04531236082595104,"62":-0.009790615811898124,"63":-0.13121617508184194,"64":-0.09351076444018759,"65":0.06315419531751301,"66":0.05313699920785172,"67":-0.001200226161224884,"68":0.01586455106900963,"69":-0.024018752801453606,"70":-0.11279705043075246,"71":-0.15638472766042658,"72":-0.010154504661754816,"73":0.08015586736293351,"74":0.008995010824628622,"75":0.012196175121124277,"76":0.019947090313410167,"77":-0.07877113542749199,"78":-0.11240407112509448,"79":0.018851007721346864,"80":0.1475175210982396,"81":-0.014158456328654584,"82":-0.019379124200754674,"83":0.012357801238760626,"84":0.0024936584448279247,"85":-0.17472763972629554,"86":-0.034810536863538015,"87":0.12503898147453557,"88":-0.019796615987791172,"89":0.009505960595304829,"90":-0.03860906778834836,"91":-0.08008080134318783,"92":-0.11024505028667517,"93":0.007907721653777596,"94":0.0756368097651657,"95":0.012015112257981088,"96":0.007188516576345466,"97":-0.0035665241742985675,"98":-0.05520064114864046,"99":-0.08717358553229725,"100":0.00043005072425264166,"101":0.06366259150569135,"102":0.04547986921089033,"103":0.0028117615223559496,"104":-0.02850496829275126,"105":-0.09547480989631987,"106":-0.11209123185426645,"107":-0.021076918724665245,"108":0.15530447540534797,"109":0.0664379225145085,"110":0.0483598715930102,"111":-0.0146420179095426,"112":-0.14578233944949637,"113":-0.045538048065951665,"114":0.01013262966602053,"115":0.16380286946469796,"116":0.08450077473437671,"117":0.0022354044182751687,"118":-0.03607853845961836,"119":-0.05644367178533543,"120":-0.08074675068334894,"121":-0.024542159933209663,"122":0.11070877202566232,"123":0.09431662776970653,"124":0.019267965574477925,"125":0.009260334776957103,"126":-0.08844707796471551,"127":-0.0838160580708289,"128":-0.04698914060094707,"129":0.053769552449619964,"130":0.02708421325490457,"131":0.003569415047277778,"132":0.0013439908396039224,"133":-0.032392354645131655,"134":-0.12874913164807503,"135":-0.05121877414488291,"136":0.13501979363315111,"137":0.05932686965125074,"138":0.014668293471917997,"139":-0.01379157667635177,"140":-0.035878162780214315,"141":-0.12767829267927322,"142":-0.015321064035643059,"143":0.07350049695621348,"144":0.11925365183624631,"145":0.02457579457556893,"146":0.018507477820435853,"147":-0.0939658959578758,"148":-0.14893827457759662,"149":-0.04253634068707541,"150":0.06654903026712701,"151":0.10874196021155101,"152":-0.021575585385163264,"153":-0.04930347850457955,"154":-0.039017474848653096,"155":-0.10289553362160112,"156":-0.027985823654367154,"157":0.14750993173643542,"158":0.0373515274192394,"159":0.007706469098938546,"160":-0.016423304091641003,"161":-0.024545617226730397,"162":-0.07776867168700223,"163":0.04590740584264144,"164":0.06090555316533927,"165":0.03416868868594616,"166":0.004239895318254067,"167":-0.028386168237928104,"168":-0.08703717425870212,"169":-0.0888138680907569,"170":0.0034717841885649504,"171":0.0767688206495955,"172":-0.024225813722111997,"173":0.0280063961238081,"174":-0.011555073804921488,"175":0.07101851392337538,"176":-0.07233232164725147,"177":0.02952127870686937,"178":0.10441885001256027,"179":0.0131811443839766,"180":0.024018186614140416,"181":0.0012024486753739604,"182":0.022352701560169053,"183":-0.0974992274828489,"184":0.026105504488384706,"185":0.06248367279355229,"186":0.025974179133037033,"187":0.046538209039483344,"188":-0.03742325488581772,"189":-0.025289162023993183,"190":-0.04125126439534404,"191":0.015093788270031605,"192":0.13274204224877847,"193":0.0425823320140161,"194":0.005315961046377587,"195":0.04888292021020732,"196":0.02517508091055535,"197":-0.08948136770907521,"198":0.04198288565501996,"199":0.08041895446576833,"200":0.06499290522035779,"201":-0.005734158442672336,"202":-0.029460345176165456,"203":-0.002254657382583354,"204":-0.09891392746691643,"205":0.030075484177049323,"206":0.219617144227809,"207":0.02309955279540606,"208":0.020222702073584706,"209":0.0068876423062660735,"210":0.008974122403022635,"211":-0.016075593016861175,"212":0.003770426969547919,"213":0.1594489033475541,"214":0.032558419664451596,"215":0.00979013514880477,"216":0.007281721579687059,"217":0.006344070419030642,"218":-0.045494747534347624,"219":0.08376636563655522,"220":0.08376391434794914,"221":0.00741137597673102,"222":-0.0016464975426693424,"223":-0.05598945491775921,"224":0.026310003779095013,"225":-0.08454558257839402,"226":0.011301855019437665,"227":0.1863371215336292,"228":0.014553897864142821,"229":-0.015140938548832137,"230":-0.043638454104187534,"231":-0.04126847446343621,"232":-0.08286622891226442,"233":-0.006581457341275047,"234":0.14623383148887367,"235":0.0581206716126919,"236":0.04272537399036752,"237":0.014614868482863566,"238":-0.03269254392218135,"239":-0.0692693308613001,"240":0.017059737720241053,"241":0.1307220883843858,"242":0.13742868600233973,"243":-0.026520639429446286,"244":-0.05317540415061221,"245":-0.012892218116338137,"246":-0.11717302672696395,"247":0.03351862562188222,"248":0.1786693143192825,"249":0.09993012757802378,"250":0.008515101484468962,"251":-0.040713281810508206,"252":-0.06734348183376526,"253":-0.05875675372982719,"254":0.026377692992391576,"255":0.08279945228984016,"256":0.14455844207802898,"257":0.009563763854957174,"258":0.004611440587254806,"259":-0.049066265702812584,"260":-0.011644732637428788,"261":0.0261557155551017,"262":0.08487734493972204,"263":0.0903350197244743,"264":-0.005414202159025212,"265":-0.05566576982273265,"266":-0.04517597297560554,"267":-0.05657614320175351,"268":0.01467078732048623,"269":0.06513158939737765,"270":-0.004430569541183026,"271":0.010239476883106035,"272":0.003562329050549356,"273":0.011720856879300912,"274":-0.009883342309723259,"275":-0.07096854760939307,"276":0.10110005652579727,"277":0.02498901474413397,"278":-0.008354097038042808,"279":-0.037313123821374916,"280":-0.03281871154995507,"281":0.003701914889911857,"282":-0.028801527079694196,"283":0.11152238318674242,"284":0.012713950644660235,"285":0.01399405666636159,"286":-0.02643349562053194,"287":-0.07255231989662554,"288":-0.13487373159957855,"289":-0.036835661923044334,"290":0.030984178470416193,"291":0.04421117632380969,"292":-0.055019264722586614,"293":-0.045793031848007294,"294":-0.1141494603727332,"295":-0.10548294625640706,"296":-0.04886860048466351,"297":-0.04884680435568569,"298":0.059295586878107424,"299":-0.022229738732238935,"300":-0.015155521603062867,"301":-0.08108864462221466,"302":-0.08457707298864474,"303":0.021421129123125004,"304":0.008760442412980126,"305":0.017563356121887055,"306":0.029397548282268017,"307":-0.04455413897658245,"308":-0.04599708041276183,"309":-0.055201750370260746,"310":-0.04850118301685598,"311":-0.025275277770750313,"312":0.037238934772984775,"313":0.01865383445832324,"314":0.02731341210269412,"315":0.075395222286733,"316":-0.011771638959373316,"317":0.04910456552753902,"318":-0.0656697292471966,"319":0.036074455801750296,"320":0.03451047013301683,"321":-0.008583018103808621,"322":0.028225393068732275,"323":-0.0015785868409942214,"324":0.03427586020509681,"325":-0.11629291765336909,"326":0.05522143424856687,"327":0.06167713352531427,"328":0.01967186298289535,"329":-0.027191873527298245,"330":-0.06442425238163299,"331":-0.031958354838228155,"332":-0.25979361816155966,"333":0.06598338892799234,"334":0.02953665840458639,"335":0.0037723516245407227,"336":0.04040974494728967,"337":-0.0696900004995961,"338":0.007473353957436273,"339":-0.25920797171268267,"340":0.018606990307713085,"341":-0.01925261932707372,"342":0.029935911811643012,"343":0.027605840815414503,"344":0.023623325750632886,"345":0.04068466560363409,"346":-0.29367259703071436,"347":-0.05813329787283405,"348":-0.0030131074050893662,"349":-0.01130343958189356,"350":0.054968040980004934,"351":0.037693384131179807,"352":-0.028669319241962227,"353":-0.6799105115672898,"354":-0.10636183380460269,"355":-0.005731462109742719,"356":0.00017711526083622484,"357":0.11570696196962642,"358":0.06424958963236081,"359":0.008109793645678924,"360":-0.6946461390699549,"361":-0.04206860865972442,"362":-0.024745410537068906,"363":0.01415440871014263,"364":0.05035415745512688,"365":0.012296675705849462,"366":0.002718046386726872,"367":-0.6239771289312437,"368":-0.025219729880717162,"369":0.0023221125010052432,"370":0.03307318637318013,"371":-0.020111498182104347,"372":-0.02188662224826827,"373":-0.10650193337685028,"374":-0.6364739005182424,"375":-0.03290253439001672,"376":0.021195235352721335,"377":0.0052377218709841284,"378":0.058457631282945816,"379":-0.05361109786078016,"380":-0.027117886875911462,"381":-0.771842206030873,"382":-0.09280208521079504,"383":-0.0169019892334514,"384":0.012385612875854527}},{"sx":1,"sy":1,"depth":385,"w":{"0":-0.06328515889389638,"1":-0.07646891887004735,"2":-0.07724564959866687,"3":0.059725544448709575,"4":-0.06275414077786352,"5":0.09664736549213504,"6":0.15990188570083702,"7":-0.06397105127875533,"8":0.08204993942814935,"9":0.053679923872079455,"10":0.020085527022298308,"11":-0.10146216516408839,"12":0.0016692756494741032,"13":0.12227286020041958,"14":-0.050387116029620795,"15":0.001966178046081948,"16":0.024140559365631455,"17":-0.1057403086348366,"18":-0.019858202564447897,"19":-0.0016756753332434324,"20":0.028400141531471107,"21":-0.002751466516680069,"22":-0.006467413317441472,"23":-0.028208729497970878,"24":-0.09470619611110646,"25":0.0987489856067142,"26":-0.04114881201675145,"27":-0.018644066330143393,"28":-0.06555788865662329,"29":0.0728679526965936,"30":-0.02983977942855705,"31":-0.16485850438034239,"32":0.017918671759572714,"33":0.0631656114768242,"34":0.0031129473332231544,"35":-0.02347837513641554,"36":-0.04139621697956118,"37":-0.060367700689433916,"38":-0.0409251717481526,"39":-0.008774164218338022,"40":0.00739750568547174,"41":-0.042479506893693626,"42":-0.08588357991461505,"43":0.05035123377012078,"44":-0.022998946638891533,"45":0.09292093971681777,"46":-0.03488739747477141,"47":0.04104065920439843,"48":-0.027549932688288082,"49":-0.056322393901143665,"50":-0.04137296638624287,"51":-0.02638581069473146,"52":0.028544012806658227,"53":0.04040021417535568,"54":-0.025284442984485792,"55":0.10044519434969632,"56":-0.06960155763560875,"57":0.03057002875636478,"58":0.06915893041249208,"59":0.01296970625310533,"60":0.010593451478882741,"61":-0.1149474794699941,"62":0.007433934348848848,"63":-0.034459463661841105,"64":0.10058061593901851,"65":0.047941180923899034,"66":-0.035845885205853745,"67":0.036519135755140986,"68":0.04247750651630506,"69":0.039563953189225044,"70":-0.002111214899642762,"71":-0.04281679422344124,"72":-0.023614737025640695,"73":-0.013371306603524364,"74":0.016789077295282583,"75":-0.019716970572341334,"76":0.10671950349982062,"77":-0.03658792204242287,"78":-0.06013915519371919,"79":0.0037921025409333848,"80":-0.003974726727538889,"81":0.06751079373385749,"82":0.047294613765378114,"83":0.0536400933631722,"84":-0.09469919003778603,"85":0.030053873221709635,"86":0.06996778061766579,"87":-0.03795508516102674,"88":0.0833587440290772,"89":0.09441970938106937,"90":0.0319514656288394,"91":-0.06725383509885549,"92":-0.022440766024423988,"93":0.0034556668982568288,"94":0.047032216778066786,"95":0.1304402176661122,"96":-0.07627824921398324,"97":0.11676107632930616,"98":-0.06625973335197373,"99":-0.023639657170772776,"100":-0.029806234270912273,"101":-0.016641344530333353,"102":0.1687681998386606,"103":0.007029900559238442,"104":-0.0324782287454905,"105":-0.05862092074073269,"106":-0.007005491706777447,"107":0.014270282865564872,"108":0.02553856831024359,"109":0.034914066674674046,"110":0.04948907289009028,"111":0.003909511829969861,"112":-0.030243936907601836,"113":-0.08367623756694227,"114":-0.05535747245155339,"115":0.09255112034094995,"116":0.08034208252265593,"117":-0.000033356274200741516,"118":0.021711470658828197,"119":-0.07077958243223932,"120":-0.035660886523381195,"121":-0.010309863820560648,"122":-0.023913965176258586,"123":0.15236219625574493,"124":0.017888220905009043,"125":-0.0740827619099176,"126":-0.08933185441948056,"127":0.009048446164289632,"128":0.0016004243270870977,"129":-0.01764283294623509,"130":0.06559652098252569,"131":0.03103864198704172,"132":-0.06199756307303115,"133":-0.09137785055049785,"134":0.016554230165486114,"135":-0.06357464653594248,"136":-0.10994090596030473,"137":0.048975547238582495,"138":0.04547663964014366,"139":-0.10771007928883808,"140":-0.12698684891253997,"141":-0.013137494529900914,"142":-0.03510663982675244,"143":-0.07549594708601037,"144":0.07054511995579671,"145":-0.03701604395777518,"146":-0.01683864452378922,"147":-0.13840543249298948,"148":-0.009176315755303718,"149":-0.11678118241904938,"150":0.06505604089218174,"151":0.013728266491982104,"152":-0.08393381687359674,"153":0.04506436463677206,"154":-0.04965298261440418,"155":-0.02163394953305422,"156":0.02319364128949323,"157":0.0337580592176645,"158":0.04992337086747283,"159":-0.0029492788722412376,"160":0.04523750271534511,"161":-0.08827621908551243,"162":-0.04424763272688034,"163":-0.11407720923006677,"164":-0.05730325406818094,"165":0.023562695485474315,"166":0.0072680462484784394,"167":0.02160622128453159,"168":-0.08538804305742118,"169":0.0037760627881185463,"170":-0.06755683987809126,"171":-0.0005430178268713283,"172":0.06199786164174104,"173":0.030428114653324147,"174":0.01019795416819227,"175":-0.08360902686551755,"176":-0.014923658227992256,"177":-0.09387758148182059,"178":-0.06797173326750236,"179":-0.055997380156923134,"180":0.02939037456052609,"181":0.023230659990958077,"182":-0.14887297942838862,"183":-0.02434591804961365,"184":-0.027938846258228518,"185":-0.014075482257523914,"186":0.04720157598010791,"187":0.11514449536790342,"188":0.034534747123098515,"189":-0.11547276463051218,"190":-0.0025960671517124144,"191":-0.03729508925249874,"192":0.02736051079938701,"193":0.06273061216554032,"194":0.06338851473794194,"195":0.05283432892640554,"196":-0.08882255295944627,"197":-0.01378726697742387,"198":0.0370831695645849,"199":0.12296738956023838,"200":0.08355761665949256,"201":0.14294672657479532,"202":0.05651168804470501,"203":-0.13340413506237087,"204":-0.02990735783503232,"205":0.06070588720469042,"206":0.004087892995602328,"207":0.04688697277570959,"208":0.07961021589121643,"209":-0.027743973572891455,"210":-0.15645243635246112,"211":-0.06433131979189777,"212":0.08930647083690489,"213":-0.04513424131688642,"214":0.03461148191098,"215":0.06844209841269967,"216":0.013036918213422951,"217":-0.14159725028460549,"218":0.005425265782120716,"219":0.029305319330228823,"220":0.011087167278829146,"221":0.046536809562774534,"222":0.030330826144695643,"223":-0.009343006570286146,"224":-0.11061091348321433,"225":-0.05206149230272802,"226":0.00032460952866535185,"227":-0.1615874596385944,"228":-0.054559705386932056,"229":-0.027550372252202825,"230":-0.021822517526415553,"231":-0.052725795553365824,"232":-0.1017948385900829,"233":0.01097618089970251,"234":-0.07914732167011637,"235":0.00630317123801509,"236":-0.03185357787582453,"237":0.005468658352778966,"238":-0.03564502666136578,"239":-0.07547479643372151,"240":-0.0628812038606523,"241":-0.08275568325110824,"242":-0.013805629143116387,"243":-0.06021053254884696,"244":-0.08283690622238213,"245":-0.06455119978625697,"246":-0.13379589163196254,"247":0.044805640587537436,"248":-0.12933622683142695,"249":0.005474165454618341,"250":-0.04732407605376003,"251":0.008972933045724553,"252":-0.09185566125863563,"253":-0.07206940020111655,"254":-0.006205486488622753,"255":0.006511217916077955,"256":0.04336884057750252,"257":-0.005287937711727442,"258":-0.04662332902801097,"259":-0.12863993493602033,"260":-0.10721620901522254,"261":-0.015830179976513016,"262":-0.06760865874034704,"263":0.07004265048495635,"264":-0.03750176995166825,"265":-0.008621239028660375,"266":-0.15264720967076761,"267":-0.0766163932413367,"268":-0.01883048940307319,"269":-0.060922524962669006,"270":0.05579279987226364,"271":0.0020445678028322223,"272":-0.011958635307897173,"273":-0.07892339930365289,"274":-0.16234807901560633,"275":-0.06662888552121915,"276":-0.08311800807510313,"277":0.04160212396054758,"278":-0.037501931482036295,"279":-0.051607303792426076,"280":-0.06488932952906355,"281":-0.17560681915571175,"282":-0.04089769010608383,"283":-0.06532052608600623,"284":0.08408715678423623,"285":-0.006496436193647675,"286":-0.0338325343101346,"287":0.01689138703472994,"288":-0.16171928942063066,"289":-0.038481736552580414,"290":-0.033593009438853134,"291":-0.02033758954600491,"292":-0.009063406433847714,"293":-0.10508922040709581,"294":-0.01497774784630358,"295":-0.15307715315514414,"296":0.023975063514924507,"297":-0.035129411524816384,"298":0.0155390392566092,"299":-0.08175622725162844,"300":-0.10386439407285211,"301":-0.0021561896813698457,"302":-0.15150989884197424,"303":-0.02055950181967623,"304":-0.08913540186355305,"305":-0.017711240747795655,"306":-0.057542993167074535,"307":-0.14539365055980458,"308":-0.04207388632350088,"309":-0.13585696325807955,"310":-0.029700993341177807,"311":-0.04180531853257344,"312":0.013900650266796852,"313":-0.010222036220527574,"314":-0.05487138358395525,"315":-0.035655942348230676,"316":-0.13825959678276176,"317":0.05400513351383421,"318":-0.07501213106869217,"319":0.029242523054875468,"320":-0.050451212825248046,"321":-0.03958052690457403,"322":-0.08019053508251661,"323":-0.17863111029279366,"324":0.043064742683803704,"325":-0.024350582240719947,"326":-0.010059561703353035,"327":-0.04720647862648161,"328":-0.017839769679318458,"329":0.023230262490716778,"330":-0.1931136643339407,"331":0.13578314290224283,"332":-0.07071971061831506,"333":-0.016957363627979328,"334":-0.11603352982258233,"335":0.06811549872067811,"336":-0.001561479090491144,"337":-0.18749869539970895,"338":0.0736349431517566,"339":-0.1063957990405712,"340":-0.15363580455371648,"341":-0.058851132615847686,"342":-0.03767419208608645,"343":-0.01343530385353846,"344":-0.098696781498679,"345":-0.044975362066252134,"346":-0.13649244100738375,"347":-0.13050064328985064,"348":-0.1035069161604588,"349":-0.13812934694173437,"350":0.025458563400972772,"351":-0.11603423990902957,"352":-0.011600703257209997,"353":-0.5215964658155909,"354":-0.09317789280636428,"355":-0.06758278956686152,"356":-0.041900138142995244,"357":-0.05139878135957938,"358":-0.1652568440359266,"359":0.028146326313036603,"360":-0.5913708040683002,"361":-0.15492221608500378,"362":-0.0019297604484534237,"363":-0.001789645776030025,"364":0.011388913553939289,"365":-0.2136233171781576,"366":0.048453851064560086,"367":-0.5637854164489181,"368":0.004102383511148264,"369":-0.07852615181081597,"370":-0.06111183830187868,"371":0.011536032609916693,"372":-0.2048106494519462,"373":0.22071973750532126,"374":-0.5238527396033075,"375":-0.19747790390655084,"376":-0.03440217761339625,"377":0.01966540199796897,"378":0.06190747137141335,"379":-0.2452070364091233,"380":0.07675078760772192,"381":-0.5002200644625335,"382":-0.22229851896978148,"383":-0.07488672965727396,"384":-0.007973681117120317}},{"sx":1,"sy":1,"depth":385,"w":{"0":0.06046697375794177,"1":-0.05384890963648275,"2":-0.10242697049229299,"3":-0.05221645124553151,"4":-0.08162283807410782,"5":0.031179420392038547,"6":-0.03904555071656194,"7":0.00942614232425191,"8":-0.09269955079276329,"9":-0.04933050218431889,"10":0.01855321826407403,"11":-0.08814960329063279,"12":-0.012070283255064412,"13":0.016263922510960874,"14":0.046241677302992765,"15":-0.08002934953155628,"16":-0.10303428070291239,"17":0.015432262859335489,"18":-0.06949537579708533,"19":-0.0046635937705543215,"20":-0.013901629885462022,"21":0.01998184685379323,"22":-0.060429466359860046,"23":-0.05710473597469389,"24":-0.01011804431023792,"25":-0.0775415178865221,"26":-0.002270871591057346,"27":0.012085496671401373,"28":-0.009862826572361016,"29":-0.05093896585799964,"30":-0.06256407683292577,"31":-0.02740773801984591,"32":-0.10512134764279359,"33":-0.04116389746378524,"34":0.020619494608763708,"35":-0.021497897744148398,"36":-0.0340491726160359,"37":-0.03677173628460682,"38":-0.006037461748997477,"39":-0.07335624682097296,"40":-0.04206151525660191,"41":-0.014467876012508192,"42":-0.04511008752925897,"43":-0.06196482453970763,"44":-0.04050576619059347,"45":-0.029444378811408975,"46":-0.03608094295809992,"47":-0.0629137650945049,"48":-0.0450780967764481,"49":-0.027301967321991156,"50":-0.016352993840489743,"51":-0.08535613320031397,"52":-0.03102487641511333,"53":-0.08982360252120034,"54":-0.03095319855855313,"55":-0.03398119477389021,"56":-0.0488922534822778,"57":-0.014745566836477474,"58":-0.07116793128450441,"59":-0.016268288315379565,"60":-0.07119206074696838,"61":0.005213615539762851,"62":-0.040556259434701564,"63":-0.02661833678906582,"64":-0.061770173826579955,"65":-0.05113714073799221,"66":0.01159088950918465,"67":-0.053931882542292406,"68":-0.001969557846511908,"69":0.000674205354485832,"70":-0.009075236887857632,"71":0.005863567215351308,"72":-0.015893195571117718,"73":-0.013167659285562933,"74":-0.07884819850479141,"75":-0.01914214921826439,"76":-0.017869485530358737,"77":0.061004965215140816,"78":-0.03689503060426232,"79":-0.027068832542877008,"80":0.022380456187166536,"81":-0.06053006321133799,"82":-0.012138172133184872,"83":0.010153819245935074,"84":-0.016704008064516763,"85":0.029331365476486557,"86":-0.03212300197335566,"87":0.006289315369998339,"88":-0.07257499660018812,"89":-0.04639709240168036,"90":0.009507820901743484,"91":-0.030519772663120587,"92":0.016052974285367463,"93":-0.037841120340443075,"94":0.02286269678974122,"95":-0.09217744136190181,"96":0.011941886665569005,"97":-0.011738216644964578,"98":0.009333449291564426,"99":-0.0025242770943281066,"100":-0.058139610892310664,"101":0.03097010579882784,"102":-0.039695250823413894,"103":0.006108656697502015,"104":0.0008093678545239899,"105":-0.027374839951343728,"106":-0.017738067627316015,"107":-0.000884693614866245,"108":0.00504986428913294,"109":-0.03616589885080516,"110":0.05122518936897356,"111":-0.009078408917239326,"112":-0.013548954191786557,"113":-0.043206339301944285,"114":-0.045503724603280324,"115":-0.02233956018917655,"116":-0.04244498732099877,"117":-0.0261238618560709,"118":-0.00822369401142294,"119":-0.007996209936363883,"120":-0.04769599137254639,"121":-0.07730058184447912,"122":0.020088735195796334,"123":-0.021396200177458122,"124":0.012365953520383253,"125":-0.034562754368968,"126":-0.020802368829334564,"127":-0.06527613127754545,"128":-0.04997158601665273,"129":-0.011764685846303895,"130":-0.08295680931871466,"131":0.010655045575146394,"132":0.0320510608740357,"133":0.010421065577080583,"134":-0.010891491784532848,"135":-0.050674139994999375,"136":-0.01522440354619007,"137":-0.03275490167398419,"138":0.040556036879323104,"139":-0.011562592602974417,"140":-0.005114531887915568,"141":-0.028636859414601007,"142":-0.048362900435759644,"143":0.0217129211809477,"144":-0.05446855526558632,"145":0.00414687927904959,"146":-0.004313945257693226,"147":0.037173027031432895,"148":-0.004624154977226557,"149":-0.06418524259095225,"150":-0.0041195288837396335,"151":-0.05511425173535049,"152":0.014588581311754705,"153":-0.04867213975469696,"154":0.023690734522372137,"155":0.008819856240868972,"156":-0.03064832859841559,"157":-0.03551346096064772,"158":-0.01636724522523101,"159":-0.006569261503863351,"160":0.003476700380562904,"161":0.01062380774300182,"162":-0.014152148307306473,"163":-0.07542070860598674,"164":-0.01975591102457663,"165":-0.00892754368808909,"166":0.0017135104940994297,"167":-0.008933648135310867,"168":0.03925725703437968,"169":0.00460365121857604,"170":-0.03602890618581344,"171":-0.023185613333716167,"172":-0.01065706444671523,"173":0.022186790482667123,"174":-0.01863275125045098,"175":0.028359544679584143,"176":0.008168106904022828,"177":-0.0197883048744863,"178":0.008919967267335504,"179":-0.0002712342754538373,"180":0.023110406383324556,"181":-0.008035242091433668,"182":0.018313295770991857,"183":-0.02834072979616838,"184":-0.022676950532766485,"185":0.010214046445340746,"186":-0.031748895265181196,"187":0.044550743465037124,"188":0.009924099294523358,"189":0.0052984202583218915,"190":-0.043995501065828155,"191":0.015128081048466724,"192":0.01705515888748173,"193":-0.05100679100817777,"194":0.009947019013518566,"195":0.007516673917594891,"196":0.019628361063279212,"197":-0.016512801947903,"198":0.024607940942694993,"199":0.013993167603647983,